enterprise 0.077705 0.39782 -0.92211 -0.80767 0.97018 -0.38876 -0.31455 -1.1005 1.9729 -0.54332 -0.14937 0.20366 -2.8193 -0.029098 0.67398 -0.26302 0.18327 0.8201 1.0919 0.51221 -0.62875 -1.613 -0.8032 -0.6556 -0.62712
multimedia 0.1605 0.26304 0.40192 -0.51574 1.7443 -0.49614 -0.42014 0.057976 1.6141 -0.48078 -0.0051086 -0.14139 -1.3721 -0.36189 0.64329 0.22968 0.70722 0.84525 0.59723 0.76865 -1.0517 -1.1774 -0.77339 -0.30655 -0.34841
hyper -0.59109 -1.287 -0.67038 -0.85464 0.3126 1.648 0.64398 -0.35194 -0.040598 -0.21767 -1.1966 0.15088 -1.9499 -0.063518 0.22005 1.1059 0.69523 0.20847 -1.0925 0.47705 -0.090985 0.13314 0.26328 0.15479 -0.4719
nursing -1.689 0.75533 -0.46591 -1.1649 1.9525 -0.5256 0.043284 -1.4944 1.3684 0.35498 -1.0736 -0.90148 -2.6518 0.30142 1.1133 -1.3199 1.0086 0.10069 -0.047718 -0.49243 0.0059007 -0.065928 -0.56399 -0.23332 -0.22633
solr -1.2151 0.71293 -0.39781 -0.076633 -0.25152 -0.63012 -0.81149 -1.3041 1.664 -0.64441 0.244 0.51852 0.43314 -0.99851 0.698 0.25386 0.061694 0.28562 1.2901 0.47561 -0.39971 -0.060402 0.077673 -1.4126 -0.030843
rds 0.20627 0.62953 -0.25058 -0.86462 -0.386 -0.4372 -0.67963 -0.97306 0.70566 -0.29185 -0.64935 0.22771 -1.2046 0.61046 0.097602 0.1287 -0.51004 0.045782 0.37441 0.94393 -0.45577 -0.40098 0.30337 -0.72029 -0.14121
icon 0.19977 -0.72056 0.78968 0.067948 1.6236 -1.6984 0.9419 0.86614 -0.35001 -0.84133 -0.24766 -1.1232 -2.4907 -1.5496 -0.91967 0.4267 -0.53149 -0.031421 -1.0952 -0.24268 -0.18673 -0.43573 0.36845 0.72234 -1.1233
publication 0.3798 0.18169 -0.36747 0.02544 0.76322 -1.231 -0.10737 -1.3868 0.53136 -1.2462 0.30549 0.1457 -1.6851 0.72151 0.46742 0.47505 0.52329 0.72433 -0.81743 0.19019 -0.52039 -1.0724 -1.1691 -0.41338 -0.76485
quality -0.096975 0.21969 -0.84022 -0.58338 1.453 0.54751 0.58953 -0.54716 0.39393 -0.48212 0.38452 0.44654 -3.8212 0.021838 0.36766 -0.20218 0.61979 -0.33486 0.56741 0.5327 -1.2987 -0.47042 -0.78906 0.31166 -1.1782
java 0.41937 0.68427 -0.29854 -0.62368 0.31021 -0.023239 0.054066 -0.021802 1.9345 0.042953 0.23708 -0.032852 -2.0971 -0.92664 0.84325 -0.20764 0.28001 0.54722 0.68764 0.85165 -1.2571 -1.3874 -0.83961 -0.66667 0.71457
scrapy -1.4504 0.33591 0.20972 0.81631 -0.18351 -0.0017134 -0.70712 -0.94327 0.77296 -1.5165 -0.57984 0.68772 0.4357 -1.07 0.53768 0.21042 1.0903 -0.11275 1.0403 0.76724 0.56643 1.1085 0.15865 -0.22431 -0.60603
intercom -0.12839 0.46885 0.9113 -0.019915 0.41779 -1.539 -0.62729 -1.4103 1.3069 0.22254 -0.42531 0.58225 -1.1062 -0.45843 0.68955 0.99794 0.55978 0.7981 0.63929 0.08431 -0.20192 -0.46171 0.90476 -0.64678 -0.26605
html 1.0371 0.078003 -0.48718 -0.056654 1.5785 -0.43175 0.31152 -0.58932 1.3459 -0.18933 0.13682 -0.042552 -1.9687 -1.1797 -0.0074557 0.16534 0.16734 0.66724 0.90382 0.65366 -1.0039 -1.8059 -0.69661 -0.086449 -0.37101
classifieds -0.11965 0.79456 -0.96286 -1.4051 0.21651 -1.2654 -0.6895 -1.6522 0.54484 0.063459 -0.14146 -0.84303 -1.0627 -0.87496 0.40944 -0.5146 0.35114 -1.0906 0.67115 0.28456 -0.65209 -1.4504 -0.5772 -1.7523 -0.048887
gradle -0.49532 0.059941 -0.20822 -0.20857 -0.2262 -0.70487 -0.073857 -1.6184 1.1714 -1.4221 0.22666 0.64364 0.76078 -0.67548 -0.49201 0.87503 0.47767 0.66242 1.5745 0.66194 -0.86678 -0.32187 -0.51544 -0.476 -0.15523
coder -1.4221 0.44907 -1.3965 -0.17662 1.1889 -0.6684 -0.50985 -1.2683 1.6544 -0.80827 -0.13233 -0.091521 -1.0158 -1.1351 1.0182 0.41659 0.36653 0.26795 0.59031 0.45472 0.46664 -0.54121 -0.82705 -0.88082 0.39773
slim 0.14105 -0.34033 -0.24178 -0.32406 0.45286 1.0469 -0.95435 0.20731 0.49026 -0.67568 0.035329 0.33203 -3.0507 -1.4582 -0.19867 0.11617 0.20764 0.26433 0.51916 1.1592 -0.13724 0.68703 0.23942 0.2467 0.074064
paint -0.42841 -0.54617 0.62959 0.59182 0.44252 0.43995 0.34684 -0.92017 0.50345 -0.31286 0.52258 -0.41656 -3.3039 -1.1278 -0.09296 0.62482 0.7284 -0.1261 0.74948 0.087594 -0.98768 -0.077435 0.97784 0.27921 -0.14417
hr 0.16041 0.8659 0.10346 -0.4647 0.31453 0.95508 -0.5152 0.79143 1.6277 0.15564 -0.69899 -0.37955 -2.8125 1.22 0.14856 -0.8348 -0.60038 0.53108 -0.61591 -0.83584 -0.87111 -0.32045 -0.74043 1.0544 -0.60289
language 0.9416 -0.47878 -0.62124 0.23949 1.0698 -1.1237 1.7232 -1.1387 0.79216 0.24449 -0.75812 0.28274 -3.2941 -0.24294 0.49109 0.49909 0.74262 0.60819 0.43492 0.37609 0.37856 0.17077 -1.2368 -0.35676 -0.20191
arduino -0.94612 0.15295 -0.20907 -0.093957 0.60375 -0.64871 -0.49106 -0.66582 1.3397 -0.72584 0.19381 -0.087801 -0.94454 -0.25836 0.40012 -0.39352 0.7381 1.2292 0.63385 0.70876 -1.0776 -0.72176 -0.080401 -0.19935 -0.31333
ibm 0.55678 0.48263 -0.41766 -0.75198 0.191 -0.32197 -0.91926 -0.36034 1.9003 -0.27551 0.57812 0.33388 -2.2637 -0.55285 0.39131 -0.45387 -0.086691 1.3368 1.2295 0.54036 -0.47712 -1.2954 0.020132 -0.5155 -1.2989
biology 1.3183 0.83594 0.46701 -0.31639 0.82141 -0.42114 1.6978 -1.5097 1.0762 0.24295 -1.2328 -0.0047767 -2.1688 0.03089 2.0612 -0.32444 0.71663 0.61502 0.12802 -0.41466 -0.66131 0.20886 -0.7372 0.70146 -0.10495
implementation 0.074112 0.81066 -1.7474 -0.56935 1.0479 -0.59028 -0.56581 -1.3493 1.3262 -0.49516 -0.20287 0.49378 -1.7206 0.38452 1.5233 -0.26522 -0.1362 0.98878 0.66221 -0.35582 -0.43747 -0.77073 -0.93493 0.032052 -0.78616
transformation -0.81951 0.0046508 -0.57076 -0.12425 1.6098 -0.79881 1.2747 -1.1864 0.14224 -1.3448 -0.40509 0.65634 -1.8382 0.67173 0.8334 0.45676 -0.070262 0.60703 -0.012915 0.11081 -0.36023 -0.2567 -0.41646 -0.23975 0.079022
ads 1.0915 0.64577 -0.12174 -0.68136 0.89309 -0.52827 0.66602 -1.179 0.59453 0.11959 0.48325 0.1027 -2.4763 -0.59712 -0.093424 0.27368 0.16788 -0.63369 0.17735 -0.3029 -0.51456 -1.2562 -0.2997 -0.76017 -0.4582
industrial -0.52454 -0.29745 -0.6359 -0.9628 1.3567 0.26237 -0.35036 -0.46873 1.6806 -0.0057484 0.41338 -1.1286 -2.6353 0.12184 0.9274 -0.60807 0.41998 1.332 1.4418 0.64091 -0.68296 -0.39539 0.24763 -0.69074 0.4614
comics 0.53507 -0.39814 0.60817 -0.46348 0.28494 -0.67025 1.0804 -0.55333 0.3179 -1.2729 0.63575 0.17182 -2.1278 -0.5365 0.51136 0.60782 0.40551 0.20939 0.71354 1.0185 -0.75481 -0.82693 -0.82727 -0.8084 0.46057
healthcare -0.68379 1.3591 -1.8428 -0.61712 1.1889 -0.80935 -0.54723 -1.3146 1.3267 0.22603 -0.35481 -0.77588 -3.1056 0.38057 1.3628 -1.5276 -0.15976 0.66125 1.0315 -0.22143 0.098281 -0.96358 -0.78247 -0.49085 -0.35776
dotnetnuke -0.61596 0.94409 -0.12645 -1.2862 0.57387 -1.339 -1.6473 -2.3499 0.8442 -0.69365 -0.88418 -0.48132 -0.036747 -0.71837 -0.067691 -0.054345 -0.028122 0.41471 1.5377 0.99154 -1.1482 0.59152 -0.25766 -0.43958 -0.73571
github 0.13113 0.76159 -0.34416 0.36349 0.42468 -1.2261 -0.58482 -1.4118 0.94544 -0.18204 -0.021416 0.26369 -1.2125 -0.43503 0.023151 -0.26863 0.98911 1.0227 0.64697 0.43409 0.16159 -1.3512 -0.047557 -0.43228 -0.46512
trading 0.30735 0.90917 -1.0988 -0.55566 0.99176 0.43623 0.25994 -1.2506 1.3359 -0.60753 0.97802 0.42525 -2.3355 0.13444 0.82069 -1.0943 -0.10821 -0.4343 0.40453 -0.17488 -0.86908 -1.0034 0.28212 -0.33575 -1.0822
copywriting 0.33825 0.49395 -1.286 0.16807 2.0896 0.0083189 0.060671 -2.0345 1.2355 -1.078 -0.2988 0.12238 -1.0734 -1.4026 0.92005 -0.14109 0.57323 0.36568 0.82717 0.025497 -0.11659 -1.6534 -1.1969 0.050787 -0.55341
sails -0.78045 -0.59064 -0.23325 0.74225 -1.0864 -0.49501 -0.21812 -1.2847 0.68265 -0.58002 0.074223 0.97786 -1.0582 1.2619 -0.74109 1.0809 -0.021976 0.62677 1.0969 0.1303 -0.63179 -0.067151 0.7777 -0.53195 -0.89157
development -0.058118 0.50429 -1.2562 -0.96226 1.3925 -0.59478 0.33611 -1.1901 1.8139 -0.5984 0.083529 0.20095 -3.6619 0.72713 1.1768 -0.37622 -0.27431 0.87562 0.59003 -0.12279 -0.70333 -1.2093 -1.3537 -0.55473 -0.40593
sprint 0.40738 1.1427 0.033639 -1.2048 0.1317 0.13471 -0.34016 -0.5691 0.98055 -0.11029 0.53348 0.27349 -2.6229 -0.24274 0.97387 0.60786 0.26322 -0.41259 0.12972 0.46928 -0.75678 -0.40177 1.4032 -0.80227 -0.53121
capistrano -1.1457 -0.57689 0.16839 0.54525 -1.78 -0.39073 -0.86885 -1.2776 1.2874 -1.2877 -0.11452 -0.45475 -0.67799 0.19898 1.6037 -1.3804 0.42931 -0.084215 1.4336 0.39157 -0.092876 0.23449 -0.75919 -0.98176 0.31698
nutrition -0.20495 0.90263 -1.8798 -0.1726 1.8185 0.3517 0.62193 -1.8757 1.3007 -0.76942 0.2632 -0.23873 -2.2521 -0.33228 0.7413 -0.97842 0.29667 0.033733 0.84782 0.31021 -1.01 -0.28895 -1.1285 0.56112 0.48514
capture 0.53701 0.23388 -0.35359 0.5219 0.28305 -0.68189 0.9669 0.046407 0.78053 -0.030633 0.56234 0.31699 -1.7239 0.18479 -0.20469 1.2902 0.61407 -0.011604 0.028444 -0.25493 -1.1443 -0.76404 0.23091 -0.30423 -0.74968
angularjs -0.48153 0.33701 -0.3188 0.25894 0.53815 -1.0352 -0.43195 -1.7612 1.0129 -0.81523 0.3557 0.23279 -0.00031535 -0.98636 0.071358 -0.025271 0.64915 0.31652 1.0515 0.4785 -1.12 -0.65818 -0.63624 -0.53104 -0.31031
razor -0.74706 -0.31461 0.16589 0.1429 -0.094778 0.035282 -0.47988 -0.99272 0.92564 0.14924 0.38267 0.75118 -2.1921 -1.3243 -0.065646 -0.42962 0.17841 0.17368 1.3611 0.74877 -0.68529 1.0783 2.0635 -0.098825 -1.0974
ubuntu 0.29903 0.25341 0.22305 -0.1298 0.36177 -0.12864 -0.50364 -0.6272 1.4163 -0.33318 1.1359 -0.37654 -1.5526 -0.96673 0.21023 0.036133 0.47151 0.68708 0.79793 0.24492 -0.99953 -1.4608 0.36492 -0.40488 -0.25801
growth 0.022749 0.31908 -1.795 -0.022795 1.411 0.18276 0.44659 -1.6377 1.0378 -0.17833 0.58376 0.34924 -2.9528 1.5173 0.3714 -0.98953 -0.83553 0.78084 1.0361 -0.87646 -0.60326 -0.59361 0.21337 -0.10324 -0.91048
atom -0.42604 -0.16238 0.60197 0.30697 0.10855 0.20093 -0.84655 -0.29037 1.1967 0.78981 1.0699 0.095912 -1.235 0.10934 -0.384 -0.30705 0.18047 0.31991 1.0392 0.54348 -0.63256 0.40998 -0.08287 -0.36585 -0.46224
versatile -0.8792 -0.48776 -0.84963 -0.79472 1.2919 1.0032 0.11624 -1.1315 0.44723 -1.5614 -0.35247 0.76214 -1.399 -0.11914 -0.63494 -0.030595 0.2882 0.11823 0.93365 0.1515 0.056732 0.54097 -0.70951 -0.44628 -1.124
web 1.0591 0.29613 -0.10424 -0.62405 1.8449 -0.34918 -0.19056 0.72492 1.1738 -0.31219 0.17049 -0.8397 -3.0669 -0.50061 0.021365 0.31307 0.16442 0.43272 -0.067986 -0.1139 -0.67767 -2.2505 -0.87414 -0.42335 -0.22745
ray -0.18081 0.23502 0.74845 0.15026 -0.40082 -0.21292 0.14163 0.81617 0.31048 -0.96549 0.23583 0.92874 -3.3951 -0.71268 0.47431 -0.7948 -0.19935 -0.1185 -0.065694 0.55593 0.027325 0.79182 0.37541 -0.10463 -0.45337
frog -1.2158 -0.74924 0.91941 0.72985 -0.12917 -0.19555 1.2365 -0.77196 0.85161 0.11922 0.16816 0.33334 -2.0845 -0.53471 0.013538 0.18178 1.2831 0.089331 0.57264 0.50694 0.27134 0.66504 0.54097 -0.58377 0.67097
competitive -0.068608 0.19428 -1.4952 -1.4743 1.0198 1.0305 0.82167 -1.3912 0.2958 -0.75199 -0.35695 0.017999 -2.4255 0.29464 0.68062 0.32459 -0.015814 -0.48731 0.72375 -0.25571 -0.99236 0.26052 -0.42908 -0.95832 -0.98505
lms 0.88875 0.42755 -0.43848 -1.0614 0.37287 -0.78991 0.040822 -0.85345 -0.25664 -0.2904 -0.95298 0.67979 -1.1092 -1.0424 -0.19506 0.22575 0.23712 -0.39719 0.272 0.23073 0.43207 -0.44889 0.14159 0.083613 -0.65906
crm -0.015308 0.34361 -1.5078 -0.48458 1.2342 -0.056368 -0.65244 -1.1523 1.4526 -0.86123 -0.13999 0.10421 -1.7453 -0.33777 0.83396 -0.6769 -0.1508 0.55964 0.56672 0.59058 -0.050552 -1.8882 -0.89596 -0.096629 -0.85389
coaching 0.065367 1.2384 -0.82009 -0.92805 1.2994 0.15462 -0.19878 -0.69544 0.52891 -1.6626 0.043051 0.16896 -2.8796 0.41843 1.8659 -0.10995 -0.11306 -0.31542 0.24311 -0.14156 -0.40038 0.076618 -0.88038 -0.8359 -0.30155
sugarcrm -0.9836 0.38479 -1.0469 -1.5512 0.58751 -0.84176 -1.1241 -2.0199 1.431 -1.3813 0.33777 0.53166 -0.24643 -1.3714 0.92144 -0.087823 0.025873 -0.6356 0.8281 0.5161 0.12665 0.72943 -0.64147 -0.94554 -0.38925
ebooks 0.66584 0.24772 -0.080222 -0.42501 1.2059 -0.90508 -0.044734 -1.4297 -0.16526 -1.3936 1.0404 -0.1425 -1.8107 -0.99876 -0.087386 0.087178 0.57513 0.047134 0.82371 0.35916 -1.2779 -2.1757 -1.4787 -0.062091 0.19099
startup -0.24329 0.86504 -0.96189 -0.87706 1.1538 -0.9006 0.072354 -0.88054 1.2731 -0.71703 0.44247 -0.67997 -2.8269 0.16255 0.11882 0.12482 -0.065579 0.3521 0.71237 0.33702 -0.57121 -1.3974 -1.1279 -1.1392 -0.033328
contract 0.41657 1.1914 -0.82869 -0.90333 0.37183 -0.68366 -0.78718 -0.70893 0.19999 -0.63959 1.3237 0.9688 -3.3908 0.74343 1.5112 -0.56097 0.33237 0.32806 -0.2074 -0.59444 -1.1778 -0.14515 0.14125 -0.057014 -1.253
benefits -0.19672 0.77754 -1.5089 0.46417 1.0413 -0.19135 0.33669 -1.9916 0.07041 -0.054454 0.71516 -0.26374 -3.3317 0.3171 0.57624 -0.86899 0.23346 -0.031563 0.47667 -0.53446 -0.222 -0.35091 -1.1802 0.028258 -0.64995
cms 0.52728 0.39134 -0.61364 -0.64119 0.52107 -0.4062 -0.64245 -0.60154 0.86752 -0.37546 0.14984 -0.26147 -1.5956 -0.40006 0.63326 0.061268 0.53752 0.28133 0.99579 0.65215 -0.29668 -1.1138 -0.482 -0.22897 -0.61012
nuke 0.41585 1.3747 -0.6017 0.48293 -0.54796 -1.3412 -0.032605 -0.86196 1.5954 0.25142 0.22971 0.29719 -1.6431 0.32828 0.20222 -0.24946 0.50657 0.32138 0.55841 -0.20568 -0.12898 0.20524 0.40408 -1.0305 0.17043
live 0.19819 0.17226 0.28588 -0.45673 -0.88396 0.026332 1.1668 0.73735 0.1921 -0.63913 -0.53035 0.07423 -4.2908 0.084804 -0.016509 0.059192 -0.75657 -0.047736 -0.82864 -0.098278 -0.94328 -1.0522 0.074826 -0.54022 1.0861
cinema 0.060814 -0.40228 1.3039 -0.40364 -0.12712 -0.47501 0.5558 -0.3937 1.1377 -0.97803 -0.44019 -1.5176 -2.6142 -0.32932 0.3218 0.18538 -0.41482 0.42961 -1.0485 -0.2828 -1.1525 -0.45971 -0.35847 -0.43714 1.1153
website 0.91085 0.47916 -0.40083 -1.2323 1.1397 -0.81843 0.25469 -0.58469 0.40444 -0.060113 0.48212 0.51595 -3.6604 -0.7038 0.20602 0.35301 0.49429 -0.051915 -0.41574 -0.19065 -1.0275 -2.1406 -1.3129 -0.1211 -0.85976
apps 1.8114 0.69289 -0.028091 -0.83555 1.5535 0.070162 0.17725 -0.68913 0.4651 -0.13911 0.51372 -0.16856 -3.0811 -0.50642 0.007524 0.66034 0.73841 -0.19847 0.74694 -0.16718 -1.0582 -2.0187 -0.65831 0.11568 -0.415
modeling -0.94376 0.69401 0.1629 -0.68487 1.8168 -0.35314 0.3415 -1.3172 0.95715 -0.84572 -0.39181 0.38015 -2.0504 -0.74556 -0.0024357 0.56973 0.039854 -0.61922 -0.31634 0.37623 -0.34765 -0.10693 -0.963 -0.61813 -0.81495
waterfall -2.0838 -1.4942 0.19797 0.90729 -0.88067 -0.094492 0.84124 -1.2464 1.0813 0.18251 0.51751 0.015333 -1.4825 0.14118 -0.2059 0.8516 0.62166 0.41646 0.30749 0.34516 -0.73216 0.10479 0.51834 -0.96792 0.70145
postgresql 0.16117 0.47523 0.036257 -0.016926 0.053105 -0.67919 -1.0335 -1.3578 1.7278 -0.28998 -0.049261 0.044998 -0.16163 -0.080972 0.039182 0.36025 0.51846 0.96447 1.8057 0.67251 -0.36588 -1.0142 -0.59814 -0.63095 -0.2284
sphinx -1.5715 1.0669 0.37693 -0.9085 -0.94183 -0.85097 0.11334 -1.062 0.13333 -0.51953 -0.37661 0.46479 -0.3966 1.3911 -0.076002 -0.2564 0.45079 -0.25998 -0.056348 0.99854 -0.67953 -0.34566 0.044657 -0.81292 1.1583
b 0.50344 0.61831 -0.24684 -0.93508 -0.11275 0.22688 0.15222 2.3432 -0.24032 0.12045 -0.60827 -0.25307 -4.0088 0.42389 -1.2794 -0.72646 -1.152 -0.36694 -0.77069 0.80603 -0.52068 -0.40503 0.23572 0.12789 0.21919
environment -0.49569 -0.41488 -1.8865 -0.038236 0.56192 -0.14628 0.7953 -1.5559 1.448 0.19922 -0.8142 -0.014186 -3.0206 0.59221 0.70599 -0.18695 -0.028734 0.33799 1.143 -0.1505 -0.26006 -0.90097 -1.0793 -0.63975 -0.27055
fpga -0.9631 -0.093829 -0.6384 -0.84065 1.1594 -0.71875 -0.72575 -1.5048 1.949 -0.90173 -0.40377 0.46066 0.07337 -0.98901 0.20345 -0.62846 0.72291 0.86142 0.77802 0.68264 -0.015325 -0.3558 -0.86947 -0.6662 -0.35199
maya -0.57672 -0.18698 0.48692 -0.27479 -0.34632 -0.75213 0.1586 1.6234 0.31328 0.38844 -0.33159 -0.47841 -1.8786 0.29012 0.30778 0.614 0.3536 0.34373 0.058598 0.33763 -0.25799 0.43576 -1.276 0.01361 0.055725
color -0.3734 -1.5161 0.23972 0.33848 1.2926 0.56798 0.49522 0.75769 -0.060734 -0.48323 0.8944 -1.2159 -3.4731 -0.4029 -0.25585 0.44544 0.93631 -0.12035 1.2311 0.62864 -0.48798 -0.39443 1.1919 0.42624 -0.77161
haskell -0.66043 -0.13525 0.54363 -0.24477 -0.48653 -0.55274 -0.95278 -1.3997 0.89785 -1.0552 -0.56177 0.47996 -0.82117 -0.36525 0.14599 -0.68533 0.43674 0.79574 1.2607 1.3342 0.39668 -0.51442 -0.65373 -0.30804 -0.34292
quantity 0.28357 0.21205 -1.5407 -0.19165 0.53975 0.48733 -0.66975 -1.7338 0.36009 -0.17389 0.094736 0.47848 -2.0877 0.50703 0.19989 -0.32938 0.67633 -0.15534 1.2734 0.5599 -0.20955 -0.65973 -0.72147 0.37345 -0.65869
service -0.30753 0.88404 -1.0297 -0.61819 1.0883 -0.51168 0.20697 -0.43241 1.2657 0.45289 0.51967 0.050615 -3.8389 0.59332 1.0632 0.32348 0.85886 -0.043038 -0.57752 -0.17569 -0.33373 -1.6769 -0.46403 -0.25104 -0.54795
yii -0.79359 0.38843 -0.67821 0.28038 -0.2702 -1.4428 -0.44818 -0.11568 0.20863 0.078699 -0.90659 0.023672 -0.040916 0.14348 0.41844 -0.11389 0.42759 1.182e-05 -0.12714 0.36834 0.030425 0.35688 -0.7245 1.2696 -0.30915
estate -1.6792 0.16563 -0.82687 -1.2089 0.70297 -0.62047 -0.40886 -0.76758 0.98678 -0.38394 0.50221 -1.6797 -2.8095 0.58989 0.40078 -0.45495 0.12339 0.66608 -0.30038 -0.16451 0.23902 -1.2382 -0.27695 -0.53897 -0.40243
engine 0.077376 0.47648 -0.17966 -0.33534 1.1892 0.28513 -0.10311 -0.95278 2.0659 0.36217 0.53068 0.81249 -2.6649 -0.44745 0.41704 0.26358 -0.018904 0.31951 0.84791 0.11202 -0.34756 -1.1325 0.77488 -0.42614 -0.72415
streaming 0.58733 0.97173 0.13711 -1.202 -0.44766 -0.44019 0.15353 0.71578 0.79835 -0.27708 0.41351 0.16418 -2.1648 -0.098592 1.0958 0.67144 -0.37044 -0.10277 -0.55773 -0.15796 -1.7071 -1.2334 0.11934 -1.0186 0.37195
davinci -1.3701 -0.019098 0.24418 0.50689 -0.74171 -0.56075 -1.034 -0.93055 0.95923 -0.79716 0.13382 0.39129 -0.78832 -1.5178 0.43668 -0.16719 -0.073296 0.70311 0.65047 1.0191 -0.46082 -0.044454 0.031864 -0.68107 -0.23504
cucumber -0.93892 -0.53106 -0.076851 1.2284 -0.42073 0.57278 0.27791 -2.0537 0.16232 -0.17612 0.91642 -0.28016 -1.4326 -1.5892 0.27062 -0.82859 1.2586 -0.47312 0.44714 0.62342 -0.12856 0.83153 -0.042993 0.41788 0.39497
curation -0.28315 0.24753 -1.3131 0.15279 1.524 -0.73526 -0.31257 -1.5842 1.2842 -1.3441 -0.091496 0.38719 -1.262 -0.60318 0.45131 0.89336 -0.57463 0.85903 0.80801 0.66693 -0.13966 -1.3504 -1.3192 -0.55495 -0.5409
vpn 0.25511 1.078 -1.0217 -0.0113 1.007 -0.51067 -0.60477 -1.1539 1.3306 0.52299 0.121 -0.39955 -1.054 -0.3734 0.18676 0.39242 0.76781 0.17764 1.0015 0.34507 -0.042122 -1.6666 0.5141 -0.5606 -0.45408
influencer 0.11199 0.36002 -1.6911 -0.3531 1.1433 -0.29084 -0.89974 -1.058 0.99227 -0.8613 -0.34199 -0.22903 -0.93625 -0.091806 -0.1121 0.98698 0.0047895 -0.18937 0.28958 0.23246 -0.062704 -1.078 -1.0775 -1.4418 -1.404
after -0.46062 0.53253 0.69647 -0.2989 -0.21479 -0.39298 1.401 -0.43522 -0.11868 0.37274 0.41904 0.517 -4.6403 0.928 0.99717 -0.25526 0.25102 -0.23092 -0.6935 -1.3956 -0.58725 0.25269 0.44186 -0.57312 -0.17479
commerce -0.15154 0.25606 -1.262 -0.55837 0.65081 -0.86237 -0.55602 -1.2054 1.5555 -0.51098 0.069632 -0.6378 -2.4649 0.29133 0.76873 -0.10935 0.13974 0.40416 -0.44454 0.58378 -0.13578 -1.1117 -0.7687 -0.91758 0.098077
capacity 0.15773 0.10767 -0.65637 -0.0095187 0.70224 0.34776 -0.34609 -1.2562 1.4789 0.40296 0.21333 0.47474 -2.7903 0.70086 -0.14213 0.070801 0.19465 0.9821 1.2054 0.1264 -1.1292 -0.54057 0.76713 0.78235 -0.64657
va -0.28614 -0.27808 -1.155 0.14996 -0.69535 0.68481 -1.3057 2.4478 -0.33501 -0.90984 0.45687 -2.5167 -2.5573 0.27567 1.6112 1.7096 -0.25485 0.17721 -2.0633 0.48807 0.79492 -1.0431 0.59461 0.070184 0.48655
sketch -0.11577 -0.60782 0.36969 -0.067569 1.0745 -0.46301 1.0861 -0.52002 0.52686 -1.3293 0.31378 0.60486 -1.9285 -0.7405 0.70671 1.0096 0.87902 -0.073827 -0.67832 0.49423 -0.58562 -0.49744 0.0095658 -0.344 -0.2159
canva -0.9307 -0.34703 0.10035 -0.10402 0.45791 -1.0831 -1.2168 -1.5625 -0.40488 -0.75422 0.17944 0.56994 0.21041 0.64953 0.79234 0.586 0.47483 0.68504 1.3667 0.25668 -0.38734 0.21572 0.5096 -0.038712 -1.2306
infrastructure -0.3467 0.5053 -1.7332 -0.74816 0.94667 -0.11938 -0.48473 -1.6215 1.8853 0.2743 0.050221 -0.29516 -2.7064 0.67689 0.98935 -0.52086 -0.14711 0.73039 1.412 -0.10702 -0.48088 -1.1918 -0.68958 -0.34127 -0.59217
handlebars -1.0818 -0.62205 -0.46794 0.46773 -0.58273 -1.711 -0.48769 -1.6209 0.99588 0.75823 0.013449 -1.161 -0.69427 -0.1828 0.43155 1.5551 0.64766 0.46153 2.1941 0.59974 -0.41495 0.071217 1.6305 -0.33358 -0.43465
final 1.0771 -0.020087 0.38842 -0.87939 -0.04768 0.51979 0.44706 1.786 0.038773 -1.1827 0.32984 -1.4517 -2.9408 1.7392 1.2731 -0.24688 -0.69438 0.2624 -0.72221 -0.49308 -1.1915 0.14051 0.43421 -0.11027 0.11286
rate 0.16773 0.29345 -1.5494 -0.054678 1.4616 -0.65308 0.51961 -0.21798 -0.51621 0.029939 0.80435 0.31354 -2.6068 0.47721 0.15709 -0.44613 -0.088821 -0.29312 -0.51405 -0.39216 0.075975 -0.77834 1.0607 0.50654 -1.5299
administration 0.073909 0.93261 -0.64222 -0.78 0.64469 -1.1964 -0.026026 -1.368 1.2278 0.092817 0.3548 0.079824 -2.5867 0.53099 1.0475 -0.82071 -0.37301 0.62687 0.43942 -0.71626 0.97565 -0.25676 -0.42833 -1.2743 -0.86606
typography 0.0065135 -1.2139 -0.63542 -0.3147 1.4845 -0.37142 0.85264 -1.546 1.3383 -1.6422 -0.21118 0.22097 -1.1867 -1.132 -0.70259 0.71054 0.30314 0.14614 0.65039 1.0792 -0.89516 -1.1055 -1.7211 -0.014924 -0.41074
sales -0.018343 0.10093 -1.046 -0.83562 1.1153 0.36238 -0.25481 0.048773 0.57548 -0.62509 1.178 -1.0731 -3.3771 0.28927 1.2722 -0.48485 0.59107 -0.15887 0.31041 -0.14521 -0.10003 -2.0334 -0.0080215 0.11088 -0.73319
drop 0.047077 1.0339 0.016797 0.27874 0.14058 0.45801 0.8309 -0.10963 0.69255 0.39017 0.38682 1.1426 -3.6928 -0.10986 -0.15627 0.17649 0.44136 -0.71031 -0.32804 -0.3298 -0.62898 0.38619 1.2856 0.34588 -0.026438
phoenix -0.8383 0.24637 0.21423 -0.83089 -0.78501 -0.10982 0.062358 -0.25865 0.93157 -0.84266 0.28274 0.14586 -2.8175 0.26817 0.99001 -0.88264 -0.015016 0.24936 0.2256 0.49252 -0.39265 -0.8679 -0.16396 -1.2024 0.50673
production -0.37065 0.50901 -0.4587 -0.27951 1.4272 -0.17332 0.45895 -1.0554 1.239 -0.56755 0.67448 0.31857 -2.9553 0.46743 0.83642 0.022859 0.071213 0.5204 0.075554 0.22049 -0.77794 -0.95728 -0.35215 -0.4053 0.052743
professional -0.37955 0.33086 -0.67978 -1.324 2.0042 0.39043 0.32255 -0.53677 1.3436 -0.82754 0.011694 0.22583 -3.4032 -0.92863 0.3214 -0.11102 0.5857 0.043057 0.83111 0.22881 -0.78549 -0.12683 -0.62427 -0.68993 -0.90807
flow -0.74365 0.29141 -0.24286 0.52417 0.8166 0.77727 0.35194 0.41968 0.59095 -0.67793 -0.34569 0.17063 -3.0401 -0.27738 0.80033 0.89221 -0.10853 -0.089428 0.40197 0.27531 0.06696 -0.33165 1.0588 0.38546 0.98081
poster 0.15386 -0.57963 0.98313 -0.036707 0.70378 -0.85208 0.4635 0.61855 0.68178 -0.98021 1.0986 -0.10733 -2.7191 -0.7671 -0.32975 0.76607 0.0043221 -0.086693 -1.0438 0.16491 -1.5023 -0.26541 -0.18998 -0.22227 -0.53511
english 1.4045 -0.18005 0.3101 -0.75948 0.56092 -0.59852 1.8363 -0.37322 0.52246 0.32202 -0.79876 0.13698 -3.361 -0.10491 1.0951 -0.28649 0.96695 0.078173 -0.048358 0.028056 -0.52031 0.26071 -1.2025 -0.050742 -0.14088
server 0.77998 0.67258 -0.057254 -0.90384 0.95876 -0.40673 -0.10688 -0.38743 1.9971 0.36821 0.38719 -0.028115 -2.5963 -0.6233 0.77259 0.32644 0.67136 0.68834 0.26389 -0.16997 -0.81987 -1.2554 -0.049456 0.17835 -0.1752
lambda -0.44963 0.64998 -0.2213 -0.58974 -0.89196 -1.7187 -0.49861 -0.73594 1.3688 -0.45005 -0.9038 -0.82983 -0.79582 0.2593 -0.68836 0.31587 0.58883 0.73908 1.0783 2.521 -0.64111 0.20016 -1.2106 -0.32793 -0.14445
cartography 0.20617 -0.59849 -0.4459 -0.15412 0.28105 -0.47128 -0.28575 -1.6114 0.90796 -0.89259 0.012704 0.40037 0.23773 -0.43861 1.038 0.80437 0.79899 0.53495 1.4147 0.085714 -1.1271 -0.19449 -0.50433 -0.75041 -0.51846
interaction 0.0058954 -0.0032438 -0.38515 -0.35406 1.0216 -0.019524 0.72466 -1.07 0.64755 -0.077202 -0.68251 0.14222 -1.5453 0.1707 0.28511 1.4035 0.45525 -0.14058 0.48104 -0.44952 -0.52101 -0.7172 -0.8321 -0.024805 -1.5951
instagram 0.78055 0.254 0.73764 -0.47209 1.2642 -0.5221 0.55022 0.69286 -0.65953 0.24095 -0.34851 -0.5933 -3.2244 -1.5927 -0.66631 0.86071 -0.12267 -0.65546 -0.64727 -0.43017 0.21468 -1.5026 -0.19522 -0.0749 -0.32937
hvac -1.6952 0.56079 -1.7736 -1.1266 1.232 0.19763 -0.26403 -0.96631 2.2049 0.21051 0.14381 0.30377 -1.3032 -1.1121 1.8831 -0.33057 0.74438 0.14848 1.5357 0.34397 -0.20137 -1.0341 0.18268 -0.83474 -0.19413
mental 0.24471 -0.008835 -1.2255 0.35948 1.11 1.0477 0.73013 0.33267 0.36557 0.69291 -0.095047 -1.2372 -2.6663 0.36169 1.2033 0.45772 -0.2973 0.56118 0.85904 -1.1335 -0.39563 0.61317 -0.68721 0.0092976 -0.50639
cross -0.85649 -0.16331 -0.12626 0.10475 -0.45203 0.03397 0.30474 -0.4117 0.61791 0.056756 0.53318 0.069114 -3.7764 0.37549 -0.45823 0.24909 0.396 0.017513 0.22795 0.16042 -0.55979 0.17739 0.77819 -0.46624 -0.22172
back -0.74355 0.715 -0.1593 -0.28136 -0.736 -0.17702 1.0432 0.62863 -1.0324 0.44264 -0.11356 0.30086 -4.7917 -0.22962 -0.21154 -0.14965 -0.31582 -1.3908 -0.736 -0.46094 -0.13124 -0.96047 1.2604 0.2479 -0.44585
analytics 0.50855 0.48806 -1.0649 -0.44348 1.7285 -0.10525 -0.53353 -0.98538 1.867 -0.85683 0.2208 0.17149 -2.5523 -0.57145 0.56104 -0.037682 -0.10997 0.67181 0.91654 0.089173 -0.085083 -2.0371 -0.94909 -0.36467 -1.2548
fashion -1.0618 -0.74601 -0.28375 -1.2646 1.2012 0.11948 0.75129 0.22459 0.42224 -0.77092 0.35408 -0.22724 -3.4628 -0.54871 -0.81186 0.16895 0.0011222 -0.7451 -0.14037 1.1259 -1.1187 -0.78684 -1.2874 -0.84603 -0.25663
puppet -0.56798 -0.29197 0.40693 -0.003947 0.73292 -0.9453 0.73332 -1.2347 0.85713 -0.54509 0.54184 0.44404 -1.7797 -0.68088 -0.083924 0.24492 0.55352 0.519 0.9988 0.51227 -0.21978 1.2795 -0.24475 -0.86681 0.23334
touch 0.091059 -0.12433 -0.058151 0.39676 0.32653 0.30772 0.80097 0.019343 0.33574 0.073502 0.092077 0.43093 -3.5963 -0.87876 -0.79838 0.62105 0.36044 -0.37062 0.4411 -0.24874 -0.45133 -0.32209 1.2826 0.38572 -0.7194
scada -1.3582 0.18781 -0.93126 -0.2695 0.18648 -1.1924 -0.9618 -0.93564 1.8224 -0.092862 0.56501 0.44521 0.046517 -0.19096 0.8149 0.38666 -0.12172 0.76675 1.5801 0.37892 0.14376 -0.23234 0.27671 -1.0537 0.28926
kinetic -0.97587 -0.67074 -0.40861 -0.029275 0.048364 0.24885 0.1141 -1.1415 1.3184 -1.0119 -0.22179 0.41887 -0.90133 0.030715 -0.080321 0.26172 0.78949 1.1412 1.442 0.94903 -0.96931 -0.13561 -0.22673 -0.63543 0.058386
fastlane -1.2296 0.41858 -0.040422 -0.046262 -0.22224 -1.2929 -0.29523 -1.2605 1.0347 -0.31966 -1.0244 0.75666 0.072882 -0.48141 0.17768 0.16359 -0.022117 1.1041 0.98023 0.92534 -0.080639 -0.18609 0.17385 -1.0051 0.26828
lean -0.23541 1.155 -0.34001 1.2834 0.71045 0.84175 -0.056291 -0.11346 -0.3163 -0.63158 0.029823 -0.65037 -2.7651 -0.65899 0.33766 0.41032 0.27556 -0.35722 0.97889 0.0866 0.38114 -0.65975 0.86498 0.30516 0.63422
windows 1.1997 -0.067634 0.39897 -0.66857 0.87888 0.51951 -0.0022679 -0.16128 1.0714 0.53499 0.74136 -0.18977 -3.0033 -0.97697 0.05808 0.052635 0.31719 0.57779 0.44636 -0.063559 -0.90227 -1.9292 0.77769 -0.33198 -0.1877
sage -0.97704 -1.2394 -0.71109 0.19171 -0.088617 0.53927 -0.53688 -0.81531 0.87848 -0.99285 0.24153 0.43395 -1.8049 -0.66306 -0.21293 -0.78004 0.60946 0.65338 -1.0876 0.85978 0.92704 -0.74798 -0.54969 -0.10935 -0.42271
safety -0.5374 0.78889 -1.1773 -0.13984 0.73807 -0.37666 0.27128 -0.64985 1.3395 0.31896 0.68311 0.25616 -3.4131 0.41568 0.94334 -0.19783 0.18902 -0.18987 0.87011 -0.15257 -0.59934 -0.22804 0.31826 -0.7284 -1.0461
plc -0.52052 0.89089 -0.62746 -1.188 -0.060786 -0.42591 -1.4267 -0.44831 1.2469 -0.64598 0.38503 -0.15363 -1.4674 0.5267 0.98875 -0.93166 0.2397 0.40858 1.0357 0.56423 0.093122 -0.76411 -0.44511 -0.13106 -0.49832
mdx 0.48213 0.069009 0.1001 -1.5309 -0.50684 0.32561 -0.86241 -0.91059 1.2076 -1.0036 -0.49999 0.91589 -0.18594 -0.67651 0.4781 0.074963 0.29269 -0.1344 1.1606 1.2449 -0.53291 -0.303 0.27452 -0.7471 -1.1465
watson -0.50222 -0.62204 1.0525 -0.18924 -0.77032 -0.67882 0.16849 0.27277 -0.10951 -1.8942 0.74658 0.25549 -2.2019 -0.61331 -0.02376 -0.46973 -0.86958 0.25921 -0.094566 0.28029 0.080859 0.6117 -0.77661 -0.55399 -0.92135
import 0.08411 -0.34145 -1.0161 -1.2823 0.43569 -0.078051 -0.35579 -0.093324 0.86484 0.1651 1.0436 -0.44343 -1.8053 -0.29483 -0.66066 -0.063319 0.60382 -0.96777 0.83211 0.79331 -1.281 -0.83713 -0.52927 -0.10092 -1.0112
kanban -0.77416 0.99851 -0.92833 -0.23331 1.0865 -0.47175 -0.63291 -1.8578 1.3865 -0.78594 -0.44618 -0.078914 -0.34092 -0.96752 1.0278 0.090824 0.48413 -0.10105 1.1548 1.2193 0.031774 0.24574 -0.13032 -0.65417 0.63602
symfony 0.0083509 0.91926 -1.024 -0.82261 0.17666 -0.40557 -0.7372 -0.45051 1.4561 -0.39576 -0.53817 0.23059 -0.21313 -0.37265 0.057748 0.6953 -0.42572 0.36822 1.4905 1.5345 -1.2186 -0.086305 -0.3713 -0.99893 -0.13536
responsive -0.23302 -0.63144 -0.37071 0.057815 1.7626 -0.16416 0.08807 -1.323 1.3554 -0.83646 0.36851 0.24715 -1.8777 -1.3623 -0.33573 0.52 0.76547 0.77393 0.83908 0.11903 -0.89951 -1.824 -1.6441 -0.23972 -0.93153
max -0.093301 -0.14244 -0.46025 -0.46731 -0.018808 0.13584 -0.36299 0.579 0.09165 -0.52771 0.040494 0.1422 -3.0449 -0.61225 0.057965 -0.28495 -0.72242 0.1099 -0.73807 0.65509 -0.57386 -0.22656 0.65564 0.31808 -0.20535
stata -1.9961 -1.231 0.63532 -1.3583 0.40192 -1.391 -0.50381 0.64219 -0.26561 0.23307 -0.048395 -1.352 -0.27914 0.72546 -0.72676 1.6446 -0.83826 2.4369 -2.3976 -2.0682 0.65077 0.38133 0.070655 -0.23523 -0.80083
vimeo 0.15496 0.13502 0.43273 -0.39253 0.77475 -1.2434 0.10405 -0.53606 0.21649 -0.9058 0.2878 0.46338 -1.3385 -0.43853 0.082914 0.49462 0.040779 0.38951 -0.028444 0.12375 -0.43679 -1.6388 -0.50124 -0.88352 0.14051
python -0.25645 -0.22323 0.025901 0.22901 0.49028 -0.060829 0.24563 -0.84854 1.5882 -0.7274 0.60603 0.25205 -1.8064 -0.95526 0.44867 0.013614 0.60856 0.65423 0.82506 0.99459 -0.29403 -0.27013 -0.348 -0.7293 0.2201
queries 0.80086 1.1032 -0.86198 -0.063587 0.27796 -1.217 -0.6303 -1.7815 0.05566 -0.32215 -0.096191 0.1144 -1.0005 -0.22225 1.0127 0.31047 0.49861 0.2467 0.85667 -0.46212 0.0077597 -1.3818 -0.75448 0.10667 -1.4204
alm -0.93047 0.48306 0.6336 -0.13601 -0.52452 -1.0038 -0.75542 1.998 0.35971 -0.10749 -1.0595 -0.28339 -0.81752 0.94489 0.27993 -0.2039 0.49863 0.9824 0.1976 0.23701 -0.50519 0.37751 -1.1038 0.6243 -1.1002
travel -1.0292 0.53358 -0.69766 -0.90567 0.16384 -0.040463 0.95461 -0.34259 1.223 0.29905 0.55117 -0.62352 -3.4763 0.51118 0.21495 0.23169 0.44493 -0.58685 0.56776 -0.074479 -1.172 -1.7135 -0.65754 -0.57164 -0.032276
ide 0.97341 0.071979 -0.61898 -0.60929 -0.46345 0.22328 -0.63149 0.81226 1.0295 0.82874 0.089864 -0.23498 -1.384 -0.5248 -0.88505 0.82312 1.2424 -0.0003152 0.46547 0.21758 -0.69479 0.062376 -1.9842 0.88018 -0.37423
jira -0.57936 0.022647 -0.031269 0.14447 -0.35331 -0.85251 -0.65958 -0.52422 0.8826 -0.72063 -0.96449 -0.22209 0.14287 0.18556 0.68143 0.47029 0.64475 0.34293 1.1849 0.55059 0.22111 -0.18419 -0.19802 -0.19558 -0.37385
full 0.038537 0.45455 0.38582 -0.30703 1.0223 1.0437 0.90384 0.64482 0.099447 0.20073 0.31983 -0.032288 -3.5954 0.47972 -0.0061763 0.055716 0.47564 -0.33598 -0.13633 -0.067182 -1.1091 -0.052755 0.18274 0.0063679 0.0092622
deck -0.77458 1.0128 0.44887 -0.032223 0.472 0.20834 -0.088886 -0.22882 0.55355 -0.23091 0.37861 -0.24148 -2.3966 -0.53806 0.32697 0.38608 0.29749 -0.88633 0.58824 0.29526 -0.68824 -1.1169 1.4256 0.20965 0.33786
funnel -0.33297 0.36856 -0.0075519 0.54666 0.37774 0.55608 0.12186 -2.1937 0.74664 -0.84556 0.74363 -0.0065279 -1.3234 -0.99957 0.42604 -0.014177 1.4322 -0.57326 0.69656 0.071379 -0.63003 -1.139 0.21461 0.1298 -0.01916
urban -0.63626 -0.15722 -0.2435 -0.61477 0.42738 0.089625 0.79565 -0.4685 1.1961 -0.59049 -0.10663 -0.24037 -3.0482 -0.42994 0.19127 0.042072 0.12784 0.15872 0.5697 0.88789 -0.75602 -0.48459 -0.92614 -1.1927 0.41156
laravel 0.40815 1.0055 -0.94414 -0.32613 0.033835 -0.901 -0.46043 -1.366 1.4042 -0.68832 -0.20636 0.47065 0.22012 -0.44666 0.45519 0.39151 0.28321 0.64052 1.6007 0.94455 -0.89156 -0.14908 -0.58604 -0.57236 -0.35689
payment 0.27243 1.3669 -1.0873 -0.33487 1.0594 -0.77925 -0.36124 -1.6268 1.0376 0.48642 0.72632 -0.19856 -2.6572 0.55573 0.90584 -0.11715 0.79777 -0.35359 0.0021507 -0.40626 -0.7723 -1.2112 -0.076866 0.69664 -1.6307
technical 0.15926 1.0364 -1.0504 -1.1706 1.5958 0.06889 0.59564 -0.93738 1.307 -0.57712 -0.12681 0.53656 -2.521 0.58899 1.7013 -0.83972 0.42371 0.70016 0.31186 -0.02302 -0.28972 -0.67909 -0.42076 -0.1594 -1.2753
press 0.057883 0.5183 -0.21549 -0.66902 0.47249 -0.93983 0.79248 -0.24382 1.1771 -0.41728 0.36347 0.70726 -3.3081 0.38656 0.17891 -0.39155 -0.15668 0.055571 -0.61135 -0.51739 -0.33139 -0.79915 0.32369 -0.74768 -0.60481
haxe -0.11178 0.81021 -0.51262 -0.21179 -0.34747 -0.063306 -0.69047 -1.3736 0.53586 -1.0996 -0.46613 -0.13204 0.69336 -0.46677 0.19488 0.41383 0.48089 0.31858 1.3292 0.87076 -0.34317 -0.27939 0.54309 0.31174 -0.67134
ionic -1.9681 -0.37637 -0.58549 -0.93562 0.93797 0.66079 -0.81908 -0.68576 2.6968 -0.11432 -0.13605 0.094367 -1.4664 -1.3636 -0.51503 0.28127 -0.52709 0.88056 1.9104 0.85684 -1.5996 1.6606 0.84692 -0.099524 -0.80161
character 0.5993 -0.55861 0.18074 0.45625 0.62302 -0.40111 1.4738 -0.31692 0.36197 -1.3075 0.096759 0.86533 -3.6391 -0.024438 0.28217 0.92142 0.079902 0.60671 0.78855 0.29486 -0.40294 0.75807 -0.98066 -0.18989 -0.8555
screening -0.6581 0.78719 0.42665 -0.18146 0.55027 -1.1127 1.0869 -1.0711 0.75136 -0.72126 0.76124 0.18731 -1.7839 1.1266 0.71315 0.45693 0.17253 0.13673 -0.5693 -0.1696 -1.3788 -0.50588 -0.67443 -0.53237 0.34
aws -0.006984 0.88719 -0.68323 -0.44224 0.10441 -0.78736 -0.35738 0.24553 1.1748 0.23543 -0.31491 0.19477 -1.0362 -0.057868 0.66873 -0.149 0.55908 0.55469 0.48134 0.98805 0.11821 -0.48647 0.22082 1.2459 -0.70868
spark -0.17021 0.73597 -0.27729 0.57433 -0.047017 -0.20693 0.4036 -0.63235 1.1889 -0.64287 -0.27793 0.48664 -2.4811 0.20665 -0.23049 0.51366 0.51133 0.23069 0.84306 0.061262 -0.53357 -0.10885 1.0592 0.065498 0.20318
entity 0.33487 0.084839 -0.44968 0.33098 0.93753 -0.80391 0.26276 -1.6618 1.2747 -0.25319 -0.23366 0.43151 -1.4538 0.53683 -0.1472 0.79418 0.23737 1.4026 1.4191 0.28977 0.1823 0.050221 -0.80085 -0.35397 -0.46009
writing 0.47162 0.66614 0.70081 0.22768 1.5459 -0.36022 1.7913 -1.4681 0.2308 -0.81623 -0.68465 0.81374 -3.4263 -0.48557 0.77121 0.17818 0.10702 0.58844 -0.64797 -0.88656 -0.70526 -0.50338 -1.2819 0.30536 -0.54335
order 0.26474 1.0621 -0.50884 -0.23192 -0.051807 -0.17053 0.56985 -0.39617 0.64016 0.69659 0.94149 0.22268 -3.6314 -0.49804 -0.5958 0.16801 0.83889 -1.3931 -0.0022074 -0.45479 -1.4581 -0.81288 -0.6779 0.68178 -0.7813
mocha -2.0704 -0.8748 -0.099649 0.59333 -0.44563 0.76003 0.39324 -1.1333 0.46238 -0.16192 1.2839 -1.1497 -1.6278 -1.3142 0.14345 0.026171 1.4578 -0.68792 0.37715 1.2321 -0.57534 -0.00020461 0.33866 0.69298 0.84556
zeplin -1.3211 -0.47307 0.86198 0.16092 -0.47976 0.071535 -1.6136 -1.4376 1.9605 -0.2827 -0.40177 0.11671 0.015921 0.39406 0.018105 0.45658 1.115 0.12863 0.91219 0.68873 -0.88212 0.1279 0.014732 -0.97181 -0.49409
teamwork 0.26104 0.19326 -1.6844 -0.28808 0.08035 -0.81833 0.63545 -0.94708 -0.51543 -0.28994 -0.50021 0.52516 -1.6746 0.37515 0.62424 0.8673 -0.18033 -0.010808 0.97319 0.63719 -1.0778 0.45774 -0.94589 0.19941 -0.45235
wireframing -0.23708 0.23063 -1.185 -0.27863 1.3644 0.3212 -0.93702 -2.2589 1.2076 -1.9299 0.5901 0.64251 -0.23525 -1.5063 1.058 0.088067 -0.11024 -0.67974 1.2516 -0.15562 -1.371 -0.56903 -1.235 -0.59267 -1.4866
ocr 0.36358 0.69552 0.071185 -0.6293 -0.26048 -0.8932 0.031469 -1.5113 0.96799 -0.70044 -0.87845 0.61796 -0.49608 -0.45499 0.52898 -0.11352 0.14742 0.9918 1.1025 0.70976 -0.58669 -0.58143 -0.21015 -0.053391 -0.28568
extensions -0.2165 -0.4431 -0.40348 -0.48872 0.9441 0.15168 -0.19631 -2.2382 -0.10926 -0.062969 0.78796 -0.12839 -2.0447 -1.2602 -0.37438 0.32519 0.30076 -1.2593 -0.061815 0.55057 -0.84793 0.33528 0.52436 0.37946 -1.1278
photoshop 1.0139 -0.30916 -0.026306 0.45896 1.5195 0.041173 0.5011 0.093621 0.70127 -0.062494 0.32943 -0.49559 -2.0694 -1.3332 -0.019482 0.88002 0.33062 0.16443 0.60041 0.17867 -0.5653 -0.62398 -0.63169 0.13868 -0.57115
redux -0.52346 0.078529 -0.34775 -0.14395 0.5561 -0.82426 0.25601 -1.4173 0.38393 -1.2447 0.40533 0.64215 -0.17113 -0.15585 0.58803 -0.33771 -0.3684 0.29147 0.68963 -0.017859 -0.80323 0.051536 0.12395 -0.12774 0.2396
asp.net -1.1434 0.035726 -1.8673 -1.7134 1.0418 -0.32404 -1.2803 -0.91862 1.3751 -0.32237 -1.0626 0.8393 -0.068384 -1.4839 0.55228 0.096089 -1.5443 1.2579 1.2915 0.89826 -0.58082 -0.15764 0.60765 -0.34596 0.088645
receipt -0.29774 0.81954 0.50578 0.44748 0.55418 -1.4937 -0.59419 -1.5886 0.27111 0.24275 0.58588 0.18304 -2.1197 -0.73724 0.21424 -0.0087627 1.1408 -0.49236 0.29377 -0.23555 0.043477 -0.83788 0.46362 0.54808 -1.5188
photo -0.43313 -0.91729 0.028901 0.18192 0.53324 -0.59033 1.5667 0.5239 0.30061 -0.52114 0.56095 0.34665 -3.4471 -0.50171 -0.18213 0.62913 0.14185 -0.032045 -2.0394 0.87572 -0.36388 -1.4125 -0.20763 -0.93493 -0.70673
parse 0.1546 0.52351 -0.26963 0.3572 -0.088001 -1.0271 -1.0659 -0.84574 0.78183 -0.45642 -0.15858 -0.2471 -0.35663 -0.65591 0.93201 0.51828 0.90994 0.40244 1.2154 -0.099581 0.10758 -0.43651 0.45575 0.54561 -1.2938
tdd 0.15082 0.36021 -0.16246 -0.3841 0.13899 -0.50329 -0.42791 -1.0117 0.9629 -1.0449 -0.81855 -0.16718 -0.12245 -0.47192 0.65367 -0.19457 -0.057062 -0.11936 0.46005 0.42141 -0.37712 0.073857 -0.13479 0.3413 -0.57781
dashboard -0.40855 -0.58091 0.60545 -0.092292 1.0864 -0.68056 0.15284 -0.84684 1.2278 -0.13481 -0.19034 0.0031358 -1.8788 -1.1138 -0.22696 1.1838 0.5476 0.6072 0.85953 0.17722 -0.55676 -1.2499 0.2863 -0.1389 -0.52646
word 1.3154 0.01605 -0.25464 0.19656 0.40621 -0.2143 0.88449 -0.40434 -1.2489 0.36182 -0.56618 1.1953 -4.1326 -0.28547 0.15874 1.0733 1.2445 1.1519 -0.28804 0.41741 -0.15655 0.40259 -0.44434 0.45828 0.18119
aweber -0.14734 -0.62153 -0.59978 -0.28171 1.1255 -1.2932 -0.15246 -1.458 0.64958 -1.4494 -0.0086347 1.1458 0.04294 -1.3204 0.9562 0.43085 0.2841 0.65701 0.26006 -1.1075 -0.86614 -0.64517 0.35123 0.15766 -2.2897
sencha -0.60067 0.0087517 -0.34525 -0.09085 -0.094852 -0.65443 -0.29568 -1.3701 1.4912 -0.86502 0.12388 0.0015326 0.14767 -1.3173 -0.42159 0.28794 0.89227 0.71251 1.747 0.7091 -0.81311 -0.4115 0.089761 -0.50632 -0.2662
invitation -0.43639 0.82998 -0.25717 -0.10844 0.67968 -1.3139 0.25026 -0.87793 0.3183 -0.58987 0.54898 0.079174 -2.0974 0.19314 -0.36026 0.67181 1.0059 -0.45113 -0.84702 0.034581 -0.73781 -1.1205 -0.3396 0.22581 -1.254
relationship -0.39927 0.66388 -0.47117 0.8664 0.84573 0.37485 1.5294 -0.070059 -0.1916 0.00083079 -1.0933 0.5399 -4.1536 0.64795 -0.30818 1.5639 -0.47233 -0.66426 0.95186 -0.54655 0.55923 0.48209 -0.79495 -0.12258 -1.6263
stationery -1.1515 -0.19638 0.0673 -0.77606 1.0906 -0.93588 -0.10308 -2.0321 0.85266 -0.47684 0.63245 -0.5707 -1.0975 -0.6799 -0.44668 0.15288 1.2034 -0.73317 0.13328 0.43743 -1.0706 -1.1244 -0.77343 0.13028 -0.71812
reports 0.7952 0.56324 0.13958 -0.26841 0.22166 -0.76083 0.63545 -0.99475 0.55269 0.12357 1.1867 0.91945 -2.7049 1.0656 1.3506 -1.0294 0.010319 0.86431 0.021631 -0.89221 0.38286 -1.1401 0.12085 -1.4798 -1.198
asana -0.70411 0.67628 -0.03501 -0.0099986 0.67864 -1.044 -0.3405 -1.2261 1.2139 0.17318 -0.10224 -0.59948 -0.3058 0.19457 0.0050122 0.55604 0.55693 0.47067 1.3414 0.98617 -0.77879 1.2089 -0.54115 0.073265 0.6388
generation 0.46388 0.29856 -0.001095 -0.38876 0.91183 -0.31755 1.1931 -0.04747 0.39525 -0.60643 -0.25833 1.2086 -3.0547 0.34939 -0.88554 0.34134 -0.34853 0.44532 0.3703 0.52126 -0.12917 -0.056128 -0.70362 -0.85012 -0.19779
grid -0.13414 0.0078543 -0.53679 -0.6081 0.62494 0.059815 -0.040309 -0.94614 1.7509 -0.025699 0.12499 0.18715 -2.0066 0.085464 0.63045 0.087826 0.041088 0.47144 1.0002 0.29281 -1.1025 -0.25298 0.39938 -0.36509 -0.34672
focused -0.95939 1.3359 -0.69578 -0.80234 0.64101 1.0064 0.42284 -0.96496 0.19603 -0.9166 -1.7273 1.3493 -3.1861 0.63329 0.0098962 0.57029 -1.0481 0.31225 0.65228 -1.1369 -0.067948 -0.25769 -0.34523 0.14542 -0.54836
statistics 1.5519 0.41709 -0.74589 -0.83491 1.246 -0.85232 0.98852 -1.756 0.21132 -0.52449 -0.14372 0.38078 -1.9166 0.67563 1.031 -0.030068 0.06199 0.056664 0.14609 -0.52738 -0.35457 -0.4024 -0.60475 -0.43716 -0.97079
active -0.25315 0.085924 -0.89905 -0.94735 0.97734 0.23083 0.58962 -0.17168 0.34466 0.043655 -0.57112 -0.2413 -2.5582 0.47579 -0.027155 0.48399 0.4293 -0.33861 0.16158 -0.43935 -0.41741 -0.42518 -0.31989 -0.27812 -1.1679
youtube 1.3041 -0.0028643 0.5743 -0.40405 1.0513 -0.60578 0.86026 0.96912 -0.28739 -0.12296 0.26462 -0.083213 -2.7585 -0.90606 -0.090973 0.66855 -0.077632 0.24525 -0.7216 -0.23072 -0.43643 -1.4437 -0.21806 -0.45518 0.11948
tailwind -1.6785 0.030011 -0.54275 -0.074539 -0.055372 0.2273 -1.4283 -1.3164 0.73622 -1.0705 0.55957 0.41308 -0.15372 -0.32479 0.51494 0.47515 0.036255 -0.24184 0.75031 1.0324 -0.50358 0.085819 0.30423 0.026482 -1.5249
joomla 0.52402 -0.0062013 -1.1818 -0.9476 1.0383 -1.0002 -0.72992 -0.89379 1.3634 -0.78628 -0.035456 -0.20154 -1.8013 -1.6492 0.41924 0.022422 0.41597 0.1962 1.2459 0.9762 -1.3279 -1.8619 -1.0233 -0.10245 -0.7751
vr -0.035664 0.58081 0.036411 -0.60121 0.66199 0.12755 -1.5064 0.59654 -0.025239 -0.79071 0.0029864 -0.6238 -1.3629 -0.70557 0.06029 0.019946 0.32972 0.39925 -0.12856 1.4825 -0.34871 -1.0056 0.49368 0.924 -0.43364
forecasting -0.52154 -0.011426 -0.71686 -0.47347 0.26239 0.39895 0.16104 -2.0631 1.0509 -0.6933 0.012821 0.87397 -0.77065 0.67347 1.1485 -0.055184 0.33732 0.73611 0.84777 -0.043104 -0.28821 -0.52251 -0.47842 -0.3024 -0.92345
magazine -0.31616 -0.37936 0.42675 -0.77567 1.2543 -1.4458 0.8493 -0.12395 0.73608 -1.0338 0.69511 0.54556 -2.9443 -0.090485 -0.096802 0.29956 0.14292 0.35204 -0.6524 0.9409 -0.38036 -1.3595 -0.71518 -0.67383 -0.027805
release 0.40815 0.8683 -0.0080022 -0.23987 0.21431 -1.0758 1.0619 0.053956 0.81245 -0.78886 0.76977 1.2186 -3.4993 0.66176 -0.16499 0.055358 0.068936 0.12018 -0.22751 -0.48973 -1.1694 -0.56897 0.25517 -0.4511 -0.18325
earth -0.33573 -0.52958 0.12754 0.38944 -0.34348 0.10132 1.5368 -0.15455 0.20551 0.21389 0.1052 0.39473 -3.499 1.1765 -0.66216 0.5492 0.21916 0.57466 0.94694 -0.10122 -0.2059 -0.51519 -0.25807 -0.50856 0.24833
fortran -0.25174 0.24912 -0.089182 0.14561 -0.24128 -0.63253 -1.178 -1.6153 1.2413 -0.50995 -0.33241 0.43483 0.039461 -0.1578 0.48268 -0.05928 0.50156 1.0377 1.3779 1.0706 -0.15806 0.093487 -0.46018 -0.06251 -0.37835
flex -0.058938 1.0467 -0.1287 -0.22087 0.38502 0.43231 -0.54122 -0.54116 0.89743 -0.22549 -0.3035 0.70099 -2.6633 -1.1436 0.11308 0.4391 -0.016723 -0.1875 0.28245 0.50781 -0.14057 0.33049 1.5558 -0.071679 0.305
node.js -0.14768 0.51501 -0.16941 0.21234 0.30048 -0.50643 -0.76282 -1.3739 1.8937 -0.49596 -0.091817 0.23835 -0.99395 -0.78629 0.51184 -0.02008 0.76676 0.81295 1.2267 0.88109 -0.81816 -1.2492 -0.8829 -0.25114 -0.33431
assistant -1.0583 0.82501 -1.0445 -1.5069 1.5649 -0.73769 -0.40025 -0.37827 1.5052 -0.84981 0.089678 0.031377 -3.0547 -0.12858 1.9352 -1.1062 0.84987 0.19087 -0.2805 -0.29172 0.57975 -0.73495 -0.9087 -0.89923 -0.63885
camel -0.69626 -0.33957 0.40983 0.18329 -0.31051 -0.048374 0.21606 -0.78421 -0.28505 0.64038 0.94768 -0.050819 -1.9512 -0.84558 -0.095856 0.4911 1.0391 -0.72584 0.50797 0.77096 0.031473 1.0452 0.94583 -1.0927 -0.034261
go -0.31725 0.81507 -0.07488 -0.59748 -1.4955 0.14265 1.3831 0.17203 0.097658 -0.0063706 -0.90485 -0.13208 -5.0127 -0.26589 -0.15179 0.0030527 0.12332 -1.543 -0.85517 -0.45213 -0.15237 -0.13811 0.73457 0.16482 0.29579
warehouse -1.4479 0.71751 -0.066678 -1.3717 0.80975 -0.49464 -0.16133 -1.2645 1.1725 -0.021374 0.26245 0.0069332 -2.3273 0.25737 0.51781 -0.24041 1.0057 0.13905 0.31197 0.41192 -0.67739 -1.1387 0.094553 -0.64298 0.59256
slack -0.24945 0.40714 0.25694 -0.40967 0.04227 0.7535 -0.20077 -1.5562 0.23646 -0.2908 -1.3125 0.17344 -1.7867 -0.35926 0.51813 0.35403 0.24802 -1.0912 0.12807 -0.47615 -0.30905 1.0251 0.45691 0.44882 -0.71312
risk -0.05865 0.81929 -1.623 0.71428 1.1232 0.43762 0.3131 -1.2983 0.40929 0.63651 0.36902 0.18011 -3.1119 1.1974 0.23128 -0.37193 0.076346 0.58431 0.71122 -1.5847 0.067754 0.083669 -0.14365 -0.20403 0.0099313
budget 0.55818 0.66319 -1.3612 -0.44595 0.86847 -0.51218 -0.15131 -1.1612 1.0233 0.24633 0.84459 -0.33139 -3.0653 0.95403 0.80759 -0.57887 0.23071 -0.043154 -0.58898 -0.41399 -0.58027 -0.052731 -0.40405 -0.28699 -0.9213
filemaker 0.64571 0.78185 0.87937 -1.3162 -0.36279 -0.36697 -0.65655 -1.2665 2.6471 -1.8396 -0.38551 -0.07926 -0.05254 -0.90534 0.048794 -0.11639 0.6483 0.093608 0.45087 0.69067 -1.4303 -0.50498 0.32479 -0.40234 -0.52283
myob 0.28583 1.5995 -0.40956 -0.26817 0.38731 -0.4351 0.43757 -1.3535 0.73776 0.29326 -0.77223 0.3287 0.027424 -0.80202 1.3837 -0.25575 0.17877 -0.24909 0.4422 0.20951 -0.54857 0.56673 -1.0193 0.33026 -0.25155
bi 0.52522 0.30227 0.83318 0.45226 0.88312 0.3178 -1.7938 0.83897 -0.097806 1.3185 0.065649 -0.72929 -2.0079 0.62971 -1.4776 -1.6117 1.9177 -0.68134 -2.0173 0.53249 0.91566 1.1501 -1.044 -0.42839 -0.014743
reddit 0.70731 0.3933 0.3638 -0.40799 0.77354 -1.6279 0.36572 -0.77775 -0.16896 -0.60674 -0.1953 0.61028 -1.8096 -1.0115 0.74887 0.071995 0.38315 0.21616 0.13518 -0.068546 0.28801 -1.2067 -0.63825 -0.95448 -0.72245
computer 0.64005 -0.019514 0.70148 -0.66123 1.1723 -0.58859 0.25917 -0.81541 1.1708 1.1413 -0.15405 -0.11369 -3.8414 -0.87233 0.47489 1.1541 0.97678 1.1107 -0.14572 -0.52013 -0.52234 -0.92349 0.34651 0.061939 -0.57375
design -0.31481 -0.88425 -0.39748 -0.86489 1.5882 -0.054011 0.26496 -0.47508 1.8586 -0.66278 0.49312 -0.12061 -3.7448 -0.71102 -0.1794 0.12651 0.45667 0.050883 -0.0895 0.38822 -1.3561 -1.2241 -1.3388 0.10004 -0.61863
jasmine -0.915 -0.089821 0.7526 0.53893 -0.75823 -0.46838 0.23789 0.096955 -0.21247 -0.82979 -0.37826 0.2944 -2.6116 -1.5646 0.062264 0.14576 -0.059883 -0.54097 -0.19239 0.6412 0.79251 0.53469 -0.61404 -0.089025 -0.36972
security 0.37301 0.64326 -0.78782 -0.30667 1.0736 -1.0177 0.34477 -0.73636 1.7463 1.0288 0.56903 0.25466 -3.5931 0.29576 0.50653 -0.10519 0.15474 0.47143 0.52457 -0.48716 0.095259 -0.70774 0.14212 -1.3216 -1.0752
ios 1.3163 0.14163 -0.033754 -0.83996 1.3636 -0.31249 0.45914 -0.07385 0.40287 0.25695 1.0455 0.039774 -2.2833 -0.70594 0.0069091 0.46625 0.19833 0.42956 0.16163 -0.24622 -0.93575 -2.2046 0.42122 -0.36909 -0.17338
tag 1.3861 0.040524 0.54728 -1.1012 0.85719 -0.32522 -0.16575 0.44518 -0.0042147 -0.5931 -0.93385 -0.46218 -2.5667 -0.96819 -1.1956 -0.086625 -0.25913 -0.57732 -1.2955 -0.60898 -0.38782 0.21642 -0.22664 0.47601 -0.057748
tomcat -0.65277 0.14681 -0.099195 0.50166 0.042197 -0.85299 0.022702 0.95318 1.7194 1.0346 0.51929 0.74069 -0.23029 -0.97345 0.48866 -0.025997 1.1822 -0.27913 0.63783 0.79052 0.0023589 0.60449 -0.17905 0.010004 -0.034965
voice 0.025894 -0.72444 0.40621 0.53279 0.43552 -0.40332 1.5585 0.3382 -0.00059928 -1.0526 -0.35183 0.87226 -3.5561 -0.64118 0.0049729 0.65363 -0.77586 -0.0494 -1.017 0.26048 0.38286 0.58794 0.3196 -0.23243 0.031295
android 1.2542 -0.39183 -0.46386 -0.99522 0.88139 -0.092225 0.32047 0.47834 0.72343 0.77853 1.4923 -0.24325 -2.6796 -1.504 -0.38772 0.57631 0.33075 0.071622 0.051098 0.043783 -1.4006 -1.8818 0.034572 -0.32748 0.062349
kpis 0.029162 0.13022 0.082172 -0.38782 1.0922 -0.86302 -0.82835 -1.997 0.3265 -1.6272 0.54668 0.12881 -0.3344 -0.28077 0.3694 0.16628 0.11835 0.0059021 1.9276 0.50127 -0.16244 -1.0369 -0.97485 -0.58449 -1.3399
citrix -0.41129 0.9343 -0.72987 -1.1399 0.39165 -0.53105 -0.71432 -0.69889 1.8974 -1.0034 -0.43998 0.56442 -1.1079 -1.0675 1.1209 -0.13936 0.35887 0.81534 1.6038 0.88223 -0.5827 -1.2454 -0.97704 -0.48681 -0.4539
medicine -0.81831 0.64338 -0.64878 0.51468 0.97672 -0.33743 1.206 -1.6599 1.0817 0.53851 0.055685 -0.24773 -2.8436 -0.31801 1.1138 -0.66802 1.0921 0.66992 0.82045 -0.49795 0.059371 0.24907 -0.26152 0.64994 0.82773
engineering 0.10121 0.25878 -0.5658 -1.4503 1.2217 -0.20282 0.34082 -1.0708 2.3314 0.11686 -0.50774 -0.0083911 -2.7617 0.22687 1.5939 -0.72744 0.74978 0.70309 0.56213 0.3865 -0.21869 -0.79692 -1.4106 -0.18223 -0.4409
sinatra -1.3876 -0.11466 0.52143 0.78898 -0.15133 -0.29013 0.45782 0.012593 0.21806 -1.4993 0.076037 0.88058 -1.6828 -0.64752 0.43808 0.373 -0.19144 0.53771 0.83812 0.47327 0.13815 0.31436 -0.52007 -0.78458 0.63853
targeting 0.89457 0.95715 -0.38602 -0.29113 0.3319 -0.66154 -0.15115 -1.6856 0.58709 0.50983 0.62363 0.71069 -1.964 0.17509 0.33516 -0.13571 -0.15911 0.33064 0.89505 -0.83575 -0.029049 -0.02758 -0.6809 -2.0652 -0.91989
rspec -0.36168 0.34494 0.22303 0.11374 0.2504 -0.8675 -0.70244 -2.0315 1.3288 -0.16065 -0.1374 0.7569 0.39887 -0.33758 0.41878 -0.16667 0.92466 1.1159 1.1648 1.1821 -0.6372 0.34043 0.15743 -0.06893 0.11059
grant -1.1526 0.83806 -0.5724 0.52213 -0.5428 -1.2947 -0.38488 -0.44846 0.21134 -1.2389 0.54638 0.31191 -3.3314 0.48209 0.45617 -1.0219 -0.1916 0.16353 0.2615 -0.42241 0.085201 0.056342 -1.1163 0.30197 -0.97036
dagger -0.30362 -0.30856 0.32482 0.64955 -0.76302 -0.53025 0.11384 -1.0896 0.32013 -0.40406 0.39744 1.1817 -1.1654 0.03478 -0.27822 0.012592 -0.13134 0.15854 0.92868 0.44643 -0.82759 1.6713 1.1308 -0.30826 -0.17509
moodle 0.84767 0.85928 -0.50306 -1.4629 0.70488 -1.2377 -1.0495 -0.65878 0.49334 -0.46351 -1.2889 -0.58964 -1.3867 -0.41841 0.26236 0.72534 0.17872 0.059595 1.1741 0.89728 -0.42927 -1.1124 0.57922 -0.49226 -0.34475
scripting -0.19225 0.61699 -0.37834 0.3636 0.55221 -1.0095 -0.078729 -2.1843 1.7866 0.38474 0.074313 0.12761 -0.64469 -0.62722 0.26613 0.45735 0.034953 0.33631 1.2196 0.66461 -0.056007 0.060988 -0.68434 -0.82868 0.41591
ux 0.25732 0.29221 -1.0925 -0.72368 1.1324 -0.37348 -0.05374 -0.85274 1.2655 -1.1442 -0.64623 0.14275 -1.7615 -0.62936 0.293 -0.25254 -0.16609 0.4412 0.87821 1.0142 -0.34219 -1.2971 -1.0342 -0.056552 -0.7041
suite -0.32239 -1.0709 -0.10666 -0.047353 0.41182 -0.047064 -0.16418 -0.65183 0.67954 -0.93166 0.27128 -0.44372 -2.3471 -0.16782 0.36203 0.96083 0.26815 0.16832 -1.7534 0.93007 -0.50742 -1.8052 0.2845 -0.22004 -0.21421
team -0.065841 0.3378 -1.3493 -1.2673 -0.33221 0.26351 0.56304 1.1205 -0.47447 -0.64588 -0.16753 0.39804 -4.2418 0.00040181 0.036998 -0.056309 -0.38204 -1.2962 -0.69765 1.0583 -0.34017 -0.1907 0.28882 -1.0833 -0.45183
iis -0.31537 0.97907 0.33713 -0.05063 -0.27948 -0.49193 -0.45602 0.22949 0.68849 -0.013474 -0.3799 1.2785 -0.99492 -0.66211 0.12304 -0.11376 0.58994 -0.099664 0.29066 1.0048 0.28088 0.67732 -0.4238 0.95767 -0.31952
bing 0.92338 0.81809 0.10571 -0.48981 -0.20305 -1.3852 -0.013149 -0.14575 0.64916 -0.44416 0.35614 0.62913 -1.8017 -0.81938 0.57759 -0.01293 0.22231 0.044079 0.1569 0.5564 -0.55375 -0.17348 -0.74299 -0.11351 -0.42641
g 0.71784 0.61873 -0.36621 -0.96619 -0.15169 0.54449 -0.14904 2.1193 1.3702 0.44805 -0.61514 0.076912 -3.3584 0.30068 -0.60199 -0.29422 -0.1203 -0.62692 -0.84135 0.90314 -0.47377 -0.38357 0.30296 0.62116 -0.34375
pages 1.5865 -0.076521 0.4499 -0.057366 0.93528 -0.39982 0.61529 -1.5439 0.077203 -0.14749 0.081466 0.21297 -2.959 -0.064661 0.11189 1.0107 0.4725 -0.1299 -0.74652 0.19475 -0.49916 -1.509 -0.16196 -0.035038 -1.1829
blender -0.7634 -0.0085876 0.23047 0.06609 0.32298 0.057868 -0.10822 -0.96281 1.4775 0.046291 0.72248 0.2995 -1.6991 -1.2557 0.082423 0.60614 0.83883 0.029826 0.95273 0.73765 -1.2494 -0.091059 0.29742 0.37685 0.14411
video 0.65635 0.041117 0.93452 -0.14115 0.98254 -0.51396 1.1953 1.9252 0.19419 -0.91384 0.59072 -0.0003708 -3.5803 -0.71096 -0.002007 0.44468 0.0013177 0.41788 -0.89997 -0.32894 -0.44435 -0.81892 0.0025267 -0.94815 0.44134
policy 0.77088 0.45354 -1.7294 -0.34791 1.0804 -1.2893 0.35221 -1.6507 1.0494 0.12514 0.28098 0.058638 -3.3619 0.85013 1.2078 -0.48876 -0.4762 0.63565 0.35553 -0.50865 0.26851 -0.17012 -0.38663 -0.60629 -0.99038
mysql 0.58226 0.38966 -0.80362 -0.0059616 0.83043 -0.95108 -0.6448 -0.72436 2.1131 0.2197 0.21105 0.21865 -1.4022 -0.98272 0.7923 -0.29527 0.72247 1.0335 1.6148 0.86132 -0.22748 -1.3414 -0.096442 -0.11873 -0.4827
descriptions 0.86604 -0.15228 -0.10277 0.27861 0.82342 -0.32598 0.15843 -2.2293 0.0094942 -0.9285 0.30891 0.61127 -0.8334 0.071979 0.29535 0.6338 0.50154 -0.11385 0.75028 -0.015965 -0.11201 -0.97833 -1.0314 0.032856 -1.0262
pc 1.2105 -0.29613 0.44789 -0.49581 1.0018 0.32213 -0.53751 0.63089 1.4231 0.12334 0.23835 -0.95859 -2.8289 -1.0642 -0.091739 0.12593 -0.055556 0.64281 -0.8038 -0.078449 -0.95565 -1.2189 0.78606 0.59514 0.20275
delphi -0.03541 0.45419 -0.63709 0.061045 1.0612 -1.2632 0.22179 -1.4102 0.56236 0.51607 0.1188 0.17412 0.78393 -0.070454 0.019716 -0.61915 0.48312 0.57795 0.44636 0.36346 -0.42474 -0.34757 0.65558 -1.2853 -0.28584
webgl -0.37851 0.34315 -0.51128 0.081564 0.43063 -0.60012 -0.46015 -1.5138 1.0808 -0.76751 0.16906 0.060376 -0.12018 -0.66217 0.13085 0.42356 0.44809 0.26654 1.361 0.42533 -1.1846 -0.81197 -0.73529 -0.84245 -0.27013
websocket -1.141 0.86098 -0.46384 0.082063 0.67178 -0.49085 -0.74383 -1.7179 1.3815 -0.34 0.032885 0.073326 0.54366 -0.3576 -0.27189 0.31564 1.218 0.73968 1.1557 0.73738 -0.61054 -0.86211 -0.63649 -0.43064 -0.80489
parking -0.6205 0.49576 0.42375 -0.62486 0.25778 0.56881 -0.028255 -0.77162 0.94351 0.97778 0.22609 -0.52529 -3.1288 0.52101 1.4517 0.7872 1.0033 -0.82327 -0.012789 -0.16259 -0.22847 -1.0961 0.56362 -0.84091 -0.41043
mobile 1.037 0.2709 -0.58077 -1.0126 1.0013 -0.48956 -0.080671 -0.36429 1.6438 0.095637 0.45517 -0.39853 -3.5692 -0.47727 0.056777 0.11368 -0.15059 0.080773 -0.024598 -0.029963 -1.0779 -1.7017 -0.092905 -0.61377 -1.048
female 0.025177 0.44369 -0.32021 -0.25793 1.5684 -0.26569 1.2292 -0.2216 0.20106 -0.18663 -0.39499 0.14382 -3.8927 -0.0038828 -1.1774 0.38643 0.075468 -0.81885 0.93729 0.35195 0.69171 1.2215 -0.29893 -1.8245 -0.61952
room -1.3997 0.075163 1.4475 -0.12156 0.36528 0.25895 1.3139 -0.64755 0.62555 0.71676 -0.41937 0.26475 -4.3338 0.054202 0.3331 0.40562 0.5442 -0.29242 -0.4266 -0.39452 -0.30616 -0.50632 0.56089 0.094836 -0.059421
cloudflare -0.092451 0.067966 0.25647 -0.23749 -0.045362 -0.8989 -0.84284 -1.534 1.1883 -0.84658 0.43902 0.32439 0.026049 -0.94585 0.37052 0.58067 0.64181 0.28264 1.2043 0.2357 -0.55892 -0.22635 -0.36061 -0.85407 -1.0843
excel 0.85768 0.41416 -0.47415 -0.20737 0.71026 -0.19889 0.052267 -0.61615 1.0139 -0.16865 -0.15198 -0.18224 -1.9339 -0.38479 0.61129 0.38162 0.47434 0.7628 1.0384 -0.068808 -0.62443 -1.2845 -0.56638 0.12397 -0.36202
remote 0.1125 0.38049 0.40254 0.089511 0.58018 0.067418 0.41842 -0.46138 1.8756 0.99621 0.19743 0.27248 -2.7099 -0.65497 0.54752 1.0199 0.58964 0.1559 0.93753 -0.28045 -0.8659 -0.88299 0.85855 -0.39055 -1.0604
collections -0.84624 -0.12757 -0.086568 -1.192 1.2139 -0.82054 -0.18641 -1.6028 0.38949 -0.80435 0.63327 0.20138 -1.7916 0.35327 -0.50262 0.22333 0.41142 0.029995 -0.10898 0.77013 -0.57623 -1.2418 -0.69071 -0.049706 -0.3449
saas 0.021683 0.28122 -0.87629 -0.2346 -0.012296 -0.35337 -1.4107 -0.5086 1.2462 0.11661 -0.18789 -0.78202 -1.1181 -0.19037 0.51045 -0.36404 0.70388 0.30038 1.5845 1.008 0.0026684 -1.4935 -0.16457 0.050713 -1.1871
image 0.09753 -0.96854 -0.56535 0.3204 1.0762 -0.44437 0.90777 -0.11638 0.87341 -0.28158 0.45719 0.83624 -2.98 -0.040632 -0.11357 1.0126 0.14352 0.57437 -0.465 0.38184 -0.53745 -1.1987 -0.33628 -0.47722 -1.4574
newsletters 0.46342 0.58001 -0.08325 -0.20987 0.75222 -1.0638 -0.55422 -1.8829 -0.015609 -0.98539 0.5667 0.043528 -0.58673 -0.55101 0.7124 -0.051514 0.56487 -0.85159 0.51557 -0.28409 -0.78015 -1.4049 -0.79559 0.03766 -1.3891
react 0.54053 0.44093 -0.36263 -0.037315 -0.63195 -0.69036 1.0975 -0.5141 0.66221 -0.29976 -0.48179 0.6775 -2.2686 -0.26649 0.050077 1.2231 -0.016355 -0.60544 0.75484 -1.7995 0.12723 0.49804 -0.55368 -0.10192 -0.95882
centos -0.40027 0.31807 -0.21186 -0.23514 0.20402 -0.19157 -1.0713 -1.4583 1.3795 -0.80058 0.72771 -0.041077 -0.29906 -0.91359 0.062032 -0.59415 0.41888 0.51241 0.99778 1.0819 -1.0134 -0.55553 0.60268 -0.16261 -0.34779
research 0.38054 0.56599 -0.81505 -0.52665 1.3219 -0.60271 0.98022 -1.3781 1.6391 -0.043452 0.020539 -0.067625 -3.3916 0.48226 1.0773 -0.58704 0.62386 0.81116 0.23743 -0.71056 -0.25032 -0.65448 -1.4903 0.019451 -0.44786
font 1.4241 -0.5144 -1.794 0.1902 -0.092061 0.56414 0.067413 -0.012445 0.47315 -0.41008 0.31697 -0.55483 -2.1069 -0.41378 -0.73633 2.0262 -0.17709 -1.5249 -1.431 1.7402 -0.71806 -0.39408 -0.22323 -0.50619 -1.0354
book 0.21621 0.056781 0.82955 -0.1424 0.82832 -0.87341 1.699 -0.25702 0.65303 -0.82435 0.26496 0.4612 -4.0463 -0.044556 0.15648 -0.083655 0.72399 0.20802 -0.27561 -0.024987 -0.83992 -0.92536 -0.95454 0.42348 -0.14709
insurance -0.25173 1.056 -1.542 -0.51559 0.89596 -0.90224 -0.11666 -1.6683 0.698 0.6527 0.97024 -0.54357 -3.5071 0.0069129 1.3926 -0.72959 0.64351 -0.28472 0.76864 -0.22345 0.3157 -1.0991 7.7201e-05 -0.51475 -1.0273
powerpoint 1.2443 0.50743 0.46673 -0.27549 1.0918 -0.73761 0.3068 -1.129 0.90575 -0.23968 0.11313 0.12681 -1.466 -0.54843 1.0227 0.75129 1.1532 0.32491 -0.023408 -0.068983 -0.97344 -1.0371 -0.46529 0.15661 -0.19561
oauth 0.61073 0.73084 0.071921 -0.016632 1.0142 -0.87034 -0.29116 -1.5402 1.3088 0.35628 -0.17341 0.39463 -0.23898 0.077815 0.17378 0.91449 0.63718 0.88375 1.1742 0.36802 -0.3329 -0.68426 -0.29897 -0.43229 -1.4389
captcha 1.1327 0.87198 -0.56046 0.055985 0.95044 -0.71999 -0.12235 -0.95425 0.69396 0.0077778 0.5745 -0.22235 -0.62348 -0.82708 0.69356 1.2044 0.59464 -0.090025 1.0422 0.24937 -0.9233 0.099792 -0.49056 -0.14663 -1.0278
sas 0.59982 0.21418 0.0015295 -0.33833 -0.28406 0.19565 -0.70094 0.4033 1.143 -0.7091 -0.78649 -0.12353 -1.3582 -0.12995 0.29458 -0.48262 -0.30021 0.48713 -0.096792 0.63357 0.060932 0.0025709 -0.11155 0.13791 -0.5903
framer -1.4245 -0.383 0.37678 -0.32615 0.50983 -0.91391 -0.87442 -1.6499 1.1781 -1.0325 0.24244 0.71659 0.084717 -0.16911 0.28472 0.23439 0.41017 0.86427 1.117 0.60992 -0.18827 0.1224 0.10012 0.33682 -1.2667
music -0.12396 0.048617 0.48153 -0.044051 0.76683 -0.30726 2.2605 0.66417 0.18612 -0.72291 -0.27666 0.75348 -4.0836 -0.046326 -0.49996 0.65501 -0.56711 0.048527 -0.20459 0.50941 -0.59832 -0.92848 -0.015113 -0.31311 0.85532
nagios -0.42711 0.095089 -0.015273 -0.76215 -0.016808 0.069457 -0.2557 0.14277 2.0117 -1.4472 -0.94583 1.3069 -0.32014 -0.47482 -0.55565 0.2656 -0.6988 3.698 1.3164 0.67495 -0.80578 0.34163 0.24515 -0.25106 -1.5925
business 0.077507 0.80513 -1.1954 -0.78154 1.3877 -0.018525 0.49208 -0.98179 1.0274 -0.063191 -0.44426 0.055979 -4.6939 0.034159 0.55451 -0.48754 0.28644 -0.059675 0.11087 0.00047241 0.067165 -1.4893 -0.86799 -0.43494 -0.45832
dynamics -0.3128 -0.60827 -0.87292 -0.63659 0.3133 0.58261 0.010515 -1.2524 2.1304 -1.0013 -1.0692 0.012402 -1.8461 1.1003 0.62763 0.16171 0.040986 0.84988 1.6173 0.31438 0.55701 -1.6814 -0.24744 0.09953 -1.3208
auditing 0.0060085 0.97367 -0.28356 0.094677 0.61331 -0.67653 -0.15394 -1.9016 1.5649 0.16517 -0.59358 0.48262 -0.65352 0.21094 0.86019 -0.23172 0.43685 0.59172 0.91043 0.025201 -0.37172 0.13158 -0.81986 -0.094033 -0.7154
payroll -0.097624 1.5531 -1.2695 -0.82585 1.216 -0.23158 -0.93064 -1.7736 1.1618 -0.30803 0.26663 0.13763 -1.8129 0.28365 1.2902 -1.2921 0.36698 0.037194 0.37828 -0.15998 0.0087558 -0.3347 0.062397 0.027006 -1.0197
later -0.05763 0.62327 0.58059 -0.65169 -0.7138 -0.43269 0.67028 -0.67902 -1.0164 0.66258 -0.59855 0.58332 -4.0621 0.33958 0.85889 0.82209 0.84095 -0.4694 -0.98737 -0.28428 -0.57554 -0.48205 -0.046945 1.1349 0.5343
clip 0.34716 -0.688 0.29151 0.41805 0.76164 -0.45369 0.55163 0.37153 0.35425 -1.2268 0.40929 0.36329 -2.4735 -0.58006 -0.20488 1.0032 -0.052987 -0.016034 -1.6775 0.72575 -0.89728 -0.52601 0.65026 -0.55136 0.22863
automation -0.4386 0.69536 -1.3698 -0.6277 1.2046 -0.4705 -0.50709 -1.661 1.8914 -0.24678 0.065974 0.25485 -1.9655 -0.72286 1.2439 -0.16533 0.082424 0.99509 1.2418 0.19102 -0.16343 -1.7373 -0.67485 0.28027 -0.52101
foreign 0.50517 0.69469 -0.87511 -0.29761 0.70647 -0.8742 0.37532 -1.2174 0.54315 0.40857 0.059936 -0.12228 -3.4231 0.52761 -0.15762 -0.5037 0.4396 0.072719 0.63639 0.52055 0.7304 0.34789 -0.67096 -2.0461 -0.33311
basic 0.61337 -0.42902 -0.046779 -0.43029 1.8011 0.6842 0.41397 -1.432 0.3264 0.47861 -0.69065 -0.31829 -3.1181 -0.53369 -0.82483 -0.27835 0.72631 -0.011645 0.053714 0.53384 -0.040682 0.17344 -0.25609 0.14158 -0.88471
proposal 0.55362 1.0752 0.186 -0.046354 0.83731 -1.141 0.71151 -0.44392 0.94499 0.065097 0.62184 0.45483 -1.8833 0.80379 0.71679 -0.14594 0.36708 -0.44032 -0.62742 -0.84807 -0.99519 0.37423 -1.4009 0.16945 -0.93314
inkscape -0.46163 0.29122 -0.014152 -0.038296 0.046764 -1.0116 -0.86604 -1.662 0.71963 -0.40737 -0.30836 -0.16017 0.49123 -0.75923 0.035611 0.40958 0.86463 0.44404 1.2664 0.57168 -0.41355 -0.40412 -0.33071 -0.34104 -0.27971
whiteboard -0.22358 -0.35899 0.77832 -0.031735 0.62731 -0.63692 0.26325 -1.5661 1.5731 -0.41738 -0.46386 0.57496 -0.4686 -1.0088 0.59827 0.5119 0.55141 0.27912 0.14234 0.21584 -0.94128 -1.1092 -0.18047 -0.26081 -1.1887
interior -0.51641 -1.3466 -0.12975 -0.018905 0.97516 0.43733 -0.9304 0.63928 0.89834 -0.23532 0.49952 -2.0656 -2.3828 0.015446 0.054248 -0.080727 0.17722 0.60778 0.97612 -0.14868 0.034326 -0.72941 -0.38384 -0.74077 0.11358
story 0.39477 -0.20843 0.19808 0.38065 0.35546 -0.5627 1.9029 0.61443 -0.040513 -0.52412 -0.066327 0.47764 -3.7072 0.39515 0.35565 0.70867 0.33886 0.18275 -0.55713 0.099503 0.080318 -0.38175 -0.42301 -0.16257 -0.11925
tumblr 1.1344 -0.40837 0.79258 0.0022358 1.3348 -0.73791 0.74261 0.20043 -0.59322 -0.31809 -0.29821 -1.1697 -2.9541 -1.6505 -0.48072 0.7374 -0.18478 -0.11566 -0.70941 -0.59337 0.078992 -0.99377 -0.070136 0.461 -0.34352
landing -0.74106 0.10021 0.66424 -0.12569 -0.31173 0.06831 0.52026 -0.50036 1.4354 0.084602 0.45046 0.56103 -1.9845 0.8296 0.66358 0.75522 0.65212 0.12081 0.15616 -0.61297 -0.93077 -0.59278 0.12783 -0.74275 -0.33576
vps 0.16112 0.53484 -0.7423 -1.4615 0.83153 -0.30066 -0.30078 -1.2489 1.3575 -1.4707 0.10936 0.090768 -0.71056 -0.58277 0.21231 0.17304 -0.017821 0.25125 0.55803 0.96656 -0.8537 -2.1761 0.2195 0.3722 -0.71741
tfs -0.072646 0.53832 -0.15687 -0.49863 0.082498 -1.0104 0.11332 -0.74651 1.1471 -0.78145 -0.31597 0.95797 -0.24195 -0.64172 0.84544 0.19099 0.12386 0.71222 0.9434 1.0437 -0.50826 -0.20267 0.48253 -0.49797 -0.052105
& -0.47122 0.056607 -0.29293 0.14845 -0.38806 0.98729 0.70408 1.1875 -0.11685 -0.022892 0.77426 0.54195 -4.7114 -0.50027 -0.44136 -0.29372 -0.31554 -0.58285 -0.1643 0.10002 -0.14504 -0.79716 -0.7261 0.2252 -0.17583
shipping -0.33726 0.26518 -0.49963 -0.82966 0.62999 -1.1361 0.34965 -1.3984 -0.35021 0.16397 1.0991 -0.30867 -2.7495 -0.49166 -0.15389 -0.52444 0.35984 -0.84201 0.12231 -0.058127 -1.2591 -1.6899 0.2799 0.15909 -1.2524
visa -0.28689 0.69289 -0.88195 -0.92013 0.8597 -0.92387 -1.4607 -0.20418 0.42181 0.21126 0.46397 -1.4163 -2.2922 0.38977 -0.33351 0.20312 0.86415 0.15846 0.45555 -0.28556 -0.77106 -0.70008 -0.51666 -0.31574 -0.47789
redmine -0.87208 0.16096 0.16567 0.010328 -0.17404 -0.20837 -0.92614 -1.5672 0.9442 -0.94896 -0.020806 0.36079 0.75743 -0.43056 -0.79804 0.32306 0.89033 0.90803 1.0406 0.75816 -0.62712 -0.71683 -0.43623 0.26307 -0.40701
ip 1.0093 0.60671 -0.017642 -0.343 0.58663 0.052721 -0.57153 0.24704 1.3652 0.82014 0.22707 -0.031525 -1.7745 0.1353 0.21643 -0.32917 0.53548 0.12764 0.12477 0.38286 -0.92138 -0.57744 -0.3444 0.31526 -0.54945
siebel -0.54753 0.53723 0.0036546 -0.7853 -0.086348 -0.16683 -1.8395 -1.3393 1.4803 -1.0914 -0.40734 1.3304 -0.39707 -0.54116 1.6976 -0.12165 -0.39904 1.1077 1.1605 -0.052357 -0.19324 -0.90298 -0.58134 -0.58956 -0.29785
facebook 1.8545 0.000786 0.33901 -0.30362 1.1392 -0.304 0.053234 0.84017 -0.26918 0.12832 0.1685 -1.1183 -3.5827 -1.1707 -0.15102 0.72618 -0.026316 0.11115 -0.90396 -0.83639 0.30915 -1.4184 -0.46751 -0.32155 -0.63986
power 0.32315 -0.028709 -0.7466 0.036351 0.21899 0.48826 0.84622 0.36027 1.2527 0.047795 0.16053 0.21879 -4.0029 0.24062 0.35061 0.15672 0.1131 0.10312 0.99812 0.0722 -0.63737 -0.14126 0.1368 -0.13223 -0.4668
solid -0.61734 -0.14777 -0.30596 -0.69527 0.45478 1.0235 0.57895 0.012367 0.75258 -0.17702 -0.070738 0.36417 -3.0364 0.85928 -0.16256 -0.11322 0.70501 -0.38083 0.44419 0.39157 -1.5359 0.74064 -0.089799 0.49189 -0.83641
end 0.15306 0.50479 -0.58454 0.10427 -0.50165 0.15498 1.4432 -0.32692 0.0045107 0.14528 -0.22403 0.62411 -4.2962 0.95003 0.37069 0.46548 -0.38507 -0.13589 -1.0243 -0.72599 -0.49973 0.1329 0.45272 0.029537 0.088057
finance 0.15105 0.83408 -1.6155 -1.075 1.0671 -0.89789 -0.47667 -0.89978 1.7792 -0.11403 0.1135 -0.07049 -3.0174 0.32542 1.2742 -0.9881 0.14577 0.35748 -0.29004 0.12059 -0.023127 -1.1608 -1.194 -0.50276 -0.6781
opensource -0.26504 0.40333 -0.94097 -0.58632 0.68838 -0.86281 -0.69832 -1.0937 1.0396 -0.51069 -0.16409 -0.25198 -0.59899 -0.78063 0.20275 0.24811 0.4049 0.69777 0.93138 0.73067 -0.44675 -1.1024 -0.86746 -0.6537 -0.17615
cs 0.83731 -0.036757 -0.59018 -0.8878 -0.17544 0.26964 -0.34282 0.49905 1.1222 -0.16078 -0.55471 -0.1827 -1.9212 -0.37565 0.62351 0.020513 -0.36867 -0.20497 -1.2685 1.1364 -0.54407 -0.78535 0.1804 0.14756 -0.35706
direct 0.74064 0.50932 -1.1503 0.098377 -0.089281 0.096189 -0.28201 -0.41607 0.25903 -0.050508 -0.063728 0.27742 -3.2311 -0.20563 0.47808 1.2911 0.18951 0.39942 -1.4689 0.56389 -0.25967 -1.8426 0.11737 -0.47097 -0.79148
dns 0.74847 0.25477 -0.45228 -0.17794 0.21184 0.27154 -1.1284 -0.63884 1.1932 0.48455 -0.54294 -0.46264 -1.2158 0.16121 0.6548 0.77509 0.55648 0.091957 -0.96418 1.0487 -0.1275 -1.3708 1.059 -0.87078 -1.2209
wix 0.46667 0.52026 0.045661 -0.7921 0.25301 -0.69899 -0.62068 -1.6651 1.2982 -0.42124 0.13706 0.0072637 -0.44928 -0.67453 0.77458 0.32174 0.79538 0.64348 1.1247 0.89842 -1.3269 -0.40374 0.58627 0.34588 -0.046225
squarespace 0.072073 -0.33457 0.056317 -0.71834 -0.31393 -1.3549 -0.5398 -2.2268 0.90815 -1.5033 -0.42284 -0.226 -0.21519 -0.96248 0.735 0.0049857 0.68443 0.57708 0.23689 0.5658 -0.78708 -0.32149 -0.4531 -0.30321 -1.3515
link 1.3491 0.68608 0.17725 -0.2724 1.1198 -1.0054 0.046623 0.81559 0.17087 -0.33816 0.057817 -0.47649 -3.2319 -0.93652 -0.30103 0.54455 0.243 -0.076362 -1.1524 -0.57128 -0.67911 -1.5696 -0.068748 0.7916 -0.3533
survey 1.0214 0.92958 -0.59042 -0.66807 0.71633 -0.51971 0.78536 -0.7369 1.3531 0.29525 0.65453 0.086192 -2.2774 0.79091 0.42883 -0.11168 0.23175 -0.19456 -0.22464 -0.55188 -0.49964 -0.97801 -1.361 -0.013693 -1.2854
crystal -1.4597 -1.1971 0.06907 -0.038488 -0.62892 0.39221 0.026559 -0.21754 0.97824 -0.84082 0.79899 0.44111 -3.1126 -0.31992 -0.59241 -0.78658 0.46136 0.046404 0.57647 1.3071 -1.1327 -0.049453 0.61813 -0.14954 -0.55063
ableton -0.30517 0.35386 -0.021955 -0.35309 0.12658 -0.61764 0.054766 -1.2109 1.4754 -0.9049 -0.49243 0.10298 -1.0338 -1.2467 0.47502 0.54761 0.61226 0.6248 0.96722 0.82183 -0.82906 -1.1991 0.26145 -0.17883 0.099497
cut -0.22728 0.3349 0.13825 0.14371 0.43378 0.1202 0.81953 -0.45941 0.52515 0.40059 0.46365 0.80848 -3.8997 -0.32224 -0.2333 -0.66852 0.17377 -0.60707 -0.36019 -0.57224 -0.31984 0.8731 0.95666 0.36279 -0.47657
calendar -0.43768 0.18944 0.94385 -0.79796 0.76705 -1.2546 1.3293 -0.93174 0.26634 -0.68059 0.8172 0.4717 -2.4635 0.6203 0.069022 -0.01382 0.46206 0.0046669 -0.26294 0.16859 -1.2317 -0.93477 -0.21335 0.31896 -0.66724
qt 0.63777 1.0127 0.082619 0.057858 -0.4506 0.11213 -0.10183 1.77 1.6182 0.40518 -1.9383 0.42115 -1.9466 0.64856 -1.1761 -0.30878 0.24 0.0019188 -0.081093 1.1409 -0.089217 -0.60892 -0.46871 1.5167 -0.25798
operations -0.71991 1.1151 -1.024 -0.62585 0.90179 -0.71214 -0.2343 -0.88896 2.1521 0.11129 0.21516 0.27918 -2.5442 1.2009 1.6419 -0.22439 0.046283 0.53335 0.37731 -0.71709 -0.27266 -1.1854 -0.35861 -0.8065 -0.56136
workforce -0.38009 0.38099 -1.2606 -1.1187 1.4145 -0.063506 -0.99191 -1.7811 1.4239 0.0085801 -0.5175 -0.14666 -2.0795 0.63197 0.10913 -0.61913 -0.23826 0.51987 1.2675 0.093323 -0.80618 -0.64726 -0.66828 -0.67374 -1.1178
film 0.5823 -0.40719 0.69944 -0.061546 0.45053 -0.15719 0.8819 1.0939 0.62225 0.088411 0.66427 0.51389 -2.9291 0.29542 -0.21149 1.2703 0.42958 0.42229 -2.2545 0.80729 -1.1177 0.42304 -1.7791 -0.87308 0.56131
and -0.81216 -0.28605 0.062502 -0.036869 -0.61118 -0.15568 1.625 -0.42602 0.1973 -0.19418 0.53267 0.64592 -6.1336 -0.3309 -0.0017279 -0.15173 0.20383 -0.77496 0.17629 -0.10884 -0.31234 0.2401 -0.36097 -0.049996 -0.7247
smarty -1.1223 -0.028031 -0.043874 -0.65157 0.15794 -0.48182 -0.17635 -1.1211 0.28654 -0.52857 -0.67408 0.29726 -0.86513 -1.1611 0.45952 0.24835 1.0374 -0.49747 0.71836 1.2753 0.45845 0.69624 0.13226 0.22689 -1.0131
heroku -0.50256 0.14339 -0.096634 0.29219 -0.21372 -0.84995 -0.83112 -1.6748 1.4671 -0.38166 -0.2563 0.29843 -0.37061 -0.81283 0.13826 0.084572 0.62723 0.39732 1.1251 0.96682 0.0092124 -0.62051 -0.27023 -0.56663 -0.64218
slides 0.40307 -0.20348 1.0675 -0.012936 0.70592 0.10405 0.011834 -1.8235 0.76909 -0.17047 0.391 0.11187 -1.8737 -0.049283 0.055314 0.35983 0.0032539 -0.31433 -0.19392 -0.49718 -0.91997 -0.32683 1.1841 0.34412 -0.68592
xaml -0.37477 0.3676 -0.89668 -0.83242 0.49724 -0.44049 -1.1326 -1.5299 1.349 0.18424 -0.21199 0.17029 -0.15218 -1.1837 0.052524 0.42333 0.19916 0.41101 1.7499 1.3255 -0.78988 -0.81124 0.56961 -0.27736 -0.66553
ftp 0.45312 1.2317 -0.49037 -0.37403 0.15801 -0.83009 -0.36025 -0.93671 1.0814 0.14004 -0.53913 -0.10163 -0.72923 -0.91397 0.51911 -0.4713 0.34354 -0.12695 0.51994 0.43933 -0.089641 -1.1644 0.043539 -0.49761 0.11385
vm 0.049663 0.34245 -0.059901 -1.1356 0.078264 -0.58759 -1.2466 -0.4858 0.62223 -0.57201 -0.85752 -0.18454 -1.5423 -0.084132 -0.64469 0.41713 0.20125 0.22888 0.17558 0.45313 -0.61775 -0.44936 0.26679 0.05271 0.10827
accessibility 0.28893 0.29086 -1.5137 -0.60862 1.1988 -0.80007 -0.3036 -1.631 0.81411 -0.22857 -0.31466 0.15018 -1.1417 -0.34952 0.42737 0.38676 -0.29017 0.29165 1.3449 0.16336 -1.014 -0.99743 0.050677 -0.3236 -1.268
adobe 0.90438 0.0593 -0.082492 -0.55911 0.59508 -0.38958 0.25642 -0.31857 1.5346 -0.67234 0.25131 0.25002 -1.767 -1.115 0.30435 0.1892 0.53532 0.99104 0.88938 0.79087 -1.0006 -1.5044 -0.17463 -0.52229 -0.5514
pinterest 0.16606 0.30748 -0.19807 -0.42291 1.523 -0.50477 0.37302 -0.92684 -0.19424 -0.6709 0.31864 -0.36135 -2.7497 -1.24 0.21631 0.68184 0.44305 -0.18475 0.51582 -0.31655 -0.40144 -2.161 -0.88239 -0.2534 -0.55618
directory -0.58274 0.049061 -0.57199 -1.2847 1.403 -1.3399 -0.27649 -2.1329 0.89515 -0.18895 0.29263 -0.08704 -1.7909 -0.46021 -0.086016 -0.10351 0.58749 -0.37049 -0.15643 -0.061696 0.010295 -2.334 -1.4001 -0.69902 -0.71524
collection -1.0826 -1.0122 0.22032 -0.60044 0.93554 -0.332 0.53833 -0.73363 0.58597 -1.0759 1.1716 0.48004 -3.335 0.16017 -0.77717 0.18975 0.27008 0.018947 -0.4762 1.5122 -1.1511 -1.2743 -0.29135 0.015646 -0.15152
unreal -0.22195 -0.11358 0.0037973 -1.056 0.22102 0.60333 1.4767 -0.87563 -1.2599 -0.66764 -0.5209 1.0471 -2.3722 0.34206 1.2542 0.27437 0.27305 -0.4054 0.027891 0.027081 -0.41519 0.63918 0.12577 0.060797 0.12137
gcp 0.36056 1.292 0.19772 -1.0619 0.27939 -1.4707 -0.26104 -0.85191 0.075116 -0.63509 -1.4757 0.91443 -0.061237 0.046681 0.65013 -0.067705 -0.37222 1.0157 1.246 0.7622 -0.055968 0.069324 -0.41393 -1.1733 -0.71571
supply -0.46679 0.68602 -0.89416 -0.0053596 0.38063 -0.16642 0.31624 -1.2476 1.289 0.50441 0.89109 -0.1343 -3.1972 0.27032 -0.026024 -0.42596 0.8425 0.25223 1.1386 0.41966 -1.0147 -0.75941 0.22989 0.52583 -0.55707
blockchain -0.64493 0.0060952 -0.010747 -0.36918 0.51774 -1.6152 -0.9192 -2.1151 0.53258 -0.37364 1.5955 -0.20576 -0.23919 -0.93032 0.69441 0.59877 0.73708 0.73777 1.2992 0.57018 -0.48301 -0.12409 1.0473 -0.81102 -1.3688
articulate 0.15952 -0.41138 -1.1711 0.20564 -0.23572 0.32863 0.42479 -1.1883 0.73716 -1.4901 -1.3721 1.257 -1.6115 0.04116 -0.14965 1.1153 0.66826 0.19902 1.0334 -0.80187 0.18944 0.55069 -1.0983 -0.0954 -1.2912
rest -0.34132 0.55092 0.064469 0.20643 -0.54266 0.33789 0.53437 -0.3248 -0.65103 0.22651 -0.68945 0.67551 -4.17 0.64502 0.32952 0.21134 0.52893 -0.017964 -0.56936 -0.38924 -0.63516 0.26882 -0.40583 0.61783 0.25646
peachtree -0.85576 0.37411 0.1011 -0.83834 -1.1594 0.44544 -1.1582 -1.733 2.2885 -0.39867 -0.75105 0.53161 -1.3616 0.59864 0.78714 -0.86315 0.40102 0.65065 -0.28089 2.1292 -0.13539 -0.54335 -0.18137 -0.82238 -0.020147
retention -0.18371 0.36567 -1.0277 -0.23396 1.8713 -0.70415 -0.62904 -1.7513 0.84347 -0.17443 0.77761 0.62125 -1.4344 0.13273 0.60858 -0.1116 -0.36568 0.13859 0.8111 -0.2246 -0.50362 -0.38044 -0.047575 0.0302 -1.3904
tax 0.60498 1.319 -1.5766 -0.020063 0.97982 -0.76871 -0.28341 -1.6497 0.95727 0.45358 0.96131 -0.30527 -3.5188 0.80601 0.5879 -1.463 0.11065 -0.045091 -0.14074 -0.80263 0.061016 -0.067514 -0.029781 -0.18627 -0.89017
list 0.65758 0.82504 0.31556 -0.72113 0.84956 -0.62507 1.066 -0.18872 -0.081897 -0.12741 0.48206 0.28491 -3.619 0.50084 -0.31503 0.061368 0.41601 -0.87672 -0.22227 -0.1323 -0.74891 -0.89304 -0.86737 -0.048072 -0.84759
cover -0.053788 -0.66795 0.93782 0.16653 0.54418 -0.37815 1.1712 0.87508 0.85894 -0.64202 0.45783 0.40806 -3.4535 -0.74238 -0.3259 0.76986 0.052182 -0.25371 -0.35655 0.0069241 -1.0389 -0.30297 0.10112 -0.18283 -0.41573
plans -0.12579 1.2072 -0.73662 -0.18086 0.1757 -0.34562 0.7458 -1.5778 0.36515 -0.51118 0.29622 -0.091626 -3.9778 0.92888 0.80515 0.33344 0.42237 -0.52822 -0.43579 -0.72746 0.10328 -0.85859 0.030058 -0.0079171 -0.4089
oscommerce -0.078619 0.44151 -0.83674 -0.45611 0.41682 -1.1155 -1.0794 -2.3328 1.6002 -0.84338 0.23556 -0.16249 -0.04433 -0.76448 0.99615 -0.32863 0.47627 0.073187 0.92559 0.035817 -1.5883 -0.0061066 -1.0192 -1.0584 0.1499
services -0.51398 0.67094 -1.3458 -0.78218 1.0763 -0.59789 -0.55136 -1.5635 1.4981 -0.02892 0.38081 -0.45138 -3.8249 0.47763 1.0824 -0.35438 0.41273 0.0067651 -0.00628 -0.24494 0.030407 -2.4144 -1.0448 -0.51042 -0.73771
spa -0.83471 0.47279 -0.54908 0.10004 0.18505 0.19217 -0.22108 0.56436 2.1685 0.22565 -0.31824 -0.57286 -2.4932 0.27768 0.28124 0.0080209 0.7962 -0.24866 -0.29724 1.1789 -0.70203 -0.53028 -0.76269 1.1103 0.27948
removal -0.83608 -0.22163 -0.93009 0.59273 1.2359 -0.76066 -0.045844 -2.1514 1.3507 0.19216 1.2875 0.17702 -1.8864 -0.8543 0.74919 -0.44992 0.038344 0.23516 0.44355 -0.44647 -0.83434 -0.024854 0.26574 0.23957 -0.52376
deutsch 1.0258 -1.3457 -0.73075 -1.1816 0.87279 -1.1416 -0.058511 -0.49658 0.67708 -0.98762 -0.25336 1.3414 -0.71205 -1.424 0.67003 -0.42057 0.79672 1.7148 -0.88933 -0.5277 -0.081162 -0.29674 -0.99749 0.083654 0.5801
celery 0.2483 -0.32626 -0.36573 0.92698 -1.3266 0.69623 0.7468 -2.2372 0.49091 0.49199 1.522 -0.14573 -1.429 -2.3462 0.11477 -0.31336 0.58416 -0.51628 1.2577 0.33961 -0.75491 0.95482 -0.7315 0.28275 0.2906
tracking 0.2739 1.0203 0.067145 -0.035353 0.88209 -0.60505 0.55091 -1.2451 1.208 0.027213 0.61301 0.38321 -2.0719 -0.48384 1.0391 0.4877 0.23572 0.30068 0.57219 -0.63856 -0.87161 -1.3812 0.25941 -0.40276 -0.70799
cobol -0.011084 0.73057 -0.64355 -0.21995 0.2807 -0.5366 -0.56621 -1.1756 1.4322 -0.68979 -0.553 0.40857 0.0016011 -0.34638 0.8696 -0.27212 0.19609 1.0701 1.7172 0.98514 0.12066 0.15634 -0.81363 -0.39969 -0.071253
deployment -1.0211 1.1147 -1.0721 -0.61195 0.83321 -1.3184 0.053697 -1.7346 1.2504 0.1096 0.37794 0.24424 -1.5651 0.65375 0.49397 0.3763 0.14453 0.42064 0.22097 0.077665 -0.6249 -0.31635 -0.01561 -0.66835 -0.41097
corporate -0.05996 1.1081 -1.2788 -0.43937 1.5561 -0.37912 0.062146 -1.4314 1.311 -0.25821 0.043012 -0.26566 -3.1548 0.09289 0.30122 -0.64858 -0.13847 0.29081 0.49365 0.22976 -0.41433 -0.40123 -0.95836 -1.2674 -0.61573
cakephp -0.35719 0.65709 -0.32572 -0.24969 0.27227 -0.77676 -0.6102 -1.341 2.1996 -0.48673 -0.385 0.22743 0.044568 -0.03597 -0.072287 0.49742 0.96067 1.1851 1.465 0.71424 -0.37198 -0.39851 -0.3042 -0.64331 0.092098
kafka -0.87117 -0.41062 0.51528 0.98353 -0.18433 -0.46799 -0.73683 -0.15543 0.41473 -1.0179 0.29761 0.41021 -0.57364 -0.10077 0.29772 -0.59544 -0.065001 1.3259 0.47676 0.23192 0.66014 0.44233 -0.83501 -0.5894 0.20514
xml 0.25697 0.63448 -0.99072 -0.17623 0.84344 -1.0306 -0.59606 -0.62179 1.4012 -0.14057 0.11828 1.2506 -0.87292 -1.4901 0.17609 0.087812 0.0074917 1.1729 0.85242 -0.010671 -0.49272 -1.1623 -0.087874 -0.54035 -0.64498
pwa -0.89039 -0.04177 -0.36401 -0.1447 -0.6921 -0.53393 -0.57072 -0.81049 1.0034 -0.20535 -0.43264 -0.0086147 0.24097 0.12248 0.82205 0.16072 0.35162 -0.14355 0.5834 1.526 -0.50267 0.23265 0.16161 -0.02455 0.096126
articles 1.4155 0.25178 -0.3731 -0.18204 1.3076 -0.53801 0.4801 -1.9037 -0.0017252 -0.84786 0.2792 0.1386 -2.6414 -0.15471 0.48025 0.41663 0.49082 -0.040776 -0.64893 0.1286 -0.11074 -1.8153 -1.5238 -0.35543 -0.85363
economics 0.88475 0.41586 -0.47566 -0.56974 0.77438 -0.96258 0.9688 -1.8931 1.5199 -0.37411 -0.95724 -0.089914 -2.3582 0.196 1.9331 -0.83397 0.24804 0.99414 0.418 -0.12623 -0.099968 -0.0068372 -1.0783 0.1916 -0.11491
performance -0.061537 -0.22383 0.26648 -0.64877 1.0662 -0.12977 1.1463 0.099069 0.5093 -1.6321 -0.019711 0.58263 -3.5154 0.66394 0.51503 0.53479 -0.53347 -0.0050854 -0.56047 0.23826 -1.2561 0.18834 -0.21685 -0.3822 -0.45664
focus 0.1471 0.30418 -0.84213 -0.34126 0.21771 0.4279 0.73271 -0.30792 0.89662 -0.30465 -0.69495 0.73101 -3.4954 0.44722 0.26445 0.59682 -0.48216 0.093294 0.10923 -0.94678 -0.63106 -0.41301 -0.4478 0.21738 -0.9197
azure -0.1116 0.24374 -0.28226 -0.30567 0.26232 -0.67912 -0.4102 -1.1557 1.6653 -0.39934 0.08136 0.33113 -1.6311 -0.70254 0.46601 -0.41729 0.60485 1.1452 1.0968 0.57777 -0.63034 -1.6661 0.23447 -0.38619 -0.41293
infusionsoft -0.50576 0.18797 -1.0338 -0.027971 0.20705 -1.4666 -0.91328 -1.7474 0.82381 -1.3038 -0.18262 0.0028598 0.20868 -0.96675 0.75188 0.00782 0.75718 0.099635 1.6582 0.51129 -0.34997 0.0028878 -0.23873 -0.61861 -0.50269
requirement 0.043836 0.18773 -1.17 -0.52053 0.90519 -1.0894 -0.0013532 -1.7072 0.6889 0.15146 -0.28935 -0.15444 -1.8904 0.89744 0.4642 0.15223 0.66699 0.18278 0.44285 -0.50991 -0.039277 0.15419 -0.62228 0.51388 -1.1657
geospatial 0.39353 0.41995 -1.5466 -0.030044 0.060717 -1.2017 -0.2246 -1.4469 1.5822 -0.77719 -0.23886 0.47079 0.0041879 -0.2431 0.7509 0.14401 0.22913 0.59417 1.5422 0.77276 -0.68593 -0.77849 -0.92968 -0.94973 -0.57576
travis -0.92916 0.23586 0.67004 0.43452 -0.7954 -0.76125 -0.068549 0.43827 0.17337 -1.4234 -0.089962 0.71458 -2.4694 -1.0214 0.70084 -0.49177 -0.31552 0.072645 0.29703 0.30327 0.60215 0.35858 0.068823 -0.59352 0.08882
dart -0.21265 0.85271 0.04352 0.47489 -0.33645 -0.36872 -0.38401 -0.3364 1.0811 -0.042551 0.37582 -0.018889 -1.4887 0.07996 0.52276 0.6106 0.69463 0.030838 0.62755 0.93112 -1.1434 0.69137 0.70301 -0.081494 0.088155
telerik -0.46397 0.42591 -0.021126 -0.75333 -0.3983 -1.1949 -1.1885 -1.311 1.0761 -0.88547 -0.61426 -0.21248 0.030237 -0.35021 0.48244 0.22699 0.49163 0.73632 1.6138 0.89184 -0.45849 0.0032477 0.032724 -0.89107 -1.127
crowdfunding 0.2132 1.2087 -1.4396 -0.24251 1.1421 -1.2117 -0.43453 -0.8514 0.35594 -0.9587 0.39498 -0.33981 -2.1013 0.22867 0.0094118 0.3524 0.037068 0.65443 0.76615 -0.09452 -0.84785 -1.5883 -0.68888 -0.94871 0.17564
chrome 0.45806 -0.57717 0.4985 -0.068375 0.8562 0.15428 -0.66611 -0.63584 1.4137 0.064904 1.1791 -0.45615 -2.5024 -1.1524 -0.15377 0.21708 0.5287 0.49857 0.48045 0.37608 -0.78677 -0.97132 0.89968 -0.14548 -0.40317
education 0.39388 0.78487 -1.3961 -0.60382 1.3577 -0.83924 0.45893 -1.4246 1.0915 -0.060802 -0.71102 -0.039473 -3.9293 0.83086 0.7263 -0.71564 -0.17165 0.59538 0.54924 -0.17349 -0.004416 -0.43568 -1.5045 -0.37329 -0.087829
billing -0.19488 1.4471 -0.53835 -0.16354 1.5569 -0.68573 -0.25028 -1.5406 1.5865 0.25971 0.17457 0.17927 -1.2884 -0.022939 1.2882 -0.062147 0.59159 -0.15882 -0.0046253 -0.10345 -0.30319 -0.60035 -0.36235 0.00094609 -1.0218
help -0.12434 1.018 -1.4977 0.072667 -0.23608 -0.86819 1.2472 -0.19837 -0.17941 0.38505 0.014512 0.073408 -4.4734 -0.53896 -0.25648 0.009369 0.037017 -0.72818 0.12968 -1.1874 -0.33698 -0.60578 -0.60764 0.39163 -0.061266
rewriting 0.84606 1.2618 0.37515 0.51047 0.15496 -0.74586 0.32678 -2.5134 0.29919 -1.0156 -0.76993 1.2037 -0.83965 -0.58663 0.94746 0.20929 -0.080891 1.1438 0.21384 -0.49855 -0.59438 -0.51425 -1.2064 -0.41829 -0.77893
paypal 0.52297 1.1055 -0.8652 -0.55596 0.64903 -1.1317 -1.0964 -1.0824 -0.042959 0.36493 0.8338 -0.46679 -2.1331 -0.83975 -0.094362 -0.55916 0.63756 -0.35605 0.3812 -0.25478 -0.60236 -1.8661 -0.0035332 0.18343 -1.2317
iot -0.12024 0.83069 -1.0264 -0.46297 0.11591 -1.1719 -0.39911 -0.91438 0.82656 -0.021499 -0.83276 0.34419 -0.099482 -0.43664 0.23219 0.11102 0.25185 0.47803 1.0228 0.81875 -0.31624 -0.40869 -0.47669 -0.21865 -0.12014
translation 0.52564 0.068014 -0.42064 -0.048378 0.99078 -1.7897 1.1539 -0.9001 0.57167 -0.051509 -0.51572 0.52835 -1.9772 -0.58666 0.61872 -0.032721 0.95796 0.48063 0.29381 0.35979 0.40307 -0.54538 -0.91167 -0.17403 -0.24779
posting 0.44201 1.5205 0.56266 -0.13231 0.98528 0.051966 0.95187 -0.71746 -0.15066 0.35086 -0.41994 0.72749 -2.8589 -0.96332 0.2742 0.81382 0.118 -0.67587 -0.71444 -0.81459 -0.068206 -0.62321 -0.96868 -0.53653 -1.2125
director -0.21395 0.61846 0.20945 -0.46848 1.2158 -1.0612 -0.24612 1.1015 0.7469 -1.5941 0.74413 -0.17674 -3.2451 0.20135 1.7677 -0.64287 0.51922 1.0273 0.28766 -0.15031 0.5207 -0.39571 -1.2331 -1.2422 -0.31301
host -0.041434 0.97982 0.3827 -1.0367 0.21949 -0.7268 0.62061 0.27395 0.65042 -1.3615 0.19913 0.23137 -2.9939 0.2108 0.60249 -0.099291 0.10998 -0.63749 -0.16178 0.05374 -0.82302 -0.097867 -0.98516 -0.9586 -0.11011
prezi 0.45136 0.75287 0.18561 -0.096664 0.82861 -0.85044 -0.31846 -0.747 0.55682 -1.5273 -0.46184 0.3676 -0.40131 -0.52425 0.65275 0.74194 0.83667 0.68628 0.88086 0.72912 -0.41676 -1.1281 -0.13002 -0.22913 -0.10434
jboss -0.6972 -0.17547 -0.49535 0.072826 0.093625 -0.23719 -1.1231 -1.4762 1.4298 -0.7952 0.15563 0.00087759 0.12587 -1.0328 0.73081 -0.25987 0.62257 0.27888 0.85729 1.3474 -0.61409 -0.35358 0.13728 -0.455 -0.69261
version 0.17626 -0.98825 0.51275 0.044237 1.094 -0.44221 1.2696 0.67469 0.46434 -0.93907 0.26548 0.43235 -3.1853 -0.5727 0.19205 1.1561 0.51406 0.4316 -0.28119 0.65323 -0.53246 -0.64348 -0.26783 -0.68691 0.21754
program 0.40268 0.87649 -0.34448 -0.99567 1.3172 0.04718 -0.011829 -0.39047 1.0132 0.27637 0.74279 0.2389 -2.9077 1.052 0.24266 -0.22554 0.44471 -0.32912 -0.55754 -0.44732 -0.71008 -0.73189 -1.8993 -0.53858 -0.29173
recruitment -0.606 1.0183 -0.83233 -1.6623 1.1742 -0.69379 -0.45207 -1.2147 1.7305 -0.63146 -0.041409 0.36262 -2.2349 0.28285 0.8641 -0.70221 -0.24652 0.038188 -0.15106 0.13014 -0.44947 -1.629 -1.3628 -0.45088 -0.69276
wowza -0.22217 -0.091411 0.064011 -0.67281 -0.23978 -0.51014 0.53404 -1.4558 -1.1035 -0.4875 -0.68472 0.91561 -0.071555 -0.25905 0.8513 -0.16231 0.60825 -0.088163 0.25921 0.5216 0.38292 0.074466 0.19298 0.51474 -0.11255
sponsorship -0.20339 1.2742 -1.2015 -0.65762 0.72316 -0.87174 -0.45006 -1.4814 0.22174 -0.96478 1.135 0.096499 -1.8635 0.38141 0.66283 -0.08677 0.16849 -0.90073 0.18081 -0.11188 -1.4691 -0.59896 -0.63276 -0.34644 -1.112
typesetting -0.71524 0.058082 -0.4056 0.32008 0.64807 -1.5081 -0.53312 -2.5732 1.347 0.1592 0.24871 -0.23238 0.076133 -1.0921 1.2178 0.47981 0.60987 0.53122 1.2078 0.14804 -0.5831 0.11896 0.13465 -0.28767 -0.46796
linq 0.06461 0.60922 0.0043658 -0.34998 -0.22804 0.090319 -0.35688 -0.95598 1.346 -1.6305 -0.55136 1.1481 0.072902 -0.15791 -1.1885 -0.40163 0.61024 0.7867 0.59419 0.53791 -0.14182 -0.64125 -0.011701 -0.30521 0.31552
gui 0.36419 -0.25813 0.39405 -0.29089 -0.062237 -0.98642 -0.94993 0.2115 0.9445 -1.4827 -0.82515 -1.0401 -1.374 -1.4609 -0.11101 -1.0212 -0.81143 -0.11239 -0.65713 0.12696 0.10428 0.20042 -0.26672 0.78622 -0.12684
journalism 0.7176 0.32225 -0.40191 -0.94914 1.5354 -0.89273 0.61928 -1.4484 1.2578 -0.75821 -0.98875 0.60529 -2.5519 0.33727 1.2576 -0.28711 0.044236 0.54662 0.28834 0.011149 0.087124 -0.18173 -1.5841 -0.78151 -0.28915
marketo -0.60924 0.49606 -0.59158 -0.93987 -0.35271 -1.4671 -0.69585 -1.4229 1.6417 -1.9735 -0.18493 -0.33433 -0.51556 -0.31073 0.70259 -0.062525 0.25303 1.0347 1.1912 0.93474 -0.50427 -0.064645 -0.92151 -0.35175 -0.43462
webrtc -0.23417 0.725 -0.26267 0.079852 0.1779 -0.8614 -0.95407 -1.2821 1.5008 -1.0807 0.27631 0.045125 -0.30251 -0.87583 0.52923 0.75247 0.32366 0.33867 1.532 0.16966 -1.009 -0.53897 -0.4646 -0.83317 -0.83461
silverlight 0.13213 0.40673 -0.060195 -0.26666 0.090691 -0.82488 -1.3255 -1.5615 1.4908 -0.49636 0.18951 0.24239 -0.79071 -1.0666 0.8886 0.27473 0.12076 0.76281 1.2978 0.47049 -0.33005 -0.93209 -0.1494 -0.34351 -0.54089
vector -0.11113 -0.67607 0.30553 0.019322 0.82413 -0.91489 0.078299 -0.53568 1.3717 -1.3991 0.214 0.38979 -1.5643 -0.97951 -0.1941 0.03485 0.49222 0.24172 1.0162 1.1031 -0.99771 -1.0796 -0.28131 -0.044802 -0.81363
purchasing -0.57814 1.2849 -0.46822 -0.17917 0.73338 0.10598 -0.71338 -1.859 0.38806 -0.35394 0.22234 -0.11168 -2.4299 -0.5571 0.5103 -0.13676 0.25048 -0.11927 0.49311 -0.38655 -0.72122 -1.1581 -1.036 -0.61523 -1.1884
file 1.1329 0.44574 -0.18024 -0.017698 0.81474 -0.63301 -0.40989 -0.52847 1.4119 0.65596 0.72436 0.36853 -2.6564 -0.30889 -0.082926 0.88483 0.52503 0.44804 -0.68108 -0.12975 -0.9699 -0.95761 -0.022311 0.15485 -1.0639
pet -0.75127 0.011912 -0.047391 0.4519 0.63818 -0.2124 0.72033 -0.24588 0.93771 0.6099 0.41525 -0.56885 -2.9437 -1.0633 -0.52655 0.09738 1.216 -0.46428 0.36522 0.35851 -0.16359 0.28521 -0.062377 -0.41529 0.6016
shell -0.76855 0.098644 -0.13378 0.1248 -0.25924 0.048993 -0.37733 -0.61462 1.1909 0.70357 0.80044 -0.11868 -2.7831 -0.72512 -0.30758 0.12442 0.97757 0.10149 0.92695 0.42282 -0.39343 -0.054551 0.62117 -0.14729 0.10182
property -0.99023 0.60563 -0.97374 -0.65746 0.7884 -0.34 -0.57709 -1.1496 1.1212 0.54285 0.51668 -0.70563 -3.2609 0.76602 0.40077 -0.65909 0.64794 -0.058352 0.61927 0.15989 -0.056795 -1.3188 -0.78759 -0.94494 -0.63496
ar 1.2115 -0.18391 0.27718 -0.49712 -0.69109 0.43762 -1.0223 0.35568 1.3007 0.25252 -1.516 -1.556 -2.3362 0.14485 0.24817 -0.55868 0.52647 -0.56198 -0.64605 -0.5372 -0.10232 0.2405 0.031007 0.78476 0.085688
kendo -0.69524 -0.065079 0.52273 1.1714 -0.80559 -0.67897 -0.38782 1.0105 1.1956 -1.4436 -0.22356 0.42797 -0.23483 -1.0391 1.2062 0.35994 -0.029667 0.26559 1.0446 0.87293 -0.23938 0.00025581 0.4303 -0.80659 0.58057
phpstorm -0.5882 0.44778 -0.0075306 -0.16395 -0.6269 -0.60118 -0.7081 -1.5455 0.65324 -0.82562 0.0042314 0.3534 0.60833 -0.48945 0.051153 0.31929 0.84138 0.49961 0.64273 0.28592 -1.0283 -0.70583 -0.76123 -0.27316 -0.96096
editing 0.24798 0.94978 0.88157 0.037979 1.5496 -0.18438 1.0765 -1.4165 0.5808 -0.68901 -0.55589 0.72113 -2.1387 -0.8357 0.83706 0.64619 0.15009 0.064348 -0.61554 -0.45925 -1.0324 -1.1994 -0.99327 0.31276 -0.64129
shopping -0.87153 0.0038353 0.62383 -0.94453 0.25796 0.65874 0.53978 -0.65661 0.8525 -0.13197 -0.66023 -1.8775 -3.5309 -0.61829 0.29144 -0.32751 0.085737 -1.3261 -0.73404 -0.59408 -0.77177 -1.1259 -0.65975 0.37953 0.65029
swift -0.11523 -0.32316 1.1168 0.088663 -0.34765 -0.59863 1.2808 1.0732 -0.51408 -1.1343 0.28992 0.16807 -3.0487 -0.89814 -0.58476 1.0864 -1.0494 -0.13049 0.072156 -0.060104 -0.23103 0.51232 -0.45702 -0.76145 -0.3412
proteus -0.14038 -0.040927 0.16912 -0.27423 -0.21293 -0.9556 -1.0542 -1.5081 1.0224 -0.86534 -0.02684 0.26275 0.0059897 -0.38733 0.62435 -0.40343 0.54183 0.67078 1.0539 0.50837 -0.46533 -0.018944 -0.35765 -0.45976 -0.35208
profiles 0.98027 0.14729 0.39497 -0.62108 1.1421 -0.9918 -0.07696 -1.849 -0.095268 -0.40343 -0.20768 0.53327 -1.7638 -0.54844 -0.53598 0.42085 0.23771 -0.67622 0.60134 -0.16019 0.2384 -1.2095 -1.1943 -1.0309 -1.3604
storytelling -0.011547 0.38682 -0.66097 0.1645 1.391 -0.42156 0.42562 -1.0666 1.1999 -1.2837 0.020092 0.35449 -1.7126 -0.02413 0.67214 0.84552 0.15048 0.75692 0.75765 0.22908 -0.84598 -0.90653 -1.6428 -0.45956 0.063005
profil 1.0384 -0.25061 0.3088 0.54157 0.87398 -1.33 -1.2417 0.36662 0.56126 0.51982 0.28472 -0.16321 -0.7547 -1.1814 -1.1991 0.60298 0.58613 0.25007 -2.4767 0.62487 -0.22912 -1.0001 -0.95791 -0.28613 -1.2192
style -0.33458 -1.1717 0.13989 -0.11437 0.94893 0.20965 0.93117 0.6922 0.69451 -0.32069 0.41459 0.0074463 -3.3289 -0.54683 -0.075991 0.53138 0.22005 -0.51773 -0.61649 1.1039 -0.45137 -0.089706 -0.30581 -0.28651 0.11291
mern -0.51139 0.44168 -0.26635 -0.32913 -0.24085 -1.1556 -0.80391 -0.90779 0.51347 -0.26809 -1.1889 -0.17747 0.26836 0.24885 0.65914 0.56192 1.0909 -0.025667 0.4672 0.45271 -0.30729 0.98922 -0.66025 0.68686 -0.196
type 0.44911 -0.19895 -0.47703 0.21622 0.83392 0.71772 1.0674 -0.23235 0.7977 0.16973 -0.42782 0.6522 -3.873 -0.33917 -0.17546 1.2659 0.68699 -0.3905 -0.2384 0.49339 0.43594 0.2894 0.11263 0.089456 -0.50848
vagrant -0.42191 0.28021 0.36516 0.53876 0.24005 -0.49554 -0.030557 -1.5121 1.2633 -1.0265 -0.34668 0.18291 -0.20324 -0.43219 0.056809 0.096278 1.0427 0.66684 1.1755 0.68995 -0.22817 -0.11583 0.056332 -0.48838 -0.25028
jsp 0.53421 -0.28003 -1.256 -0.22702 -0.58575 -0.55024 -0.14131 -0.84058 1.2802 -0.63091 -0.47799 -0.24643 -0.068112 -0.51228 1.2111 0.46695 -0.65394 0.33559 -0.97282 1.5876 0.13517 -0.51842 0.40657 0.47082 -0.77759
storyboard -0.077924 0.61002 0.42314 -0.11522 0.87071 -0.78081 -0.036187 -1.0328 1.0153 -1.257 -0.062673 0.25225 -0.25071 -0.31829 0.44849 0.80528 0.7267 0.21488 0.69315 0.4205 -0.83537 -0.073136 -0.66958 -0.2101 -0.47321
big -0.18469 0.39978 -0.042707 -0.05565 0.44953 0.46044 1.3342 0.27087 -0.20495 -0.52676 -0.19003 -0.13644 -4.5969 -0.37411 -0.086688 -0.64449 0.28982 -0.9522 -0.61824 0.33503 -0.45159 0.49904 0.54592 -0.31448 -0.12302
test 1.1768 0.82329 -0.19366 -0.25328 0.99367 -0.1751 0.95619 -0.14049 0.90307 0.77942 0.052748 0.015829 -3.0639 0.79883 0.97166 0.1536 0.54858 -0.062755 -1.1394 -0.53928 -0.49389 -0.17549 -0.41542 0.62815 -0.33548
stylus 0.31318 -0.65366 -0.47013 -0.72276 0.10077 -0.12454 -0.7413 -0.09072 1.5803 -0.62304 0.44331 0.70659 -1.422 -1.2518 0.043678 0.38878 0.84384 0.26701 1.0713 1.4344 -1.733 -0.6494 1.4375 0.15507 -1.2423
empathy -0.15931 -0.060839 -1.4377 1.2838 0.37748 0.021441 0.49639 -1.4456 0.54828 -0.53326 -0.59163 0.44825 -1.856 0.20179 0.20736 0.1968 -0.68046 0.89324 1.9475 -0.2658 -0.4254 0.36783 -1.0978 0.26662 -0.59817
sprout -0.72698 0.55702 0.020197 0.42529 -0.47795 -0.28389 0.34942 -2.0092 1.1019 -0.71897 0.22949 0.059865 -1.0509 -0.79991 0.05871 0.16021 0.50855 0.57061 1.1514 0.10655 -0.81047 0.30599 -0.12083 0.017736 1.0882
traffic -0.040713 0.56717 -0.061963 -0.77024 0.26681 0.42271 0.76695 -0.57532 1.219 1.0174 -0.51001 0.34896 -3.0913 1.0626 1.7798 0.19328 0.41613 0.21187 0.32723 -0.34103 -0.19022 -1.6028 1.2576 -0.6994 -0.60944
emr -0.53607 0.5466 -1.5591 -0.63005 0.6004 -0.96367 -0.80769 -1.3859 1.0823 0.002418 -0.49814 0.29466 -0.49235 -0.023481 0.31148 -0.62899 0.081851 0.4904 0.85016 0.80884 0.20714 -0.35748 -0.18562 -0.47095 -0.2288
apollo -0.9483 0.53338 0.70171 0.058878 -0.6114 -0.38304 0.018985 0.091832 0.82902 -0.51839 0.25266 -0.037342 -1.8489 0.074943 0.77636 0.0055642 0.46712 0.56945 0.74429 0.42858 -0.39262 -0.36365 -0.11118 -0.93208 0.39641
latex -1.0085 -0.35639 -0.34003 -0.31915 1.3726 0.074627 -0.24251 -1.2106 0.33811 0.22765 0.43461 -0.48665 -1.6948 -0.97955 -0.65565 0.87135 0.60071 -0.50126 1.0445 1.3577 -0.71501 0.46842 0.63404 -0.20643 0.11334
leadership -0.037378 0.43556 -1.7064 -0.44372 1.2476 -0.6507 0.43085 -0.78475 1.2703 -1.3435 -0.57962 0.44004 -3.4728 0.91314 0.39958 -0.26535 -0.85791 0.61547 0.57449 0.061242 -0.19569 0.011561 -1.8368 -0.50704 -0.75541
reputation -0.62527 0.59269 -1.2706 0.5194 1.1147 0.13423 -0.16987 -1.246 0.43741 -0.65168 -0.64195 0.59459 -2.871 0.78128 0.36965 0.32016 -0.13093 0.62433 1.207 -0.30539 0.24789 -0.30053 -0.55682 -0.069881 -0.90138
copy 0.79092 0.5754 0.50346 -0.026499 0.43664 -0.5694 0.87423 0.14414 0.63541 0.038522 0.011091 0.5826 -2.8444 -0.69866 -0.22674 0.54519 1.1391 -0.44674 -0.16896 -0.40474 -1.1052 -0.77084 -0.46421 0.38322 -1.1932
creo 0.55079 0.17757 -0.024411 -0.24515 -0.099969 0.096532 -0.015528 3.0214 -1.2744 -0.96641 0.77726 -2.7123 -1.5273 0.12238 1.4732 0.67959 0.40468 1.045 0.56996 0.049752 0.82861 -0.13799 0.78194 1.4626 0.34564
bitbucket -0.43456 0.47534 -0.27233 0.44401 -0.37096 -0.93386 -1.2119 -2.0738 0.99651 -0.47929 -0.3328 -0.035792 0.21986 -0.76819 0.11541 -0.2358 1.4476 0.3108 0.80853 0.77421 0.25114 -0.48851 -0.31223 -0.19903 -0.92473
podcast 0.18036 0.59636 0.40249 -0.63581 1.0287 -0.79634 0.64627 -0.066006 0.36601 -1.8088 -0.084253 0.43751 -2.3658 -0.097993 0.78224 0.49805 0.13168 0.33413 -0.47096 0.021746 -0.64411 -1.434 -0.36734 -0.43038 0.64711
ibeacon -0.36431 0.55471 0.13095 -0.19396 0.39231 -0.77096 -0.7897 -2.3747 1.1021 -0.87216 1.5041 0.1889 -0.46257 -0.32733 0.42735 0.25502 1.2494 0.9762 1.4773 0.16229 -0.41805 -0.90239 -0.095088 -0.81915 -0.26525
revit -0.28847 -0.33359 -1.4307 0.24377 -0.065011 -0.999 -0.99561 -1.1446 2.0456 -0.46868 -0.31609 -0.37106 -0.3709 -0.73434 1.0515 0.010667 0.57471 0.79649 0.68595 1.7257 -0.098926 -0.42419 -0.72293 -0.79359 -0.75159
raspberry -0.64428 -0.00012036 -1.0729 1.0338 0.59417 0.84288 0.5135 -1.3527 0.81331 -1.3198 1.1955 0.22101 -2.1832 -1.2232 0.58727 -0.84218 1.251 0.24081 0.91764 1.0232 -1.5424 -0.046473 -0.3029 1.2238 0.66071
access 0.51272 1.2134 -0.76827 -0.31333 0.95446 -1.0834 0.27197 -0.87733 0.78953 0.24077 0.37204 -0.030538 -3.4648 0.23701 0.084997 0.24646 0.41349 0.32804 0.75238 -0.60669 -0.9407 -1.728 0.070579 -0.45043 -0.8102
ssas 0.58202 0.20056 -0.19194 -0.52073 0.46956 -0.42188 -0.475 -1.731 1.8402 -0.30576 -0.58894 -0.37163 0.45504 -0.73237 0.72961 -0.99088 0.69896 1.0424 0.96074 1.1194 0.54888 -0.54912 -0.15051 0.12001 -0.50064
physics 1.4935 0.44228 0.48654 -0.44536 0.50994 -0.46115 1.6229 -1.3646 1.206 0.22601 -1.2854 0.019358 -2.4566 0.094007 1.8988 -0.22355 0.78471 0.58585 0.13607 -0.22157 -0.71725 0.18248 -0.57719 0.70767 -0.39477
album 0.35841 0.04815 1.0309 -0.10353 0.33237 -0.50212 1.4109 0.99079 0.17211 -1.2666 0.65042 0.91552 -3.3905 0.092629 -0.66795 0.96212 -0.24489 0.13566 -1.1345 0.33219 -1.5983 -0.37838 -0.24239 -0.34548 0.26389
bem 1.1479 -1.9956 0.54951 -0.60693 0.587 0.72232 -0.38477 0.55084 0.90179 -1.3765 -1.1786 -2.8851 -0.89287 -1.1969 -0.10507 -1.0567 -1.5333 -0.38865 -1.8369 -1.5849 -0.38393 0.72199 -0.6649 1.4164 0.23861
stripe -1.2882 -1.0612 0.015338 -0.63049 0.45454 0.10798 -0.35356 -0.96176 0.99189 -0.56023 1.3545 0.058404 -1.9616 -0.52913 -0.94492 -0.079883 0.66776 -0.60717 0.40109 1.3312 -1.1785 0.72417 0.88597 -0.27159 -0.56368
layout 0.31879 -0.44993 0.55021 -0.78177 1.4856 -0.61766 0.57021 -1.1021 1.0593 -0.72917 -0.24723 0.064942 -1.8879 -1.058 0.28841 0.83123 0.25533 -0.1654 -0.11444 -0.1784 -0.89682 -1.0204 -0.24001 0.46221 -0.81235
puma -0.57983 -0.40624 -0.043367 -0.79646 0.22513 0.41933 -0.99138 0.4187 0.13305 -0.90481 1.0146 -0.29761 -1.7268 -0.67136 -0.15862 -0.3834 0.040172 -0.45838 0.75631 1.4965 -0.64827 -0.0029071 0.59646 -0.77785 -0.59098
xd 0.485 -0.60605 0.35005 -0.44763 -0.22235 -0.16342 0.53534 2.5761 -0.91506 0.78163 -0.43443 -0.95825 -2.5343 -0.77284 1.2171 0.58598 0.72399 -0.09656 -0.98709 0.36302 0.4154 -0.13275 -0.27603 2.0072 0.18669
notes 1.08 0.22412 0.26911 0.41278 0.57852 -0.17981 0.97079 -0.76343 0.32551 -0.26606 -0.016975 0.1009 -2.6899 0.2689 0.62824 0.6194 0.19724 -0.34992 -0.70688 0.28888 -0.62191 -0.59305 -0.32646 0.27098 -0.6924
identity 0.3871 -0.13637 -0.68077 0.40157 1.0468 -0.98836 0.65431 -1.0849 0.70893 -0.045946 0.069203 0.63879 -2.6594 -0.064366 0.24486 0.5725 0.23148 0.78473 1.066 0.065265 -0.074736 -0.25672 -0.36307 -0.91289 -0.55392
zillow -1.0007 0.093596 -0.44961 -0.86861 0.60159 -1.2634 -1.0415 -1.5401 1.0731 -1.2375 0.48387 -0.47953 -0.61103 -0.91657 0.22671 -0.8839 0.52879 0.30634 0.29034 -0.24221 0.38539 -0.99948 0.29219 -1.0281 -1.4093
box -0.033765 -0.14936 0.98664 -0.054995 0.61311 0.2244 0.85409 -0.34288 0.86147 -0.13989 1.1262 -0.0046733 -3.4966 -0.43862 -0.30749 -0.014568 0.63147 -0.46694 -0.15787 0.61144 -1.1421 -0.62182 0.8193 0.44871 0.25728
play 0.63488 0.6407 0.39779 -0.50629 -0.49255 0.69069 0.95747 0.58247 0.10163 -1.0131 -0.11261 -0.0042192 -4.5831 -0.3269 0.73938 0.45074 -0.048535 -0.87924 0.02908 -0.26528 -0.61405 0.13555 1.1401 -0.49686 0.19474
reviews 0.047637 -0.25462 -0.067313 -0.51012 1.2843 -0.31507 0.43342 -1.1916 0.792 -1.0136 0.86484 0.5819 -2.8772 -0.54512 0.1999 -0.40234 0.50276 -0.079775 0.35833 0.27285 -0.5876 -1.4835 -0.17406 0.16775 -0.35961
natural -0.88899 -1.2004 -1.1436 0.50388 1.5507 1.1891 0.64139 0.18444 0.46795 -0.033912 0.37329 -1.2016 -3.2996 -0.30573 -0.035589 -0.24363 0.095994 0.49174 1.3753 0.12351 -0.6902 0.6047 -0.22803 0.33631 0.025065
listing -1.1111 0.98197 0.037785 -0.88295 1.159 -0.51048 -0.010419 -1.408 0.4414 -0.52084 0.13582 0.23195 -2.3784 -0.12766 0.068483 -0.40129 0.61015 0.074348 -0.23294 0.19533 -0.28445 -1.975 -0.61133 -0.6152 -0.8275
mikrotik -0.47969 0.46612 0.41722 -0.17822 0.66589 -0.62737 -0.88998 -1.3504 1.0322 -0.19208 0.35582 -0.25811 0.7722 -0.82302 0.44358 0.42992 0.56123 -0.082882 1.1999 0.4759 -0.82473 0.078254 -0.20614 -0.29021 -0.74553
kindle 0.28836 -0.29219 0.20709 -0.38671 1.1012 -1.2828 0.63996 -0.10938 0.29163 -1.0817 0.80186 0.85428 -2.8008 -0.86569 -0.61824 -0.10651 0.67252 1.1125 0.75781 0.54635 -1.5 -1.9266 -0.32268 0.13653 0.3552
pay 0.2392 1.6817 -0.95584 0.0093202 0.26097 -0.37612 0.013046 -0.82752 0.17045 0.38021 0.23736 -0.42194 -4.3705 0.18748 0.13806 -0.5805 0.73688 -0.90169 -0.19979 -1.0361 0.096615 0.17453 0.11168 0.27275 -0.56395
affiliate 0.93607 1.6637 -1.1828 -0.6885 1.5728 -0.26614 -0.25567 -1.4914 1.5129 -1.159 0.067129 0.36091 -2.0631 -0.46038 0.15134 -0.28974 0.12424 0.059468 0.80596 0.39725 -0.4783 -1.8437 -0.80253 -0.61294 0.076838
nginx -0.50266 0.064629 -0.20294 0.33231 0.05388 -0.54521 -0.60978 -1.3802 1.5938 -0.4399 0.36231 0.088967 -0.1316 -0.92155 0.028821 -0.13877 0.55707 0.47584 1.2894 0.55147 -0.65354 -0.62375 0.32328 -0.49298 -0.63759
autodesk -0.34068 0.5721 -0.35868 -0.1408 -0.37778 -1.0935 -0.68482 -0.80458 1.9371 -0.88975 -0.33592 -0.11494 -0.90602 -1.3373 0.4648 -0.81507 1.1319 1.0237 0.80744 1.6437 -0.79774 -0.61733 -0.47185 -0.63799 -0.28205
netsuite -1.0416 0.42922 -0.62196 -0.5188 -0.53997 -1.0652 -1.0923 -1.2209 1.3701 -1.2423 -0.22384 0.14676 0.14744 -0.64667 1.0617 -0.42086 0.42265 0.41087 1.3396 0.27262 -0.2399 -0.16565 -0.77755 -0.66711 -0.87209
digital 0.22857 -0.34372 -0.27092 -0.90405 1.7586 -0.28131 -0.11634 0.53131 1.696 -0.65166 0.3476 -0.56145 -3.4843 -0.12009 -0.0011937 0.30427 -0.011266 1.121 1.0345 0.67259 -1.4959 -1.4196 -0.29815 -0.50863 -0.61924
cold -1.2034 -0.37976 0.10127 -0.1335 -0.15223 1.8406 1.802 -1.0476 -0.25802 0.67949 -0.66215 0.45679 -3.9212 0.18932 0.51705 -0.44344 0.80477 -0.20109 0.044816 -0.12235 -0.17521 0.69811 1.4452 0.55256 0.84004
media 0.85783 0.3401 -0.29508 -0.87335 0.91494 0.42477 -0.02236 0.86821 0.4935 -0.083462 0.55476 -1.2756 -3.6082 0.20236 0.76068 0.67758 0.15436 0.76924 0.30804 -0.43321 -0.068844 -1.1287 -0.81264 -0.61444 -0.69361
jade -0.89214 -0.83599 0.75402 0.046404 -0.97638 -0.7139 -0.13858 -0.073628 -0.1485 -1.1982 -0.40494 -0.52595 -2.82 -1.354 -0.45627 0.013669 -0.25607 -0.099199 -0.50507 1.0269 0.20859 0.2852 -0.39628 0.1321 -0.31478
airbnb -0.44218 0.49657 0.16234 -0.18348 -0.0040502 -0.81235 -0.54257 -1.585 0.78707 -0.66015 0.36917 0.091824 -0.88522 -0.3758 0.54103 0.11675 0.51428 0.54949 0.892 0.25027 -0.082972 -0.86059 -0.73674 -1.1265 -0.37784
basecamp -0.82922 1.5482 0.52568 -0.13347 -0.2078 -0.80071 0.049211 -0.26814 1.7308 0.35997 -0.3052 -0.061948 -0.26676 -0.28878 0.50117 0.019887 0.14695 -0.19027 0.058166 0.62752 -1.0878 -0.3739 -0.76268 0.037998 -0.4588
elearning 0.56379 1.1385 -1.0205 -1.0418 1.0883 -0.87753 0.18176 -1.0423 1.4744 -0.70934 -1.2689 -0.34995 -1.0165 -0.36376 0.57809 0.39974 0.00090284 0.47305 1.0082 0.97304 -0.80895 -1.3191 -1.2574 -0.25341 0.63544
per -0.53028 0.78505 -0.27571 -0.30433 0.21584 -1.0556 -1.4259 0.43374 0.053249 0.84139 0.72601 -2.187 -2.8404 0.96447 -0.62352 1.3878 -0.9032 0.88589 -2.1908 -0.80537 -0.90784 -0.26988 -0.084029 -0.41868 -0.6006
handling -0.34615 1.002 -0.58596 0.60328 0.93955 0.18891 -0.57087 -1.7163 0.41062 0.16875 -0.2409 0.58713 -2.545 0.30706 0.90966 0.074564 0.27506 0.13399 0.51274 -0.69354 0.11613 0.24697 -0.38143 -0.58248 -0.81757
appointment -1.4346 1.0691 0.47676 -0.87374 0.93161 -1.0716 0.42685 -1.3832 0.67668 -0.35075 0.15564 0.52825 -2.467 0.24987 1.8333 -0.64934 1.0075 -0.55818 -1.1402 -1.5921 -0.34189 0.10233 -0.082855 0.75861 -0.94874
wpf -0.16398 0.32281 -0.77323 -1.2166 0.075415 -0.44187 -1.2217 -1.3546 1.4612 -0.097664 -0.67781 0.27975 -0.16914 -0.72248 0.57776 -0.30926 -0.67891 0.79468 0.89958 0.90454 -0.53918 -0.56706 -0.48707 -0.31432 -0.534
integration 0.25949 0.34639 -0.91777 -0.62993 1.4089 -0.69341 -0.44633 -1.3707 1.5376 -0.28226 0.12733 0.37037 -2.0993 -0.46795 0.63789 0.50542 -0.12434 0.86211 0.60116 -0.44088 -0.73431 -1.5576 -0.73086 -0.06949 -0.64017
ssis -0.32731 0.43292 -0.74839 -0.926 0.75611 -0.92383 -1.0112 -1.5636 1.9968 0.1999 0.013198 -0.22804 0.17229 -1.3384 1.1549 -1.201 1.4033 0.99086 1.0753 1.006 0.47363 -0.69756 0.012452 0.31774 -0.15617
