{"fcn1.weight": [[-0.00950496457517147, 0.012980221770703793, 0.030566057190299034, 0.03361428901553154, 0.010201841592788696, 0.012138270772993565, 0.019205637276172638, -0.0062289307825267315, 0.03708094730973244, -0.02347622998058796, 0.07184097170829773, 0.023837868124246597, 0.017946308478713036, -0.010204103775322437, -0.044340383261442184, -0.04035386070609093, 0.05825287476181984, -0.03422880917787552, -0.0031289360485970974, 0.04756762459874153, 0.015947800129652023, -0.04092133417725563, -0.015092140063643456, 0.040057871490716934, -0.031753700226545334, 0.058490607887506485, -0.027409452944993973, 0.007000939920544624, 0.11418069154024124, -0.03977394849061966, 0.03554349020123482, -0.00021022732835263014, -0.06317758560180664, 0.023386148735880852, 0.00583060085773468, -0.07910488545894623, 0.013507072813808918, 0.14133788645267487, -0.020064812153577805, -0.03545109182596207, -0.03137741982936859, 0.06842353194952011, -0.02849450521171093, 0.07750241458415985, 0.020418131723999977, -0.0035652401857078075, -0.02679862640798092, -0.007622215431183577, 0.042025212198495865, -0.04668746143579483, -0.06289661675691605, -0.10580646246671677, -0.011008811183273792, 0.008982174098491669, -0.002851495984941721, 0.04411894455552101, -0.048776958137750626, -0.07854817807674408, 0.07008079439401627, -0.011342762038111687, 0.05014820769429207, 0.04843014478683472, 0.00375626003369689, -0.05113210529088974, -0.07959587126970291, 0.059175193309783936, 0.05285901576280594, -0.01435763482004404, 0.04587174579501152, 0.1298823356628418, 0.0001462682557757944, -0.09594924002885818, -0.04978470504283905, -0.011084780097007751, -0.02525991201400757], [0.021389160305261612, -0.0118908965960145, 0.005126827862113714, -0.009549292735755444, 0.01288470346480608, -0.007425477262586355, 0.01185896061360836, -0.002639573300257325, -0.025030897930264473, -0.002915254095569253, 0.019185183569788933, -0.04889822378754616, -0.07352204620838165, -0.01895856112241745, -0.011302361264824867, -0.018373779952526093, 0.00020926870638504624, -0.006311120931059122, -0.03933285176753998, -0.009443887509405613, -0.0057340264320373535, -0.043137434870004654, -0.030180111527442932, 0.006260947324335575, -0.0204632431268692, 0.038016293197870255, 0.015534712933003902, 0.004665860440582037, 0.01391973253339529, 0.019121315330266953, 0.03330891206860542, 0.05348898842930794, 0.0603763572871685, 0.015523814596235752, 0.01943953149020672, 0.018955182284116745, 0.0017724497010931373, -0.06482481211423874, 0.017235487699508667, -0.006549171172082424, 0.0011570588685572147, 0.008468777872622013, 0.017652999609708786, -2.2273950889939442e-05, -0.014143181964755058, 0.02249915525317192, -0.01751733012497425, -0.013934395276010036, 0.016433382406830788, 0.02258172631263733, 0.010906634852290154, -0.010249311104416847, 0.02283610962331295, 0.006242946721613407, 0.005041312891989946, 0.02520572394132614, 0.03709385544061661, 0.000896172714419663, 0.017663223668932915, -0.017851196229457855, 0.030312921851873398, 0.02061653882265091, -0.09536927193403244, 0.0009180798078887165, 0.004001423250883818, 0.02047458291053772, -0.019518783316016197, 0.0011964843142777681, -0.017983369529247284, 0.025909865275025368, 0.029343582689762115, -0.0386003740131855, -0.025956010445952415, 0.010898716747760773, 0.012731699272990227], [0.07719739526510239, -0.07899655401706696, -0.001321757910773158, 0.03568879887461662, -0.01948302425444126, 0.01701490581035614, -0.014784587547183037, 0.07675903290510178, -0.036553580313920975, -0.06294325739145279, 0.012242958880960941, 0.032620642334222794, 0.04806050285696983, 0.008831311948597431, -0.10638368874788284, -0.014256284572184086, 0.05058475583791733, -0.03609656170010567, -0.00639215437695384, -0.00885312631726265, 0.0975031703710556, -0.09176862239837646, -0.06505284458398819, -0.07581660896539688, 0.0019936799071729183, 0.022396145388484, 0.08340051025152206, -0.021408583968877792, -0.06673052906990051, -0.0068594180047512054, 0.01001104898750782, -0.028385212644934654, 0.033994369208812714, -0.08012241125106812, -0.09062393754720688, 0.046039387583732605, -0.04056670144200325, 0.041290417313575745, -0.0076652816496789455, -0.03201797977089882, 0.017512552440166473, -0.06300779432058334, -0.042589593678712845, -0.051389243453741074, -0.058526135981082916, 0.0731203630566597, -0.026319686323404312, -0.008755732327699661, 0.09026235342025757, 0.009871665388345718, -0.027358757331967354, -0.03080735355615616, -0.0721973106265068, -0.04197316989302635, 0.057927437126636505, 0.024963660165667534, -0.06880652159452438, -0.022888990119099617, 0.035342659801244736, -0.05637218430638313, 0.12174084782600403, -0.02379552274942398, -0.056837256997823715, -0.02693748287856579, 0.0035770833492279053, 0.01577860862016678, -0.07452938705682755, -0.015375515446066856, 0.08698069304227829, 0.009903647936880589, 0.0814451277256012, -0.12991373240947723, -0.053659383207559586, -0.07659612596035004, 0.04183549806475639], [0.12835119664669037, 0.05706620216369629, 0.09429220855236053, 0.09559419006109238, -0.06490638107061386, -0.07912794500589371, 0.05010005086660385, 0.012729435227811337, -0.039254240691661835, 0.027361635118722916, -0.04313706234097481, -0.005732013378292322, 0.04357181116938591, -0.037634193897247314, 0.03624073788523674, -0.07293705642223358, 0.014637245796620846, 0.013746416196227074, -0.023608913645148277, -0.08001590520143509, 0.06797216832637787, -0.017131099477410316, -0.027322998270392418, -0.14174872636795044, -0.11437524110078812, -0.02209617756307125, -0.06960012763738632, -0.055693771690130234, 0.06642370671033859, -0.05382784456014633, 0.03352610766887665, 0.014758321456611156, -0.045359544456005096, -0.02655780501663685, 0.0322924479842186, 0.06093549355864525, 0.028301911428570747, -0.0851612314581871, 0.020937664434313774, -0.060865502804517746, 0.0021083166357129812, 0.005681753158569336, 0.0472998209297657, 0.03721237927675247, -0.011915947310626507, 0.036555808037519455, 0.08436466008424759, -0.010931809432804585, 0.008157175965607166, -0.009880702011287212, 0.125292107462883, -0.026687193661928177, -0.012973356060683727, -0.002365096239373088, -0.02833697944879532, 0.0338725708425045, -0.027074294164776802, 0.006569141522049904, -0.019070476293563843, 0.04029469192028046, -0.015486231073737144, 0.030417243018746376, -0.01663270965218544, 0.07846097648143768, -0.03525592014193535, 0.0072906604036688805, 0.02026885561645031, 0.09519440680742264, 0.016699064522981644, -0.05043713375926018, 0.005918037611991167, -0.03338666632771492, -0.014466669410467148, 0.008537066169083118, -0.02916722558438778], [0.002329506678506732, 0.003648634534329176, 0.031738605350255966, -0.020361967384815216, 0.03508073836565018, 0.08389565348625183, -0.0027596212457865477, -0.02895413339138031, 0.05417439714074135, -0.03554283827543259, -0.03274188190698624, 0.05174914002418518, -0.05323496088385582, 0.07814347743988037, 0.06318140029907227, 0.05477731302380562, -0.07628647983074188, 0.09720711410045624, 0.04194151237607002, -0.025843245908617973, 0.054177261888980865, 0.05452394858002663, -0.05213405191898346, 0.0860433503985405, 0.0454401858150959, 0.021263035014271736, -0.036363571882247925, -0.036514680832624435, 0.0004056158068124205, 0.06632846593856812, 0.018283935263752937, -0.033649951219558716, -0.07655161619186401, -0.03375391289591789, -0.08454612642526627, -0.003443085355684161, 0.012452193535864353, 0.023874450474977493, -0.04864856228232384, -0.006285580340772867, 0.06991524994373322, -0.002006885362789035, 0.035192690789699554, -0.007443524431437254, -0.0014319159090518951, -0.032249245792627335, 0.03595121577382088, -0.046485234051942825, -0.05560159310698509, -0.009459677152335644, 0.035747405141592026, 0.0029382698703557253, -0.017143528908491135, 0.026371391490101814, 0.04356932267546654, 0.033495236188173294, -0.002889190800487995, -0.017142517492175102, 0.026905087754130363, -0.03683745488524437, -0.03743116557598114, -0.003022241173312068, -0.0369921438395977, 0.02480003982782364, 0.023338526487350464, 0.04696153476834297, -0.02737494930624962, 0.029359813779592514, 0.008495011366903782, -0.023370640352368355, 0.03651813045144081, -0.0038201070856302977, -0.07968156784772873, 0.015258685685694218, 0.022934284061193466], [0.012891404330730438, -0.03575599938631058, 0.01918763853609562, 0.021670401096343994, 0.015525187365710735, 0.03469588980078697, 0.007513230666518211, -0.041497815400362015, 0.02162192203104496, -0.004184326156973839, 0.0812315046787262, 0.005430662538856268, 0.030604317784309387, -0.003081242786720395, -0.02555660903453827, 0.030358843505382538, -0.08213618397712708, -0.038847193121910095, -0.0766872838139534, -0.010498098097741604, -0.05091141536831856, 0.05152896046638489, 0.046175144612789154, 0.036614540964365005, 0.05766447260975838, -0.039765864610672, 0.025602031499147415, -0.005363638047128916, 0.04541466757655144, -0.05307529866695404, 0.013857990503311157, 0.04026880860328674, -0.052941739559173584, 0.0065343668684363365, -0.028892209753394127, 0.12797915935516357, -0.04095473885536194, -0.07797668874263763, -0.09899920970201492, -0.037537381052970886, 0.027652762830257416, 0.00736175337806344, -0.042309049516916275, 0.012377259321510792, 0.08513554185628891, 0.014371616765856743, 0.019162017852067947, -0.0576527863740921, 0.028238486498594284, 0.05399569496512413, -0.05699460953474045, 0.030320947989821434, -0.05191846936941147, 0.05690527334809303, -0.012186208739876747, 0.034520793706178665, 0.014790000393986702, -0.05408236011862755, -0.011436707340180874, -0.00021697381453122944, 0.07221817970275879, 0.009308367036283016, -0.046716105192899704, -0.019091878086328506, -0.03146887198090553, 0.04820355027914047, -0.025741256773471832, -0.03426789864897728, -0.01841314695775509, 0.007532716728746891, -0.05285312980413437, 0.026775894686579704, -0.035836417227983475, 0.0010083867236971855, 0.018245819956064224], [-0.0009715617634356022, 0.021433928981423378, 0.006284567527472973, -0.02988125942647457, -0.01299330871552229, -0.004618799313902855, -0.008250714279711246, -0.005707116797566414, -0.03138526529073715, -0.026272399351000786, 0.0011262361658737063, -0.016163716092705727, 0.0309568140655756, 0.008573557250201702, -0.003358241403475404, -0.02442418411374092, -0.026479823514819145, 0.004509375896304846, -0.02510366030037403, -0.021705981343984604, 0.00035033223684877157, 0.007513022515922785, -0.005491411313414574, -0.0006939218728803098, -0.02636287920176983, 0.005878529977053404, 0.023893257603049278, 0.011855905875563622, -0.01906050182878971, 0.004062104970216751, 0.0014217275893315673, 0.009677927941083908, 0.022745802998542786, 0.0018004871672019362, 0.01296155620366335, 0.007781119551509619, -0.0018335230415686965, 0.0020418064668774605, 0.026778560131788254, 0.023280801251530647, 0.018323086202144623, 0.004924398381263018, -0.003357968060299754, -0.011758850887417793, -0.016106028109788895, -0.009249676950275898, 0.005553143564611673, -0.0005692931590601802, 0.005771600175648928, 0.0037195628974586725, -0.0054709468968212605, 0.020279960706830025, 0.01220989041030407, -0.022965867072343826, -0.003759280312806368, 0.002255016937851906, 0.0011880212696269155, -0.012293625622987747, -0.0018143131164833903, -0.023131897673010826, 0.003991519100964069, 0.009484212845563889, -0.007890358567237854, 0.024344587698578835, 0.022726677358150482, 0.011728635989129543, -0.023003557696938515, -0.004173166584223509, -0.02329338528215885, 1.5333806004491635e-05, 0.010881668888032436, -0.006691358983516693, -0.006081898231059313, 0.00405065668746829, -0.0022085378877818584], [0.0024675442837178707, 0.0016129895811900496, 0.0017964299768209457, -0.01572858914732933, 0.01880258321762085, -0.027511736378073692, -0.00481648463755846, -0.029655776917934418, -0.005183981265872717, -0.009546020068228245, 0.006006872281432152, -0.025961123406887054, -0.038292575627565384, -0.020877208560705185, 0.0007340666488744318, -0.008956811390817165, 0.012210632674396038, -0.0016945239622145891, -0.014032895676791668, 0.000923897314351052, -0.018133288249373436, -0.026102202013134956, -0.021108651533722878, -0.0057530477643013, -0.024948693811893463, 0.014449513517320156, 0.02050301805138588, 0.0021614341530948877, 0.0002258999738842249, 0.022150779142975807, 0.003767463844269514, 0.02729026786983013, 0.015171780250966549, 0.024824416264891624, 0.007552966475486755, 0.004849116317927837, 0.009470582939684391, -0.03342701122164726, 0.0050774975679814816, 0.004614341072738171, 0.007918999530375004, 0.018642781302332878, 0.020751969888806343, 0.014320863410830498, -0.0007646047160960734, 0.005286090075969696, -0.007348598446696997, -0.008415253832936287, 0.0015190448611974716, 0.007292258087545633, -0.005446015857160091, 0.00220112013630569, 0.015155932866036892, -0.004754743538796902, 0.012163101695477962, -0.0028733762446790934, 0.014392484910786152, -0.027522122487425804, 0.026029512286186218, -0.020046090707182884, 0.013691318221390247, 0.024011321365833282, -0.05500556528568268, -0.006430565845221281, 0.012175535783171654, 0.020853089168667793, -0.0021939354483038187, 0.0060760099440813065, 0.0011470558820292354, 0.027660848572850227, 0.009092602878808975, -0.02260005660355091, -0.017501547932624817, -0.0024894375819712877, -0.00019738503033295274], [0.04890875518321991, 0.043371256440877914, 0.05664884299039841, -0.08160391449928284, -0.011013268493115902, 0.01480573695152998, -0.04266522079706192, 0.007661364506930113, 0.011653682217001915, -0.0012363007990643382, -0.06814644485712051, -0.06418290734291077, 0.10627911984920502, 0.02664312906563282, -0.06218961626291275, -0.03823672980070114, -0.009452436119318008, -0.06625785678625107, -0.07444015890359879, 0.0934588760137558, 0.051480215042829514, -0.0627904161810875, -0.0032953480258584023, -0.0008477466180920601, 0.0031334313098341227, 0.033486511558294296, -0.047079458832740784, -0.025735091418027878, -0.03295845165848732, -0.0008140943828038871, 0.05802923068404198, -0.05758902058005333, 0.10565095394849777, 0.07119373977184296, 0.027083227410912514, -0.003009857377037406, -0.0049333530478179455, 0.0005541758146136999, -0.04485705494880676, -0.04116207733750343, -0.017360877245664597, -0.03631537780165672, 0.05005701631307602, 0.030119720846414566, -0.02664697915315628, -0.005716183688491583, 0.019063973799347878, 0.050992149859666824, 0.004194045439362526, 0.013602378778159618, 0.009375589899718761, -0.021434679627418518, 0.0052090720273554325, -0.014382131397724152, 0.025617320090532303, -0.022852681577205658, -0.02975642867386341, -0.03599309176206589, 0.07105447351932526, 0.054541658610105515, 0.04237600043416023, 0.04314728081226349, 0.038767047226428986, -0.002541943686082959, -0.07324309647083282, 0.04202625900506973, -0.00535780331119895, 0.031686581671237946, 0.04271383583545685, 0.0406770259141922, 0.04039683938026428, -0.02805968187749386, 0.0633838027715683, -0.04400109872221947, -0.008165677078068256], [-9.49524746829411e-06, -8.95597713679308e-06, -1.2841496754845139e-05, -1.0941404070763383e-05, -4.661308412323706e-05, 1.477704518038081e-05, 1.461386273149401e-05, 5.835053525515832e-05, 4.896374593954533e-05, -1.2190592315164395e-05, 3.724822454387322e-05, -3.254125113016926e-05, 3.497098441584967e-05, 3.958259185310453e-05, 5.044787758379243e-05, -5.428426084108651e-05, -3.3494026865810156e-05, 9.204415255226195e-05, -4.287976480554789e-05, -3.306617873022333e-05, 4.411724603414768e-06, 1.0698328878788743e-05, 6.236721674213186e-05, 3.201983417966403e-05, -5.731968485633843e-06, 9.9908420452266e-06, 6.148210104583995e-06, -2.1629210095852613e-05, 2.813767787301913e-05, -2.8997735626035137e-06, -5.441778284875909e-06, -2.5653336706454866e-05, -7.755061233183369e-06, -4.45470905106049e-05, -2.353107811359223e-05, 6.207320257090032e-05, -2.5711795387906022e-05, 2.4348386432393454e-05, 8.532070205546916e-05, 8.774041634751484e-05, 2.9572760467999615e-05, 4.658698890125379e-05, 2.957646756840404e-05, 4.966984852217138e-05, 3.553447822923772e-05, -5.6269742344738916e-05, -1.1843299944302998e-05, -9.870350368146319e-06, -7.030456345091807e-06, 4.742695819004439e-05, 2.9256498237373307e-06, 2.049601789622102e-05, -2.0565397790051065e-05, 6.971859875193331e-06, -3.0322466045618057e-05, -6.744294296368025e-06, -2.2544440071214922e-05, 1.25208071040106e-05, 6.534313797601499e-06, -2.5603130779927596e-05, 4.02553632739e-05, 5.090020295028808e-06, 2.5290721168858e-05, 1.4958706742618233e-05, 5.971503196633421e-05, -4.1826264350675046e-05, 1.2805385267711245e-05, 4.6502260374836624e-05, 4.973061368218623e-05, -1.5902372979326174e-05, -2.8241880499990657e-05, -1.6189802408916876e-05, 7.767841452732682e-06, -6.678091267531272e-06, 3.0429504477069713e-05], [-0.044901710003614426, 0.0805736854672432, -0.029278989881277084, 0.028729431331157684, -0.011563955806195736, -0.09267137944698334, -0.03379828482866287, 0.013749723322689533, -0.05772487074136734, 0.015344854444265366, 0.04949609190225601, -0.0814240574836731, -0.10794457793235779, 0.04480961710214615, 0.0647810623049736, -0.01690772920846939, -0.046683114022016525, 0.02776963636279106, -0.0842398852109909, 0.002659131772816181, 0.021505726501345634, 0.09330157935619354, 0.05558143928647041, -0.020435765385627747, 0.03174235299229622, -0.025772657245397568, 0.09881936013698578, 0.07975191622972488, -0.02144380286335945, -0.0808214396238327, 0.033263083547353745, -0.019284646958112717, -0.0707119032740593, -0.025629593059420586, -0.04958317056298256, 0.11554532498121262, -0.07866355031728745, 0.025488978251814842, -0.030676528811454773, -0.020655782893300056, -0.01868824101984501, -0.11787348985671997, -0.003796679899096489, -0.07192912697792053, 0.013613041490316391, 0.0020073330961167812, -0.03273142874240875, -0.0015699323266744614, 0.001625864184461534, -0.068776436150074, 0.013976821675896645, 0.09095881879329681, -0.05329256132245064, -0.0036131946835666895, -0.07404526323080063, -0.025999564677476883, -0.05246668681502342, -0.053895823657512665, -0.09502296894788742, -0.049675825983285904, -0.015540754422545433, -0.09732961654663086, -0.0423993319272995, 0.0016259211115539074, 0.06541566550731659, -0.057841043919324875, -0.07922621816396713, 0.011910494416952133, 0.0022162795066833496, 0.0038798823952674866, 0.08432251960039139, -0.001871911226771772, 0.01209746953099966, 0.010053873062133789, 0.02196420356631279], [-0.06768722087144852, -0.027966631576418877, 0.02553100883960724, 0.06270167231559753, -0.04053860902786255, 0.03399861231446266, -0.028108414262533188, -0.03230418264865875, -0.022146625444293022, 0.003686737734824419, -0.00013060198398306966, -0.056991662830114365, 0.0320490300655365, 0.008897089399397373, 0.008333034813404083, 0.010853872634470463, 0.017981670796871185, 0.042254094034433365, -0.020254049450159073, -0.029607966542243958, -0.012290891259908676, 0.0023890044540166855, 0.04167532920837402, 0.055570363998413086, -0.006569200195372105, -0.0047598532401025295, 0.005606815218925476, -0.07339946925640106, -0.03411464765667915, 0.060333896428346634, -0.01708877459168434, 0.03839144855737686, 0.038422297686338425, 0.04417800158262253, -0.037272583693265915, 0.025172516703605652, -0.03439024090766907, -0.10902967303991318, 0.021731197834014893, -0.061683569103479385, 0.028320446610450745, -0.1117960587143898, 0.0054930769838392735, 0.03467452898621559, -0.019075294956564903, -0.0012536628637462854, 0.09388267248868942, 0.05588071793317795, -0.027455348521471024, -0.015006172470748425, 0.006410944275557995, -0.06599962711334229, -0.013065890409052372, 0.029949011281132698, -0.04413188621401787, -0.014308649115264416, 0.026583870872855186, 0.024287331849336624, 0.0834401324391365, -0.017278313636779785, 0.042981695383787155, -0.06371074169874191, -0.06026739999651909, 0.008904434740543365, -0.007820984348654747, -0.04156173765659332, -0.041977860033512115, -0.02335384115576744, -0.015076355077326298, 0.03652290999889374, 0.07120859622955322, 0.08540824800729752, -0.02756495587527752, -0.009029321372509003, 0.04088197648525238], [0.02758616767823696, 0.009041642770171165, 0.06071681156754494, 0.08764735609292984, -0.002052291762083769, 0.053553372621536255, 0.042535200715065, -0.0035172344651073217, 0.001105590956285596, -0.05159114673733711, 0.004120214842259884, 0.051482997834682465, 0.04553064703941345, -0.052097469568252563, -0.06178276613354683, -0.020384974777698517, -0.022820688784122467, 0.09830325096845627, 0.02038557454943657, 0.0032889924477785826, 0.008214619010686874, -0.04630247503519058, 0.012090548872947693, -0.0035311835817992687, 0.009497549384832382, 0.025450048968195915, -0.10985291749238968, 0.031037278473377228, 0.012719274498522282, 0.07856366038322449, 0.08589979261159897, 0.03446769714355469, 0.021502889692783356, -0.07167305052280426, 0.019628016278147697, 0.0060079083777964115, 0.03285447135567665, 0.024255389347672462, 0.08963864296674728, 0.013158954679965973, 0.05253014713525772, 0.031749699264764786, -0.035123035311698914, 0.019106397405266762, -0.007143095135688782, -0.09038437157869339, 0.008016391657292843, 0.001165584777481854, 0.05509033054113388, -0.046010952442884445, 0.01556539349257946, -0.021994879469275475, 0.03593233972787857, 0.003788907313719392, 0.027687929570674896, 0.09553652256727219, 0.07708711177110672, 0.0159007515758276, -0.031596750020980835, -0.091908760368824, -0.021321218460798264, 0.06502043455839157, -0.07772865891456604, -0.01169288344681263, 0.046835195273160934, 0.020913800224661827, -0.07520829886198044, -0.006949050351977348, -0.04790966957807541, 0.010157057084143162, 0.0309437308460474, -0.051674213260412216, -0.020589392632246017, 0.041169922798871994, 0.03444996476173401], [-0.03634209558367729, -0.02032209187746048, -0.03399209305644035, -0.04808034747838974, -0.03885998949408531, 0.048288483172655106, -0.047361649572849274, 0.07337995618581772, 0.04421321675181389, -0.025626378133893013, -0.013746025040745735, -0.05308298021554947, -0.041511170566082, 0.005546354688704014, 0.04726266860961914, -0.028003452345728874, -0.06479086726903915, 0.09327910095453262, 0.04511547461152077, -0.0019155447371304035, 0.08051677793264389, 0.03795820474624634, 0.015238454565405846, 0.0024789106100797653, 0.021972956135869026, 0.018425090238451958, -0.026878854259848595, -0.04417214170098305, -0.005452392157167196, 0.02811238169670105, -0.015963345766067505, -0.00850259605795145, -0.0023657320998609066, -0.0648658499121666, -0.029874781146645546, -0.011838301084935665, 0.01531725749373436, 0.026357462629675865, 0.10103514790534973, 0.07085350155830383, 0.03782103955745697, 0.02301054447889328, 0.017875531688332558, -0.020463071763515472, 0.03752756118774414, -0.026647010818123817, -0.12228883057832718, 0.021537713706493378, -0.08828220516443253, 0.035702913999557495, 0.021158885210752487, -0.009320398792624474, -0.005986412521451712, 0.0092071034014225, 0.008418348617851734, 0.0036446047015488148, -0.018853861838579178, 0.12055446207523346, -0.008454357273876667, -0.04668588936328888, -0.030686408281326294, 0.0017789745470508933, 0.04041958227753639, -0.004113535396754742, 0.04043618217110634, -0.03319312632083893, 0.0018311606254428625, 0.06419463455677032, 0.01855100877583027, 0.012734904885292053, 0.013582572340965271, -0.06005058065056801, -0.008982216008007526, -0.04375225678086281, 0.04326927661895752], [-1.383010157951503e-06, 1.3982527207190287e-06, 1.4788960243095062e-06, -4.026399835765915e-07, -3.580306540129641e-08, 1.976530029423884e-06, 1.9191127194062574e-06, 2.535866769903805e-06, -1.791963768482674e-07, 1.002646627057402e-06, 1.1711846354955924e-06, -1.6469439856336976e-07, 3.6367032407724764e-06, -7.864270656909866e-08, 4.2283335233150865e-07, 1.7274804804401356e-06, -1.6475515849379008e-06, -9.2674684992744e-07, 8.735779033486324e-07, -3.024876207291527e-07, 2.600016614451306e-06, 1.409760784554237e-06, 1.5912917206151178e-06, 2.724836747347581e-07, 1.4401132375496672e-06, -3.050944030746905e-07, -2.076879582091351e-06, 4.3635068891489937e-08, -9.871082511381246e-07, -1.7104335938711301e-06, 6.617711960643646e-07, -8.455041324850754e-07, -6.521938757941825e-07, -1.7128033960034372e-06, 5.038639301346848e-07, 7.336083172049257e-07, -2.316563495696755e-06, 1.4748991361557273e-06, -1.4911178141119308e-06, 7.541278250755568e-07, -1.4740891174369608e-06, -2.317216967639979e-06, 1.6936004954004602e-07, 3.0210225077098585e-07, 3.1067315386934524e-09, 1.1916270068468293e-06, -3.129580363747664e-07, 2.659546680661151e-07, -6.105066745476506e-07, 6.557331744261319e-07, 6.98165194989997e-07, -1.517642544968112e-06, -6.327150003926363e-07, 9.866258778856718e-07, -6.360379529724014e-07, -5.816269208480662e-07, -6.109169135015691e-07, 1.5198813798633637e-06, -1.3901112652092706e-06, 1.83405643383594e-06, -2.432774692806561e-07, 7.341053276377352e-08, 2.3748809780954616e-06, -8.590788524998061e-07, -7.597573699058557e-07, -1.9176779915142106e-06, -5.274393402032729e-07, -1.2350905080893426e-06, 1.2130202264870604e-07, -2.609566536193597e-07, -3.492456244202913e-07, 1.3494229733623797e-07, 1.3731704484598595e-06, -7.875677283664118e-07, -8.568563885091862e-07], [-0.04439130425453186, -0.016857296228408813, 0.01491701789200306, 0.02394411712884903, 0.008475789800286293, -0.021928709000349045, -0.039906490594148636, -0.03941800445318222, 0.0221696924418211, -0.03516479581594467, -0.07789065688848495, -0.03885259851813316, 0.049351129680871964, -0.05042850226163864, -0.024038678035140038, -0.00047087142593227327, -0.034457746893167496, -0.010675263591110706, 0.005193455144762993, 0.034765828400850296, -0.01443262305110693, -0.005408585537225008, -0.011008924804627895, -0.05430029705166817, -0.06973201036453247, -0.08071566373109818, 0.028321856632828712, 0.034257013350725174, 0.0027149359229952097, 0.02980167791247368, 0.0441780649125576, 0.0023789394181221724, -0.03514331951737404, -0.01840214617550373, -0.14970214664936066, 0.003658454166725278, 0.03691275045275688, -0.011773481965065002, -0.05772875249385834, -0.06089359521865845, 0.027850886806845665, 0.018118098378181458, 0.00561604043468833, 0.04602081701159477, -0.024408668279647827, -0.014735189266502857, -0.014357670210301876, 0.020438795909285545, -0.019763315096497536, -0.021476536989212036, -0.06280732154846191, -0.00586345000192523, 0.021476460620760918, -0.006326549686491489, -0.023174267262220383, 0.041585735976696014, 0.004311332944780588, -0.03996073082089424, -0.0032362795900553465, -0.06279147416353226, -0.025267859920859337, 0.0609070286154747, -0.017223836854100227, -0.00743470061570406, -0.0029975506477057934, 0.02284804917871952, -0.04130203276872635, 0.0003642181109171361, -0.010212105698883533, 0.06166386231780052, 0.03338270261883736, 0.012425435706973076, -0.01229319628328085, -0.005360487848520279, -0.005048773717135191], [0.0527212992310524, 0.022748854011297226, -0.008244074881076813, -0.01715836115181446, 0.013240336440503597, -0.008896698243916035, -0.024942029267549515, 0.003063481766730547, 0.06920646131038666, -0.009652095846831799, 0.10935283452272415, 0.038707833737134933, 0.04331103712320328, -0.047505609691143036, -0.013093378394842148, -0.04421757906675339, 0.03406482934951782, -0.032155364751815796, -0.05054699257016182, -0.054185397922992706, -0.03106428124010563, -0.002846547868102789, 0.005883782170712948, -0.11406507343053818, -0.012349424883723259, -0.02519765868782997, 0.030519966036081314, 0.05610102415084839, -0.06916536390781403, -0.10315932333469391, 0.09106630831956863, 0.17999130487442017, 0.061835575848817825, 0.017844395712018013, -0.004331201780587435, -0.0038466674741357565, -0.110149085521698, 0.036122485995292664, -0.10421992093324661, 0.0022895238362252712, 0.03493723273277283, -0.14606954157352448, -0.034942708909511566, -0.03898311406373978, 0.05187318101525307, 0.0802733451128006, -0.044538483023643494, 0.0549398772418499, -0.08382181078195572, 0.09138203412294388, -0.031185155734419823, -0.0169504527002573, 0.0003826084139291197, -0.04411856085062027, 0.050558749586343765, -0.06684229522943497, 0.10537909716367722, -0.0018456862308084965, -0.0402342863380909, 0.031315598636865616, -0.043764837086200714, -0.05723267421126366, 0.015589190647006035, -0.040088385343551636, -0.02972867339849472, -0.04866147041320801, -0.0010862352792173624, -0.035430487245321274, -0.036045920103788376, 0.019694088026881218, -0.06348690390586853, -0.0380239300429821, -0.020766403526067734, -0.06606199592351913, 0.006496665999293327], [0.010166297666728497, 0.02411777153611183, -0.05649641156196594, 0.010497425682842731, 0.018631353974342346, -0.05318671092391014, 0.05834835767745972, -0.008575140498578548, 0.03217127174139023, 0.019761763513088226, 0.02270197682082653, 0.0025082535576075315, -0.03276638314127922, 0.01634570211172104, 0.13609187304973602, 0.06666574627161026, 0.0034901637118309736, 0.013628137297928333, 0.09852432459592819, -0.018152588978409767, 0.003389247925952077, 0.03450547903776169, -0.03501710295677185, -0.055361662060022354, 0.06962964683771133, -0.04779275879263878, 0.04729863628745079, 0.03300473093986511, 0.03823314607143402, 0.01894151233136654, -0.14963941276073456, -0.0015672659501433372, -0.15168717503547668, -0.02640119008719921, -0.00016385718481615186, 0.0074967932887375355, 0.1313164085149765, 0.021931378170847893, 0.10084722191095352, 0.03677261248230934, -0.022999200969934464, 0.062260325998067856, -0.03465159609913826, -0.04030289873480797, 0.019649581983685493, 0.04726438969373703, 0.0028990237042307854, -0.11098510026931763, -0.01682933047413826, 0.11456935852766037, -0.03550931066274643, 0.04907216504216194, 0.008754114620387554, 0.0013736971886828542, -0.01933508925139904, -0.05881119892001152, 0.04185033589601517, -0.06151759251952171, -0.04953021928668022, -0.029971249401569366, -0.021967267617583275, 0.07581192255020142, -0.022993415594100952, 0.03236447274684906, 0.10841330885887146, 0.017586564645171165, -0.040647849440574646, -0.013227355666458607, -0.020565541461110115, 0.03810345381498337, 0.05553346127271652, 0.020792590454220772, -0.007363110315054655, 0.011007718741893768, 0.07763297855854034], [0.0004097693308722228, 0.00026929471641778946, 0.00029802430071868, -0.0026077863294631243, 0.0031168977729976177, -0.004563812166452408, -0.0007997628999873996, -0.004917968064546585, -0.0008591644582338631, -0.0015822300920262933, 0.0009948331862688065, -0.004306023009121418, -0.006351038347929716, -0.0034620300866663456, 0.00012184525257907808, -0.0014843411045148969, 0.002023689914494753, -0.000282211578451097, -0.002326456131413579, 0.00015235604951158166, -0.0030081120785325766, -0.004328061360865831, -0.003500848077237606, -0.000952941074501723, -0.0041364808566868305, 0.002396382624283433, 0.0033986386843025684, 0.00035689937067218125, 3.836288669845089e-05, 0.003674698993563652, 0.0006244464311748743, 0.004525838419795036, 0.002516207518056035, 0.004117695149034262, 0.0012536037247627974, 0.0008031086181290448, 0.001570486812852323, -0.005544412415474653, 0.0008421269594691694, 0.0007636844529770315, 0.0013142108218744397, 0.003093031467869878, 0.003441126085817814, 0.0023755121510475874, -0.00012806910672225058, 0.0008755677845329046, -0.0012198876356706023, -0.0013944078236818314, 0.00025123104569502175, 0.0012082710163667798, -0.0009014757815748453, 0.0003661624214146286, 0.002514798892661929, -0.0007894871523603797, 0.0020177976693958044, -0.00047613479546271265, 0.002388235880061984, -0.004565772134810686, 0.004315741825848818, -0.0033237820025533438, 0.0022720645647495985, 0.003982872236520052, -0.009123017080128193, -0.001067144563421607, 0.0020184852182865143, 0.003458247287198901, -0.00036306690890341997, 0.0010094777680933475, 0.00019172084284946322, 0.00458661699667573, 0.0015065897023305297, -0.003746558679267764, -0.0029022630769759417, -0.00041287572821602225, -3.395281237317249e-05], [-0.0455617681145668, 0.1448076367378235, 0.0448450967669487, 0.027295725420117378, 0.057107698172330856, -0.06237751245498657, 0.06405715644359589, 0.020435728132724762, -0.07663468271493912, 0.024093924090266228, -0.04233403503894806, -0.09292953461408615, 0.053853683173656464, 0.03141238912940025, 0.015848273411393166, -0.011092877946794033, -0.010187466628849506, -0.0628703311085701, -0.00694492319598794, -0.016369404271245003, 0.010062083601951599, -0.027147730812430382, -0.017140205949544907, -0.04957117140293121, -0.12047790735960007, 0.05516368895769119, 0.04155643284320831, -0.04434143379330635, 0.02332981675863266, -0.04688933864235878, 0.03022146224975586, -0.0049153962172567844, -0.06370788812637329, 0.01913778856396675, -0.04810292646288872, -0.03414468467235565, 0.07218204438686371, -0.07446851581335068, -0.00692241545766592, 0.1251910775899887, -0.05415036901831627, 0.037303559482097626, 0.015634693205356598, -0.0740455612540245, -0.07721298187971115, 0.06362232565879822, 0.03625307232141495, -0.007014608941972256, -0.021512288600206375, -0.04275909811258316, -0.015479786321520805, 0.0246968362480402, 0.03697839751839638, -0.0036692023277282715, 0.0520002581179142, -0.07135580480098724, -0.022819560021162033, 0.03656598925590515, -0.037472836673259735, 0.08761079609394073, -0.022395655512809753, -0.016669094562530518, -0.042055100202560425, 0.04874983802437782, -0.07677016407251358, 0.011702049523591995, 0.08155300468206406, 0.03240949660539627, -0.05764508992433548, -0.11698232591152191, -0.0036817279178649187, -0.01591513305902481, 0.013875965029001236, -0.055668964982032776, -0.07278172671794891], [-0.06413998454809189, 0.04722665622830391, 0.052821084856987, -0.0035788598470389843, -0.016916025429964066, 0.018587054684758186, -0.0014193271053954959, -0.031148329377174377, 0.0007018481846898794, -0.05172112584114075, -0.09468274563550949, -0.009437774308025837, -0.08670798689126968, 0.1657770425081253, -0.054603319615125656, 0.016102802008390427, 0.016694582998752594, 0.032675400376319885, 0.005498171783983707, -0.055441416800022125, 0.09101325273513794, 0.04194433242082596, 0.006950596813112497, -0.07203173637390137, -0.0401400662958622, -0.07085283100605011, -0.04746939614415169, -0.019552787765860558, -0.007504121400415897, 0.02930423803627491, -0.043115969747304916, 0.01651640050113201, -0.0037352785002440214, 0.009835251607000828, -0.025180378928780556, -0.004708095919340849, 0.031703103333711624, 0.05982169508934021, 0.04021811485290527, -0.019147204235196114, -0.03054075315594673, -0.0006807112949900329, -0.040416404604911804, 0.014378766529262066, -0.0355522558093071, 0.007964490912854671, 0.07883913069963455, -0.06812891364097595, -0.07053641229867935, 0.02951136976480484, -0.04508712887763977, -0.04231314733624458, 0.03650777041912079, -0.015203124843537807, 0.043557241559028625, 0.008129017427563667, 0.02045309543609619, -0.01688516139984131, 0.05483527481555939, -0.008882747031748295, -0.05961652100086212, -0.02976735681295395, 0.041005391627550125, 0.05450314283370972, -0.05305461585521698, 0.01834568753838539, 0.018091555684804916, -0.01604471169412136, 0.02201591432094574, -0.030988134443759918, 0.01868673786520958, 0.03746585175395012, 0.019816840067505836, -0.06488023698329926, -0.009026359766721725], [0.005147126968950033, 0.05866860970854759, -0.010523874312639236, 0.01881001703441143, -0.06869499385356903, 0.004407675005495548, -0.022641917690634727, 0.01450379192829132, 0.005086902063339949, -0.009086450561881065, 0.03664100542664528, -0.0727587416768074, -0.0021707373671233654, 0.0025678477250039577, 0.09128058701753616, 0.02969478629529476, -0.04813696816563606, -0.11015407741069794, -0.03260628134012222, -0.0772920474410057, -0.01713382638990879, -0.013888442888855934, 0.008099108003079891, -0.013119904324412346, -0.01767714135348797, 0.034964483231306076, -0.01721663773059845, 0.05592124164104462, -0.028777174651622772, 0.09204629063606262, 0.002211661310866475, -0.034667015075683594, 0.0465051494538784, -0.06487686187028885, 0.07149621844291687, 0.04161959886550903, -0.004021034575998783, -0.011908304877579212, -0.08871173113584518, -0.021935023367404938, -0.007156192325055599, 0.06707096099853516, 0.021757669746875763, -0.07655202597379684, -0.03559069335460663, 0.01629156433045864, 0.013798810541629791, 0.04749802500009537, -0.09266864508390427, -0.03827797994017601, 0.04486943036317825, 0.07532176375389099, 0.05084291845560074, 0.087988942861557, 0.003403496230021119, 0.05140862241387367, -0.0053923954255878925, -0.043302737176418304, -0.038209427148103714, -0.0838843509554863, -0.04316619038581848, 0.01647542044520378, 0.07703039795160294, -0.04320169985294342, 0.07326441258192062, 0.06799029558897018, -0.06589419394731522, -0.03231221064925194, -0.033497072756290436, -0.026047075167298317, 0.012543005868792534, 0.008729453198611736, 0.016570020467042923, 0.011968622915446758, -0.011708640493452549], [0.00821338314563036, 0.05163871496915817, 0.0835130512714386, -0.0561513714492321, 0.01861441880464554, -0.022524097934365273, 0.07452515512704849, -0.017282946035265923, -0.0327913761138916, 0.0063221086747944355, -0.0053545888513326645, 0.03900609165430069, -0.03966456651687622, 0.009224893525242805, 0.020161738619208336, -0.029011959210038185, -0.00028262505657039583, 0.013373734429478645, 0.019609641283750534, 0.04888669773936272, -0.05117307975888252, 0.050494492053985596, -0.010049811564385891, -0.025193925946950912, -0.014815552160143852, 0.07739227265119553, -0.0463787317276001, 0.004774631001055241, 0.06888433545827866, -0.1561068445444107, -0.11844394356012344, -0.016809822991490364, -0.04361604526638985, 0.10256922245025635, 0.17314118146896362, -0.03671683743596077, 0.019926639273762703, 0.02163885533809662, 0.023990074172616005, 0.06549040228128433, -0.061994221061468124, -0.0035020343493670225, -0.019151363521814346, -0.06541625410318375, 0.0504654124379158, -0.035653792321681976, -0.059259720146656036, 0.017424967139959335, -0.07852114737033844, 0.01480188686400652, -0.03752969577908516, 0.014205321669578552, 0.15305455029010773, 0.025647353380918503, -0.0820045918226242, -0.034744858741760254, 0.05009939521551132, -0.021535880863666534, 0.09348894655704498, 0.10056254267692566, 0.025280704721808434, 0.08305956423282623, -0.027333615347743034, 0.015903696417808533, 0.017897954210639, 0.04560709372162819, 0.06561510264873505, -0.0460355170071125, -0.048479434102773666, 0.06457449495792389, -0.03497307747602463, 0.02775520272552967, 0.025987429544329643, 0.021900294348597527, 0.06445218622684479], [-0.0372321791946888, 0.0053320154547691345, -0.05515727773308754, -0.0008092704229056835, 0.009078108705580235, -0.03209294378757477, -0.04252781718969345, 0.03981798514723778, 0.027597155421972275, 0.02624288573861122, -0.04154162108898163, 0.019097959622740746, -0.009961588308215141, 0.09844181686639786, -0.07804147154092789, -0.017782801762223244, -0.008711676113307476, -0.033321183174848557, -0.05125395581126213, 0.009232955053448677, 0.031141703948378563, 0.045791029930114746, 0.01336550060659647, 0.03727998584508896, -0.04154973477125168, 0.05810818821191788, 0.007811680436134338, -0.009632033295929432, -0.035541046410799026, -0.12991100549697876, 0.05151011422276497, -0.012551568448543549, -0.050345953553915024, 0.07588315010070801, 0.028076427057385445, 0.033532124012708664, -0.009574150666594505, -0.0007110721198841929, 0.007588670123368502, -0.06075684726238251, 0.012437242083251476, -0.10855782777070999, 0.03986053913831711, 0.05676638334989548, -0.004497911315411329, -0.009641270153224468, 0.012798107229173183, 0.09266839176416397, 0.029401127249002457, 0.02406981959939003, -0.02314946986734867, -0.009548232890665531, -0.023967070505023003, -0.020135918632149696, -0.07749435305595398, -0.042756661772727966, -0.09142229706048965, -0.04507499933242798, 0.07699095457792282, 0.06574874371290207, 0.05730796977877617, -0.0007625070284120739, -0.035036955028772354, 0.04900055751204491, -0.11677414923906326, 0.02661988139152527, -0.014990579336881638, 0.0595908984541893, 0.09797193109989166, 0.0722012147307396, 0.06634587049484253, -0.01003339048475027, 0.04185998812317848, -0.04984123259782791, 0.02101125568151474], [0.0031259399838745594, 0.0020465501584112644, 0.002276164945214987, -0.019929151982069016, 0.023821793496608734, -0.03485598787665367, -0.006100958213210106, -0.037572797387838364, -0.006567466538399458, -0.012094415724277496, 0.007611815817654133, -0.03288843855261803, -0.04851381108164787, -0.026447737589478493, 0.0009292250615544617, -0.01134726032614708, 0.015468339435756207, -0.0021482936572283506, -0.017779774963855743, 0.0011700792238116264, -0.02297317422926426, -0.0330701507627964, -0.02674340270459652, -0.007290019188076258, -0.03160654380917549, 0.018304582685232162, 0.02597246691584587, 0.0027373728808015585, 0.00028602132806554437, 0.028064295649528503, 0.004769484978169203, 0.03457605466246605, 0.01921875961124897, 0.031451016664505005, 0.00957066286355257, 0.0061445701867341995, 0.01199972815811634, -0.042348768562078476, 0.006432590074837208, 0.005844667088240385, 0.010032792575657368, 0.023619575425982475, 0.026290787383913994, 0.01814345084130764, -0.0009710196172818542, 0.006696759257465601, -0.009310584515333176, -0.010661729611456394, 0.0019223049748688936, 0.009238667786121368, -0.00689946673810482, 0.0027895753737539053, 0.01920170523226261, -0.00602373294532299, 0.015409681014716625, -0.003640951821580529, 0.01823434606194496, -0.03486998751759529, 0.032976794987916946, -0.025394806638360023, 0.017344804480671883, 0.03041776455938816, -0.06968612968921661, -0.008149062283337116, 0.01542604062706232, 0.026419080793857574, -0.0027772721368819475, 0.007700846064835787, 0.0014518677489832044, 0.0350441038608551, 0.011518825776875019, -0.02863169088959694, -0.022169528529047966, -0.003153652185574174, -0.0002488191530574113], [-0.06518401950597763, -0.0013050572015345097, 0.06361233443021774, -0.017465388402342796, 0.022315291687846184, 0.04478892311453819, 0.04175436124205589, -0.05945611745119095, -0.10953348875045776, 0.037722207605838776, -0.05309976264834404, -0.03072487935423851, 0.009124650619924068, -0.021767621859908104, 0.06444665789604187, -0.040421754121780396, 0.09628859162330627, -0.09082607179880142, -0.0638456791639328, -0.060149408876895905, 0.04622751846909523, -0.001162001397460699, -0.02796708233654499, 0.029397714883089066, -0.08270256966352463, -0.021798979490995407, 0.05197581648826599, -0.05856311321258545, 0.045973002910614014, -0.04290663078427315, 0.0013438321184366941, 0.05147390067577362, -0.021640567108988762, -0.03871539980173111, -0.003325891215354204, 0.13519896566867828, -0.004717335570603609, -0.01811062917113304, -0.015638845041394234, 0.07640710473060608, -0.05396783724427223, 0.027851494029164314, -0.036888714879751205, 0.007402608636766672, 0.10028883069753647, 0.04525825008749962, -0.09572753310203552, -0.07219046354293823, -0.08246639370918274, -0.047826897352933884, -0.05091613158583641, -0.002236800966784358, -0.007543040439486504, -0.008103476837277412, 0.004078737460076809, -0.00992490816861391, -0.04839376360177994, 0.1676352620124817, -0.123601533472538, 0.10505829751491547, 0.03559327870607376, -0.05373213440179825, 0.0018924619071185589, 0.057560112327337265, -0.1344098150730133, 0.004575079772621393, 0.11516161262989044, 0.008704932406544685, -0.0886269062757492, -0.09365804493427277, -0.017030326649546623, -0.09456752985715866, 0.04148506373167038, -0.02545311488211155, -0.06814789026975632], [-0.07529821991920471, 0.011822178028523922, -0.009161797352135181, -0.008745851926505566, -0.03318879008293152, -0.016671380028128624, -0.014483533799648285, 0.025974368676543236, -0.0064600324258208275, 0.012283124029636383, 0.009922315366566181, -0.016604144126176834, -5.1588358473964036e-05, -0.00682737585157156, -0.03227563574910164, 0.020055579021573067, -0.04500840604305267, -0.13775713741779327, -0.10990753769874573, -0.004095299169421196, -0.02339284121990204, -0.00812897365540266, 0.0306811835616827, 0.03306996077299118, 0.030557921156287193, 0.019829129800200462, 0.05774999037384987, -0.009499773383140564, 0.03588994964957237, 0.00048186577623710036, -0.0014496974181383848, -0.04719823971390724, 0.025005703791975975, 0.010639709420502186, 0.04119278863072395, 0.03027167171239853, 0.0006949441158212721, 0.010616970248520374, 0.04618566855788231, -0.017406417056918144, -0.07214982807636261, 0.022693946957588196, 0.008704090490937233, 0.05816834419965744, -0.00934403296560049, -0.08541495352983475, -0.008861054666340351, 0.10153301805257797, 0.0809488296508789, -0.014185257256031036, -0.0036044390872120857, 0.05335218831896782, 0.001679438166320324, 0.0033105220645666122, 3.633068990893662e-05, 0.012471964582800865, -0.01635281927883625, 0.0970863327383995, -0.04569217190146446, 0.07357116788625717, 0.014133119024336338, -0.035975273698568344, 0.012030037119984627, 0.02286618761718273, -0.046651050448417664, -0.03832726180553436, -0.008126064203679562, -0.025899574160575867, -0.04393259808421135, -0.09551626443862915, -0.1009722426533699, 0.02564532682299614, 0.08953700214624405, 0.06730962544679642, -0.047898124903440475], [-0.018179504200816154, -0.016489429399371147, -0.01625031605362892, -0.025835329666733742, 0.0026460117660462856, 0.05518396571278572, -0.05490272119641304, -0.007320342119783163, -0.03602871298789978, 0.016887275502085686, 0.07029485702514648, 0.06604470312595367, -0.039732545614242554, -0.01584416627883911, -0.010887101292610168, -0.035366468131542206, -0.03573388233780861, 0.0170380100607872, 0.040445826947689056, -0.12880060076713562, -0.03589800000190735, -0.05342746898531914, 0.04149328172206879, -0.012705081142485142, 0.023645173758268356, -0.05529402568936348, -0.027144283056259155, -0.0023867085110396147, 0.006104103289544582, -0.012334492988884449, -0.03522030636668205, 0.03027687780559063, 0.0585017204284668, 0.0010352690005674958, 0.008069599978625774, 0.06709817051887512, -0.08575749397277832, 0.00778677873313427, 0.0778132826089859, -0.06697198003530502, 0.017512062564492226, -0.1327304244041443, -0.050790924578905106, -0.02550402842462063, 0.00011752317368518561, 0.09634476155042648, 0.017737790942192078, 0.06689358502626419, 0.019282255321741104, -0.027896922081708908, -0.07176201045513153, -0.02913573384284973, -0.015206671319901943, -0.034093745052814484, -0.01496662013232708, 0.015289349481463432, -0.0537225678563118, -0.04992436617612839, 0.044326089322566986, -0.013754895888268948, 0.03659656643867493, 0.007900378666818142, -0.08250333368778229, 0.06738237291574478, -0.0285627543926239, 0.01930256560444832, -0.12313346564769745, 0.011091531254351139, 0.028746962547302246, 0.04534238949418068, 0.11139222979545593, -0.01510024443268776, 0.025633512064814568, -0.011126008816063404, 0.028109341859817505], [-0.07200063019990921, -0.025544332340359688, -0.012081567198038101, -0.009296990931034088, -0.057274915277957916, 0.038728103041648865, -0.030072396621108055, -0.010456305928528309, 0.02302153781056404, -0.013328567147254944, -0.031394749879837036, -0.0155359897762537, 0.010427129454910755, 0.00501889456063509, -0.01370540726929903, -0.024419812485575676, -0.03812604770064354, 0.014463561587035656, -0.014840886928141117, -0.011169261299073696, -0.029781656339764595, -0.012137344107031822, -0.006442789454013109, -0.005074687302112579, -0.030199646949768066, -0.027211591601371765, -0.033046115189790726, -0.0014268392696976662, 0.005196402780711651, 0.05670805647969246, 0.0409831739962101, 0.04213086888194084, 0.04217160865664482, -0.04760054498910904, -0.058789078146219254, -0.007094698026776314, 0.044585760682821274, -0.023046264424920082, 0.05908278375864029, -0.009969640523195267, 0.02719426527619362, -0.02981760911643505, -0.004817293956875801, 0.038959916681051254, -0.007819583639502525, 0.021230237558484077, 0.01000570971518755, 0.012656861916184425, -0.027755681425333023, 0.017278585582971573, -0.04574592411518097, -0.02034624293446541, 0.002869161544367671, 0.01871514320373535, -0.025205297395586967, 0.044259365648031235, 0.007951382547616959, -0.030173784121870995, -0.017186246812343597, -0.04178616404533386, -0.010769600048661232, 0.06269916892051697, 0.010594183579087257, 0.04645712673664093, -0.0020966522861272097, 0.030510421842336655, -0.052975498139858246, -0.018207626417279243, 0.0008248111698776484, 0.04184984043240547, 0.03560018539428711, 0.002936737844720483, -0.03356383368372917, 0.026356680318713188, 0.032705944031476974], [-0.000988103449344635, 8.965925371740013e-05, -3.748460585484281e-05, 0.0013073459267616272, -0.0001642618590267375, 0.0007054319721646607, -0.001241312245838344, -0.001321632880717516, -0.0014695437857881188, 0.001410993398167193, -0.0015011392533779144, 0.0019115145551040769, -0.0013717154506593943, 0.0012776416260749102, -0.0009609063854441047, 0.0014274304267019033, -0.0014034979976713657, -0.00028238663799129426, 0.0012033397797495127, 0.00010961277439491823, 0.0007754823891445994, 0.00011313875438645482, 7.335014379350469e-05, 0.0020656357519328594, 0.0005476055084727705, 4.4414191506803036e-05, -0.0001605644210940227, -0.0001750279770931229, 0.0005912156775593758, 0.0008952149655669928, -0.0011078785173594952, -0.0011308862594887614, -0.0017751791747286916, -0.0008210219675675035, -0.0001223901635967195, 0.0013752514496445656, 0.00036119777359999716, -0.0017414407338947058, -0.0004937281482852995, -0.0007309502107091248, 0.00020422473608050495, 0.0010313300881534815, -2.2485497538582422e-05, 0.0004421021731104702, -0.0006534599233418703, -7.830126560293138e-05, 0.0008221569587476552, -0.0016558849019929767, 0.0013191242469474673, 0.0010968775022774935, -0.0006677621859125793, 0.0008537762332707644, -0.0015084276674315333, 0.0007974058971740305, 9.966160178009886e-06, 0.0010042679496109486, -0.001476205070503056, -0.0005509628099389374, -0.0006606851238757372, 0.001460981904529035, 0.0005122955772094429, -5.445392162073404e-06, -0.00031223229598253965, 0.00016771352966316044, 8.709208486834541e-05, 0.0006580883054994047, 0.00031829962972551584, -0.0006111536058597267, 0.00024163190391846, -0.0008841946255415678, 0.000573733530472964, 0.0003339473332744092, -0.0005648799706250429, 0.0011589882196858525, 0.00048750604037195444], [0.05154670774936676, -0.061162106692790985, -0.09528937935829163, -0.04960378259420395, 0.025354597717523575, -0.00506997387856245, -0.002053058473393321, 0.0345185361802578, 0.001403003348968923, 0.05806455761194229, 0.046402763575315475, -0.10081569105386734, 0.06234986335039139, -0.05781080201268196, 0.01925145834684372, -0.10993117094039917, 0.07718175649642944, -0.05008827522397041, -0.050458215177059174, -0.01079305075109005, 0.018100257962942123, 0.08404108136892319, -0.030902137979865074, -0.012058192864060402, -0.006982032209634781, -0.06941439211368561, 0.03982743248343468, -0.032563529908657074, -0.1172715574502945, 0.02530542202293873, 0.033117059618234634, -0.00048228015657514334, -0.00014676748833153397, -0.06288235634565353, -0.008711351081728935, 0.028012370690703392, 0.05459922179579735, -0.05465675890445709, -0.04825437441468239, 0.0072600157000124454, 0.023815544322133064, 0.08450666815042496, -0.01665741205215454, 0.01611124537885189, -0.017638390883803368, 0.0503925085067749, -0.013633561320602894, -0.0892968475818634, 0.12350557744503021, 0.016725629568099976, 0.06965994089841843, -0.024951159954071045, -0.0890454575419426, -0.05775091052055359, 0.015177370049059391, 0.07867082953453064, 0.0047284988686442375, -0.014541400596499443, -0.020982375368475914, -0.0166255421936512, 0.01632295735180378, -0.030818523839116096, -0.005480543244630098, -0.04027799516916275, 0.06967654824256897, -0.037397757172584534, -0.07790093868970871, -0.021441610530018806, -0.0021251440048217773, -0.014102396555244923, 0.07128763198852539, 0.0424046516418457, -0.12556734681129456, 0.0653202161192894, 0.01571846939623356], [0.09923926740884781, 0.06476932018995285, 0.007026561535894871, -0.021160077303647995, 0.028498118743300438, 0.08351726084947586, 0.05472894012928009, -0.03674996271729469, -0.055934786796569824, -0.05478125810623169, 0.027744611725211143, 0.029069313779473305, 0.016600854694843292, 0.04900527000427246, -0.053177252411842346, 0.008126379922032356, -0.02638893760740757, 0.09430842101573944, 0.01111567672342062, -0.03950757160782814, 0.009801219217479229, 0.05630442500114441, 0.01957244984805584, 0.030767012387514114, -0.031985193490982056, 0.07814974337816238, 0.05680891498923302, -0.012380368076264858, -0.08381974697113037, -0.01912931725382805, 0.00470264395698905, -0.02142384834587574, 0.08939589560031891, 0.0005691563710570335, 0.10589050501585007, 0.01704242452979088, -0.07067983597517014, 0.03826140984892845, 0.020579233765602112, 0.05651286989450455, -0.017106283456087112, -0.073818139731884, 0.01799858547747135, -0.04086161404848099, -0.010839035734534264, -0.012445652857422829, 0.03455891087651253, -0.022579193115234375, 0.05386437848210335, 0.0008297787280753255, 0.007600605487823486, 0.03725924715399742, 0.06142517179250717, 0.002315159421414137, 0.0036250411067157984, -0.011898249387741089, 0.010420975275337696, 0.03677678108215332, 0.05395820364356041, -0.043894488364458084, 0.04283050820231438, -0.007419932167977095, -0.02642318233847618, 0.016745878383517265, 0.026145894080400467, 0.033289238810539246, -0.05115388706326485, 0.01810155063867569, -0.017424406483769417, -0.03229288011789322, -0.003293338231742382, -0.019327305257320404, 0.046366069465875626, -0.049002520740032196, 0.010359808802604675]], "fcn1.bias": [0.09929286688566208, 0.03801192715764046, 0.048751503229141235, -2.9912476747995242e-05, -0.00034607297857291996, -0.0007098912610672414, -0.01012909784913063, 0.04697602987289429, 0.11578018218278885, -9.661318472353742e-06, 0.06915026903152466, -0.024484742432832718, 0.05552797392010689, -3.4530912671471015e-05, -2.281470187881496e-06, 0.04343621805310249, -0.000491406477522105, 0.10641998797655106, 0.0077917203307151794, 0.0005763532826676965, -0.00026342575438320637, -0.0065315584652125835, 0.13467375934123993, 0.10316905379295349, 0.05951633304357529, -0.0016100467182695866, -0.0010074784513562918, -0.04460357874631882, -0.040052976459264755, -0.0003493987023830414, -0.03681273013353348, 0.1160890981554985], "fcn2.weight": [[1.0329712551992998e-07, -8.167275495907234e-07, -1.662195245444309e-06, 1.6369581317121629e-06, 6.979513500482426e-07, -2.2821993752586422e-06, -2.7636772870209825e-07, -1.379852619720623e-06, 9.377370133734075e-07, -7.363946110672259e-07, 2.5801825813687174e-06, 1.1493417559904628e-06, 7.412639320136805e-07, -1.4692241165903397e-06, -9.669796554589993e-07, 1.7684777731119539e-07, 1.427126790076727e-06, 9.612595022190362e-07, 1.7702210470815771e-06, -2.247437578262179e-06, 1.5018424619483994e-06, 1.2550789563192666e-07, -1.5966158173341682e-07, 2.812289494613651e-07, -1.6274872223220882e-06, -1.7967950043384917e-06, 1.663315856603731e-06, 2.085086407532799e-06, -3.701172346382009e-08, 7.627187414982473e-08, -1.9540484572644345e-06, 1.4441577604884515e-06], [-0.0001070521684596315, 1.6933585357037373e-05, -0.00010562001989455894, 0.00011230658856220543, 0.00011504250869620591, 8.885293937055394e-05, -3.160365668009035e-05, 2.801522168738302e-05, -9.445619798498228e-05, 2.5641820684541017e-06, -8.315779268741608e-05, -6.611949356738478e-05, -7.599809032399207e-05, 7.635651127202436e-05, 1.3131298146618064e-06, -4.2318097257521003e-05, 0.00011773106962209567, -3.783962893066928e-05, 5.8518039622867946e-06, 0.0001159516759798862, 9.19514277484268e-05, -8.147235348587856e-05, -4.711149085778743e-05, -0.00011117127723991871, 3.488416405161843e-05, 0.00011832090967800468, 3.7059209716971964e-05, -0.0001046392644639127, -8.552136569051072e-05, 1.7653100030656788e-06, -9.235814650310203e-05, -5.8886525948764756e-05], [-9.50373760133516e-07, -1.9072105033046682e-06, -4.953311645294889e-07, 2.5495237423456274e-06, 1.3171352293284144e-06, -5.631994781651883e-07, 1.834552563195757e-06, -1.7257438855722285e-07, -4.02972227675491e-06, 1.4391829381565913e-06, -4.1236016841139644e-06, -1.8190668527040543e-08, -2.5041056233021664e-06, 1.2156505135862972e-06, -2.031302528848755e-06, -2.900816070905421e-06, 1.8289405261384672e-06, -1.9011802123714006e-06, 3.2757597523414006e-08, 1.8267672885485808e-07, 1.518475983175449e-06, -1.7786984471968026e-06, -1.3456235592457233e-06, -3.1691029107605573e-06, -1.7769816622603685e-06, 1.6239799833783763e-06, 1.2807839766537654e-07, -1.379886839458777e-06, 2.7697720383912383e-07, 3.2158575891116925e-07, -8.344279081029526e-07, 7.240228683258465e-07], [0.2505069375038147, 0.13955752551555634, 0.2851826548576355, -0.2838246524333954, -0.24133679270744324, -0.24449153244495392, 0.06988854706287384, 0.09777125716209412, 0.246069073677063, -0.00020294898422434926, 0.30273208022117615, 0.22722314298152924, 0.24185295403003693, -0.24341541528701782, -5.80497089686105e-06, 0.18158678710460663, -0.30148056149482727, 0.2859412729740143, 0.0162156093865633, -0.2732986807823181, -0.26684078574180603, 0.25263288617134094, 0.29522180557250977, 0.2562679052352905, 0.12386909872293472, -0.32870444655418396, -0.22860310971736908, 0.2418758124113083, 0.14863094687461853, -0.0055883522145450115, 0.2750694751739502, 0.24943558871746063], [-2.424767899356084e-06, 4.1372661030436575e-07, 1.5860945268286741e-07, -1.8041655494016595e-06, 1.611009565749555e-06, -2.1888670289627044e-06, -7.570862976535864e-07, 9.678956303105224e-07, 9.812443977352814e-07, -7.330602329602698e-07, 1.7229198192580952e-06, 2.01563830160012e-06, -6.658674465143122e-07, -1.5276995100066415e-06, -9.70192104432499e-07, -9.603004400560167e-07, -1.3874066553398734e-06, -1.675873932072136e-06, 3.408748909805581e-07, 2.6787506612890866e-06, 1.0032898671852308e-06, -1.952434786289814e-06, -2.4893151930882595e-06, -1.5698992683610413e-06, -1.4023115681993659e-06, 1.892239311018784e-06, 4.841918439524306e-07, 6.403510610653029e-07, -1.2176342352177016e-06, -1.5576638361380901e-06, -1.6753338059061207e-06, 1.936588660100824e-06], [-0.015424325130879879, 0.0029289512895047665, -0.01607988215982914, 0.01738479919731617, 0.016812661662697792, 0.014014900662004948, -0.004950635600835085, 0.00434538908302784, -0.015143271535634995, 9.10670860321261e-06, -0.012696083635091782, -0.010405882261693478, -0.012395885773003101, 0.011744766496121883, 1.1939298474317184e-06, -0.006244673393666744, 0.018299927935004234, -0.006339746527373791, 0.0007219890248961747, 0.01820429041981697, 0.01400241069495678, -0.012607988901436329, -0.00801721028983593, -0.018053162842988968, 0.005506972782313824, 0.019336389377713203, 0.005733007565140724, -0.01714845933020115, -0.0140043580904603, 0.00029856208129785955, -0.014070302248001099, -0.009363657794892788], [-1.9323261213344267e-08, 6.535777288263489e-07, -2.8298604775045533e-06, 1.4785697430852451e-06, -3.658683738194668e-07, 2.2792920617575874e-07, 1.2673428955167765e-06, 1.0655955975380493e-06, 7.455340664819232e-07, 2.3478248749597697e-06, -2.698478510865243e-06, -2.1792409370391397e-06, -2.9973457458254416e-06, -1.910971377583337e-06, 1.5622857745256624e-06, -1.3387317494562012e-06, 1.4879798300171387e-06, -2.5303088477812707e-06, -1.8008551023740438e-06, -8.248979952441005e-07, -4.902021828456782e-07, 1.1694621662172722e-06, -8.984975465864409e-07, -1.0612842515911325e-06, -3.3042554150597425e-06, -2.3292894013593468e-07, 8.289059110211383e-07, -2.1054998455838358e-07, -2.6893640097114258e-06, 2.619922838675848e-07, -2.2515971522807376e-06, -1.0470803317730315e-06], [0.23373150825500488, 0.13021236658096313, 0.26608285307884216, -0.26481810212135315, -0.2251753956079483, -0.22811874747276306, 0.06520640105009079, 0.09122434258460999, 0.22958998382091522, -0.00018977522267960012, 0.2824600338935852, 0.21200625598430634, 0.22565659880638123, -0.2271147072315216, -5.963845978840254e-06, 0.1694241464138031, -0.28128981590270996, 0.26679375767707825, 0.01512864325195551, -0.2549964487552643, -0.24896840751171112, 0.23571401834487915, 0.2754499316215515, 0.23910582065582275, 0.11557108163833618, -0.3066917359828949, -0.21329419314861298, 0.2256772518157959, 0.1386784017086029, -0.005212854593992233, 0.25665178894996643, 0.2327265590429306]], "fcn2.bias": [-5.367981170678604e-09, 6.07474721618928e-05, -4.52174117526738e-06, 0.30999425053596497, -2.0391007637954317e-06, 0.00955308135598898, -3.0984556360635906e-06, 0.2892346680164337], "fcn3.weight": [[1.151832407231268e-06, -0.0004439781478140503, -9.816374586080201e-06, 1.3128517866134644, -2.228533730885829e-06, -0.06943897902965546, -6.572634447365999e-06, 1.2249294519424438]], "fcn3.bias": [0.24128134548664093]}