1.149965077638626099e-01 -6.409020721912384033e-02 -1.841211467981338501e-01 -1.341931894421577454e-02 -2.191229537129402161e-02 -3.151290491223335266e-02 -7.422168552875518799e-02 4.198596626520156860e-02 -3.702970966696739197e-02 -5.623728036880493164e-02 1.698270142078399658e-01 -6.031591072678565979e-02 1.371286064386367798e-02 -4.699887335300445557e-02 -1.263322830200195312e-01 -9.137626737356185913e-02 2.422753348946571350e-02 7.393072545528411865e-02 4.709576070308685303e-02 1.616321206092834473e-01 -1.010603755712509155e-01 -5.625175684690475464e-02 1.518620178103446960e-03 6.554596871137619019e-02 1.018417403101921082e-01 1.417400836944580078e-01 6.380300223827362061e-02 1.985513716936111450e-01 -1.971262693405151367e-01 5.561535060405731201e-02 -6.665953993797302246e-02 -1.773615777492523193e-01 1.261499524116516113e-01 4.805020242929458618e-02 1.817025393247604370e-01 -1.756091415882110596e-02 2.539705485105514526e-03 1.157491505146026611e-01 1.271101832389831543e-01 -2.151838839054107666e-01 3.727949410676956177e-02 -1.678776144981384277e-01 -2.083617635071277618e-02 -5.408632755279541016e-02 -1.678074449300765991e-01 3.281950950622558594e-03 1.590825617313385010e-02 1.095631122589111328e-01 3.265050947666168213e-01 -6.607244908809661865e-02 -8.504928648471832275e-02 -1.676220446825027466e-02 6.242166459560394287e-02 -1.739710196852684021e-02 -2.441459000110626221e-01 1.225195154547691345e-01 -7.036799192428588867e-02 -5.188351273536682129e-01 3.395834565162658691e-01 -3.667663633823394775e-01 2.754151821136474609e-01 2.572189569473266602e-01 -2.583439946174621582e-01 -1.308983266353607178e-01 3.482192158699035645e-01 1.656822264194488525e-01 -5.266216993331909180e-01 -1.129220575094223022e-01 1.931495964527130127e-01 5.614749193191528320e-01 5.296176671981811523e-01 -1.019096374511718750e-02 -8.465753495693206787e-02 7.930760085582733154e-02 3.250132203102111816e-01
